#include <stdint.h>

const float weights[10][784] = {
    {0.469121, 2.006307, -1.653465, -1.988669, -0.126418, 0.563033, 1.789116, 0.087872, -0.112156, -0.126800, -0.332924, -2.439083, 1.102575, 0.298683, -0.791279, -1.403459, 0.579830, -0.828872, 0.521268, -0.815565, -2.651556, 0.406052, 0.654907, 0.649034, 0.380414, 0.187131, -0.123480, 0.164479, 0.198983, -0.597941, -0.614313, 2.916132, -0.393910, -0.452996, -0.809504, -0.738493, 0.471638, 0.848919, 0.939400, 0.010780, 0.893343, 1.457274, -0.799704, -1.346519, 1.010550, 0.887286, 0.174438, 1.270401, 2.193347, -2.417924, -1.330770, 1.173512, 0.649726, -0.983939, -0.036364, 0.535011, -0.910013, 1.961745, -1.814967, -0.911492, 2.199431, -0.358117, -0.340949, -1.159008, -0.705354, -2.209414, -0.199694, 0.652509, -0.039570, 0.520124, -0.767240, -0.505467, -0.475510, -1.336349, -0.160080, 1.605694, -1.081725, -1.341490, -1.389650, -0.440067, -0.234282, -0.752411, 0.970821, 0.411965, 0.045508, -1.010532, 0.299371, -0.854061, 0.061224, -0.672341, 0.395277, 0.608601, 0.032220, -2.016547, -1.497241, -1.144347, 0.942240, 0.708565, 0.667368, -1.036568, -0.743083, -0.986725, -0.505672, 0.514327, -0.057683, 1.917885, 0.591073, 0.441248, 1.421555, 1.157086, -0.832658, -0.457488, -1.020674, -1.299928, -1.165317, 0.680435, -0.220656, 0.696960, 1.534073, 0.347982, 2.292812, -0.558095, -1.439103, 1.735954, 0.044197, 1.159923, 0.410587, -0.871950, -0.636182, -0.387977, -0.257903, -0.653865, -0.595927, 0.909265, -0.460719, -1.245797, -0.650854, -1.426002, 0.311406, 0.294584, 0.817823, 1.432051, 0.222763, 0.205677, -2.329415, -0.217573, -2.499864, -0.223348, -2.492370, 1.178630, 1.473264, 0.711567, 0.423382, 2.289630, -0.396422, -0.489095, 0.016974, -1.718078, -2.318294, 0.023099, 0.732118, 0.601058, 0.824510, -0.433738, 0.194098, -2.595133, -2.306066, 1.626589, 0.750417, 0.567032, -1.165464, 0.910091, -0.004421, -0.486154, -1.332069, 0.129335, -0.794779, 0.857054, 0.837440, -0.623224, -0.041391, -0.095927, -0.596542, -0.149288, 0.044201, 0.216835, -0.383141, -0.866412, 1.458612, -0.964100, 1.922292, 2.159996, 0.447335, -0.696501, -0.402956, 1.841870, 0.844492, -1.145336, -0.596500, -0.408522, 0.413416, 0.387327, 0.372986, -0.653496, -1.518528, -1.437202, -0.039744, -0.329026, -1.031109, 1.434607, -0.932509, -0.246921, -2.146465, -1.451071, -0.172000, -0.358169, 0.817198, -0.067939, 1.071438, 0.478095, 0.668968, -0.869950, 1.055043, 0.978669, -0.506902, 0.940163, 0.429664, -0.300708, -0.483946, 0.240429, -1.039704, -0.173610, -0.723633, 1.129020, -0.635957, -0.707437, -0.825957, -1.396656, -0.897624, -0.088316, -0.788605, -0.076854, 1.210788, 0.298308, -0.477912, -0.971352, 0.666579, 0.238345, -0.470662, -0.692653, -0.857530, -0.298459, 0.319662, -0.646631, 0.457864, -1.519759, 0.324805, 0.553040, -0.166900, 0.561898, 0.517006, 1.495761, -0.008745, 1.435449, 0.404358, 0.444247, 1.340973, -0.218610, -0.192670, -0.570592, 0.202079, 0.231399, 1.212371, -1.840803, 0.702387, -2.094505, -0.792656, 0.844686, 0.726528, -0.185403, 0.860923, -0.121022, 0.327794, -2.946190, 0.962109, 0.463441, 1.002363, 0.181192, -0.986189, 0.707840, 1.331888, 0.100816, 0.826233, 0.205784, -1.032989, 0.286122, 1.363516, 0.075510, 0.653113, 0.000315, -0.925877, -0.048909, 0.470564, 0.211203, -0.078029, 0.178851, 1.526857, -0.353377, -0.492984, 0.000371, 1.438672, -0.414524, 0.351722, -0.705332, -0.180574, 0.090733, -2.243904, 0.249400, 0.251106, 1.463135, 0.131741, -0.399889, -0.819793, 1.611540, -0.324460, 0.329212, -0.751460, 0.972176, -0.396859, -0.718210, 2.841176, -0.167900, -0.958242, -0.644994, 2.267352, 1.540998, -0.393169, -0.226618, 0.006939, -1.162289, 2.135352, 1.130924, -1.356686, -1.253967, 0.015244, -0.527036, -1.069764, -1.868098, 2.436067, -2.141919, -1.080842, -0.768537, 0.382015, 0.304409, -0.846898, -2.360971, 0.400622, -0.400307, 1.291414, -0.728161, -2.393737, 0.498974, 0.138353, 1.295512, 1.156340, -0.940923, 0.079207, 1.958586, -0.311494, -0.577841, -0.621636, 0.049036, -0.497047, 0.143329, 1.104328, 1.498504, 0.170086, -0.718955, 0.001902, -0.732060, 0.759418, 0.866262, -1.206430, -0.714476, 1.421661, 0.164839, -1.139433, 2.162599, 0.284803, 1.035427, -0.158951, -0.439500, 0.395023, 1.188569, 1.046473, 3.089115, 1.169562, 0.896584, 0.025297, -0.975021, 1.263614, 1.274064, 0.230471, 0.458492, 0.417344, 0.064980, 0.102898, 0.875915, 1.325372, 1.050340, 0.504311, 0.037837, 0.590014, -0.017763, -0.494636, -0.922081, 1.556084, 0.798732, 1.465095, 0.986736, -0.587414, -0.303788, 0.909313, 0.337215, -1.056655, -0.574013, -1.306829, -0.855464, -0.113059, -0.874651, -0.578670, 1.050511, -0.522705, -0.304197, -0.079105, -0.665634, -0.623296, -1.989152, -1.021483, 0.439679, -0.009729, 0.714589, -0.009085, 0.575763, -0.194967, -1.417170, 1.467841, -0.340909, -0.686381, -0.451060, -0.755627, -0.465983, 2.075311, -1.071669, 0.151241, 0.013251, 0.595343, -0.175810, 0.051783, 0.518607, 0.264487, 0.633200, 0.516605, 1.251036, 0.977337, -2.252611, -0.222389, -0.214502, 0.311031, -0.674941, -1.503487, -1.938804, 1.679833, -0.602977, 0.856222, 2.017562, 0.078987, -1.963530, -2.371980, -0.806072, -0.213105, -0.417396, -0.241110, 0.360419, -0.230093, 1.056673, 0.276112, -0.293628, 0.913737, 0.320531, 0.695500, -1.278737, -1.773535, -1.570711, -0.233762, -1.473096, -1.283513, 0.895365, -0.687697, -0.403630, -0.385258, -1.076249, -0.329203, -0.641406, 0.068163, 0.098594, -0.358737, 1.057774, 0.828863, -0.047818, -0.539158, -0.515983, -0.258317, -0.229868, 0.972232, -0.433545, -0.123693, 0.364344, -1.172874, -1.321955, 1.470411, -0.010887, 0.863838, -1.344572, 0.642282, -0.917329, 0.404167, 0.535977, -0.276352, 0.156517, -0.204284, 0.543222, -0.968056, -0.305953, 0.032716, 1.076844, -0.183767, 0.713747, 0.977158, -0.149370, 0.226742, -1.279468, 1.139436, 0.912147, 1.383140, -0.570924, 1.321662, 1.196745, -0.161506, 0.696800, -0.800117, 1.181649, 0.031722, -1.232924, -0.242389, -2.672788, 0.548741, 2.182435, 0.697546, -0.951380, 0.842148, 0.880167, -0.392022, 1.004163, -0.817578, -0.121160, 0.346807, -0.584794, 0.725651, 0.964830, 0.178927, 0.474677, -1.263881, 0.591613, 0.541599, 0.433826, -0.420911, 0.693593, 0.988101, 0.788581, 0.602426, -1.039579, -0.186614, 0.987697, -0.725079, 2.901438, 0.873985, 1.296516, 0.018767, 0.369455, 1.131375, -0.181288, -0.550512, 1.169769, 1.169470, 0.641683, 0.778083, -0.137020, -1.266197, -0.814694, 0.714733, -1.656058, 0.335599, -0.582947, 0.499477, -1.032433, 0.019981, -0.615146, -0.662546, 0.241587, -0.108104, -0.772510, -0.083095, 1.352364, 1.127957, -0.778094, -0.860776, -0.578402, 1.134785, -0.424539, -1.096522, -2.827549, -3.249713, -1.387665, 0.404553, -0.652315, 0.684490, 1.401356, 2.454745, 0.478353, -0.869871, 0.457493, 0.071591, -0.621276, -0.426304, -1.191453, -0.269090, -0.884766, -0.967273, -1.574855, 1.242737, -0.380678, -0.133691, -0.614653, -0.612549, -0.218105, -0.916950, -1.457219, -1.218049, -0.382231, -0.046918, -1.114707, -0.498709, -0.266537, 0.580695, -1.219141, 0.590026, -1.380946, 1.497799, -0.879712, -1.269594, -1.773076, -0.764159, 0.659698, 0.772369, 1.392301, 0.041501, 0.434781, -0.224000, 1.458996, 0.135290, -0.877504, 0.428627, 0.988791, 0.169757, -0.261881, -0.949786, -0.884569, 1.830121, 0.144186, -0.608422, 0.888878, 1.988243, -0.838819, -0.214127, 1.218762, 0.536124, 0.599585, 1.244678, 1.001062, 2.164531, -0.018640, -1.292618, 0.515277, 0.091977, -0.718111, -0.497222, 0.010265, -0.300059, 1.576360, -0.369728, -0.588107, -0.797692, -1.265717, 1.218766, -1.004447, 1.606031, -0.289838, -0.571102, -0.672020, -0.885473, 0.863855, -1.655632, -0.873181, 0.849507, 1.610560, -1.922296, 0.792791, -0.150509, -1.296802, 1.359534, -0.467439, 0.753358, 0.448059, 1.585488, -0.879240, -0.143093, 0.647575, 0.260373, 0.804122, 1.945219, -1.438490, -0.863800, 1.027463, 0.083078, -0.215278, 0.319072, -0.233874, -0.977473, 1.818522, 0.250570, 1.410726, -1.073264, -0.695403, 0.325378, 0.057578, -0.307451, 0.086053, -0.377238, -0.552978, -0.253490, -0.350654, -3.631397, 0.958967, 1.203382, 0.042472, -0.373785, 1.310448, -1.130631, -1.391362, -0.472520, 0.181747, 0.253706, 0.564804, 0.353247, 1.848831, -0.234915, -0.426768, -0.069807, 1.591012, 1.795382, 1.260393, -0.442015, -0.348357, 0.300094, -1.474276, -0.653878, -0.526753, -0.164760, -2.425434, 2.189787, 0.082605, 0.726707, 0.529652},
    {0.586567, -1.838169, 0.214074, 2.072077, 2.088616, 0.980319, -0.255013, 0.463343, -1.515286, 0.273938, 0.042072, 1.570587, 0.512516, -1.411091, 2.019397, 1.330009, -0.248856, -2.150248, 0.963984, -0.694924, 0.168706, -0.436276, 1.634415, 0.379603, -0.662054, -0.223452, -0.690697, 0.113348, -1.743238, 1.582873, -0.215487, 2.279491, -0.224105, -1.322990, 1.005798, -0.809055, -1.782123, -1.075630, 0.854955, 1.508718, 1.431762, 1.113743, -0.227470, 1.416051, -0.766702, -1.195982, -0.054197, -0.758917, -1.067375, -1.850961, 0.808839, 1.510179, -0.106595, -0.340402, 1.168235, 0.592555, -2.562308, 1.764294, 0.539710, 0.827146, -0.711494, -1.921697, -1.211743, 0.020461, 1.720773, 0.912709, 1.221746, 1.753291, 1.157839, -0.541962, -0.251530, -0.495624, 1.938940, 0.221974, -0.699407, -0.541276, 0.462201, -0.146680, 1.319175, 1.226364, 0.572453, 0.579714, 2.026582, -0.173837, -0.303021, 0.682900, 0.146604, 2.106641, 0.720881, -0.369772, -0.182437, 2.929219, 0.557328, -0.456672, 0.669175, 0.401310, 0.009300, -0.861023, 0.053107, -1.217748, 2.158168, -0.187851, 0.429292, 1.940361, 0.769743, 1.026258, -0.295803, -0.458988, 0.509139, -0.341334, 0.721596, -0.645144, 0.412199, 1.387921, -1.628885, 0.791961, -0.004790, 0.784070, -0.192585, -0.759863, -0.836664, -0.008848, 0.952849, -0.054014, 0.794748, 0.224645, 0.628722, -0.574385, 2.214732, -0.511501, 0.566081, 1.473102, 0.630495, -1.268212, -0.463712, 0.579278, -0.168109, -1.644935, -0.244827, -0.455991, 1.135373, -1.403518, 0.648346, -2.407928, 0.550943, 0.929233, -0.144307, -0.482145, -1.664181, -0.141664, -0.476667, -0.805817, -1.313775, 1.007145, -1.228481, -0.153063, 0.086627, -1.011476, 0.530378, -0.551341, -0.843103, 1.329612, -0.000040, -0.766153, -1.316862, -2.586686, 0.514041, -1.246152, 2.053872, -0.357663, -1.034252, 0.212745, 0.223921, 0.230750, 0.033818, -1.607021, 0.862585, 1.040046, 0.712561, -1.078385, 1.425821, -1.439723, 0.426886, 0.682752, -0.241182, 0.722785, -0.853777, 1.814450, -0.793089, 0.745478, 0.420828, 0.516512, -0.371188, -0.732526, 3.338152, -0.711072, 0.780821, 0.270761, -1.155093, -0.531347, -0.643078, -0.704382, -0.551961, -0.412726, 1.246811, -2.913323, 1.272190, 0.527573, 1.604591, 1.470318, 0.738891, -0.960562, 2.051173, -0.052324, 0.614488, -1.982812, -0.246438, -1.828276, -0.125244, -0.160466, -0.292429, 0.430798, -0.501915, -0.476219, 0.676478, 0.514584, -1.259327, 0.682337, -0.707766, 0.123456, 0.398030, 1.170688, 0.554241, -0.197153, -0.040037, 1.193580, 0.698875, 0.667668, -0.700620, 2.120244, 0.820691, 1.371649, -0.225628, 1.754317, 0.606291, 0.456309, -1.170359, 0.402353, -0.791282, 0.269314, 0.418180, 0.978092, -0.679735, 1.880562, -1.537241, 0.886696, 1.003549, 0.688515, 1.357825, 1.509690, 0.195831, -1.295700, 0.394361, -1.053087, 0.213929, 0.447226, -1.360643, -1.240225, 1.206476, 2.065838, -0.216440, 2.239558, 0.600393, 0.035148, 0.233654, 0.637391, -0.333464, -0.695806, -0.866242, -0.889501, -0.612368, -0.348188, 0.597156, 0.928288, -0.984640, -1.403095, 0.281418, 0.678713, -0.318676, 0.107163, 2.331625, 0.980583, 1.500876, 0.071332, -0.136255, 1.872083, 0.826860, 0.251230, -0.321847, 2.209741, 0.469729, -1.732353, -2.153760, -0.181355, 0.509484, 0.986142, -0.876841, 0.217907, -0.292771, 1.288887, 1.692133, -1.345230, 0.224135, -1.006746, -0.721799, 0.424621, 0.775790, 0.476753, -0.185109, 0.004247, 0.838699, 0.441422, 0.383564, -0.294901, 0.331673, 0.741460, 0.615320, 0.215108, 0.583189, 0.985854, 0.924247, 1.084928, 0.620974, -1.358055, 0.148710, -0.053131, 1.764841, 1.165577, 0.613686, 0.943111, -1.629323, -0.191461, -0.941692, 0.412802, -1.825678, -0.841823, -0.076442, 0.127347, -0.473887, 1.509017, -0.076641, 0.104907, 1.840569, -0.989862, -0.357175, -1.100375, -0.944385, -0.623163, -1.603666, -1.507381, 0.984997, 1.708413, -0.974034, 0.621849, 0.094591, 0.164534, 0.567303, -0.292695, -0.543817, 0.774293, 1.188660, 1.935849, -0.085236, 1.091032, -0.942167, 0.517983, -3.036711, 0.701502, -0.460026, 0.785628, 0.211914, -1.461323, -0.868691, -1.009614, -0.048518, -0.604290, -0.853778, -0.058053, -1.013459, -0.054345, -0.939224, -0.571405, -0.757219, 0.468524, -0.152057, 0.795188, 0.409396, -0.125914, -0.422929, -1.456399, 2.301793, -0.804699, 0.864852, -0.733449, 0.380793, 1.376655, 0.907105, 0.415336, 0.613433, -1.365975, -0.483951, -0.630229, -0.429094, -0.835889, 0.459772, -0.166423, -0.005121, -0.993501, -0.160713, 0.894650, -1.026011, -0.485948, -0.425839, 0.108332, -0.272372, 0.027865, 1.244035, -1.332835, 0.493663, -1.027568, 1.336305, -2.076822, -0.896453, 0.477426, -0.223317, -0.088067, 0.927756, 0.508730, 0.400405, -0.316525, 0.482408, 0.079635, -2.508232, -0.873822, 0.229257, -0.292726, -0.121051, 0.566640, -0.573611, 0.445373, -0.547082, 0.002996, 0.331914, -0.310610, 0.615154, 1.490151, -0.889415, 0.512582, -0.486439, 0.352488, -0.143057, -1.648318, -2.023899, -0.564408, -1.174816, -0.211166, 0.809090, -0.258367, 0.443667, -0.059702, 0.958696, -0.606463, -1.282819, -0.135129, 0.571421, 1.112684, -0.760133, -0.371936, -0.826908, 0.606553, -0.942211, -1.518062, -0.017444, -0.153618, 1.034130, 0.092227, -1.072075, 0.504483, -1.064359, 0.025587, 0.424979, -1.394367, 0.158417, -0.955023, 1.838798, -1.442685, -0.428969, 0.562138, -0.467121, -1.401943, -0.541380, 0.390809, 0.331274, 0.361260, -0.528859, -0.282243, 0.346869, -0.299204, 0.015716, -1.168774, 1.588796, 0.844638, -0.010926, 0.164877, -0.738528, 1.685246, -1.323907, 0.414633, 0.147616, 0.968026, -0.395290, -0.123817, -0.154302, -0.943060, 0.211534, -0.077125, 1.025885, 1.406972, -0.375195, 0.772108, 0.301327, 1.037219, 0.058336, -0.159511, 0.645665, 1.099614, -0.894247, 1.671293, -0.326860, -0.278273, 0.743175, -0.517056, -0.127524, -1.453059, 0.724317, -0.425655, 0.072394, -1.405017, 1.218362, -1.763814, 1.909409, 0.785889, -0.190079, 1.778490, -0.765905, 1.111175, -0.755885, 1.172466, 0.478265, -0.547564, -0.509976, -0.044078, 1.195525, -0.537158, -1.084956, 0.242083, -0.668340, 1.791587, -0.423947, 0.417071, -0.307377, 2.021854, 0.729008, 1.411763, 0.429571, -1.341570, -0.325715, 1.012212, -0.824288, 1.639773, -0.537838, 1.206059, -0.662853, -0.490404, 0.172554, 0.895132, -0.789934, -1.069328, -1.568236, 1.139190, -0.781807, 2.391466, 2.525261, 0.487192, -0.986744, 1.469182, -1.081731, 0.595257, 1.215427, -0.165576, 0.125400, -1.574746, 1.293774, -1.565415, -0.411150, 0.502482, 0.949165, 1.432108, -0.097392, 0.140693, 0.570879, -0.934503, -0.276712, -1.081817, -1.953481, 1.738618, -0.287540, 0.884417, 1.468862, 0.152764, -0.274128, 0.682515, -1.807564, 0.871529, -1.030618, 1.815890, 0.795736, 0.453922, 1.219846, 3.015088, -0.368736, -0.906503, -0.835062, 1.160171, -0.212182, -0.183483, -0.472202, 1.100215, -0.840644, -1.409885, -0.441187, -1.036350, -0.680039, -0.195148, -1.371984, -0.166745, 1.212661, -0.873515, 0.183412, 1.294490, -1.379617, 0.507113, 1.065682, 0.993480, -1.171832, -1.199599, 1.890429, -0.824883, 0.266884, 0.152893, 1.244295, 1.222619, 0.100434, -0.769029, -1.202472, 1.191836, 0.427970, 0.177128, 1.176309, -0.247454, -0.420722, 0.449780, 1.475235, -0.040754, 0.515907, -0.406823, -0.952968, 0.889737, -0.315978, 0.316634, 1.304038, 0.567109, 0.076232, 1.129264, 0.391861, 0.591185, -1.056893, 0.585061, 0.980384, -0.647338, 1.918762, -1.455945, -0.425499, 0.085534, -0.575162, -1.386952, -1.161582, 1.750152, -1.072075, -0.182470, -1.347824, 0.668080, -0.407247, 0.394166, -0.919477, 1.128654, -0.387554, 0.546283, -1.094560, 0.358623, 1.904186, 1.116342, 0.693515, -0.801425, -0.187328, 0.964259, -0.042464, 0.845916, -2.235083, 0.127765, -0.411827, -1.126262, -1.419457, 0.804977, 0.289866, 1.265155, 0.973992, 0.699674, 0.057568, -3.439166, 0.154640, -0.971676, -0.797996, 2.254717, 0.695446, -0.637490, 0.973047, 1.613591, 0.712241, 0.211345, -0.628068, 0.002143, 0.197171, -0.855591, -1.723837, 0.871637, -0.142470, -0.166829, -0.854156, -0.788001, 0.991094, 0.286917, -0.624291, 1.411301, -0.189346, 1.021623, 0.084004, 0.053831, -0.276884, 0.113327, -0.889237, 1.282326, -0.020396, -0.619114, -0.520016, -0.585529, -0.034619, 1.479793, -0.551895, 0.661915, 0.939050, -1.187677, 0.300397, 0.020322, 2.132304, -0.272376, 0.516708, -0.793534, -2.519538, -0.142237, 1.889907, -0.849993, -2.060023, -0.008122},
    {-1.237781, -0.491544, 0.123789, 1.525963, -0.086642, 0.726157, 1.247991, -0.624244, 0.401202, -0.345427, 0.851487, -0.755088, 2.761657, 0.038402, -0.162384, 1.574817, 2.379182, -1.145650, 0.934933, 1.048671, 0.155080, 0.335567, -1.347321, -0.059171, 0.782323, -0.920764, 0.633955, 0.366706, 2.031501, -0.451433, -0.157479, 0.529840, 0.076547, -0.998916, 0.895577, -2.253967, 0.291748, -0.881471, -1.242707, -0.421373, -0.699197, 1.603558, -0.773540, 1.745360, -1.738545, -0.274010, -0.860511, 0.445984, -1.735715, 0.429835, -0.346224, -0.486229, -0.436021, -0.294623, -0.948700, 0.137885, -2.026853, 1.096299, 0.387356, -1.149980, -0.864767, 0.399248, -2.835302, 0.776452, 1.571853, -0.246782, -0.066568, -0.299569, -1.261596, -0.547461, -1.158106, 0.232877, -0.701882, -0.303498, 0.680081, 0.111005, -1.033930, 1.026130, 0.159450, -0.882827, -2.471482, 1.138465, -1.591499, -0.826597, 0.384019, 1.749096, -2.308970, 0.561358, -1.127830, -0.544240, -0.935291, 0.575279, -0.972441, -1.289765, 2.312118, -0.115996, 0.498239, -0.220386, -0.503801, -0.609701, -0.111071, 0.446176, 0.282983, -1.205896, -0.714254, -1.119450, -1.595188, 0.328148, -0.136466, -0.813306, -0.714304, 1.192785, 0.140838, 0.185431, 0.412500, -0.608719, 0.244518, 0.347504, -0.782498, 0.816890, 1.028793, -0.208584, 0.499238, -0.289858, -2.460426, 0.527213, 1.523654, -1.568657, -0.119179, -1.570891, -1.083786, 0.585485, 1.117897, -0.835610, -0.756812, 1.966169, 0.548552, -0.736573, 0.153607, 0.258128, 0.203660, 0.783059, -0.750707, -2.175822, -0.496304, 0.796162, -0.008357, -0.612300, -1.683866, -0.548920, 1.521596, -0.593460, 0.215522, -1.405080, -0.877357, -1.872900, 1.776698, -0.690530, 1.382526, -0.043397, 0.321077, -0.221293, -1.546946, -1.560617, -0.928547, 1.667941, 1.865312, -2.116860, -1.346935, 1.594536, -0.652530, -1.336046, 0.536134, 1.647309, 1.852527, -0.020307, 0.733441, -2.266748, -1.223324, 0.177839, 0.842603, 0.285277, -2.065330, 0.258768, 1.933176, 0.676803, 0.112212, -0.142464, -0.701859, 1.505101, -0.543621, -0.420834, 0.514466, 0.634843, -0.283128, 0.163225, -1.903622, -0.029172, -0.278436, 0.490362, -0.415050, 0.895843, -0.284333, 3.109052, -0.232752, -0.022554, -0.540950, -0.070071, 1.267184, -0.872897, 0.946099, -0.209485, -1.353138, -0.506157, 0.560962, -0.001765, 1.630658, -0.413530, -0.472335, 1.653304, -0.940592, 0.122614, 0.803518, 0.918277, -1.078567, 0.167955, 0.793802, 0.790615, 0.236725, -0.171755, -0.268768, -1.030207, 0.222827, -1.201411, 0.541652, -0.505144, 0.526435, 0.811238, -0.176987, 1.208436, -0.453753, -0.744469, 0.265658, 0.059800, -0.624533, 0.742641, 1.668136, 1.133159, 0.203879, -0.206376, -0.180658, -0.275104, -0.204265, -1.776673, 1.087290, 1.747502, -2.332340, 0.814359, -3.186295, 1.350957, 0.422017, -0.658131, 0.819173, -2.190743, -0.836097, -0.034356, -1.462612, -0.328077, 0.376493, 1.035672, 0.044828, -0.296412, 0.398342, 0.369619, 0.827022, 0.669936, -1.517843, -0.280046, -1.327968, -1.430748, -1.206770, 1.358342, -0.903520, -0.394621, -0.803441, 0.474783, -0.263830, -0.071762, -0.220636, -0.933351, 1.418920, 0.040370, -0.667253, 1.060515, -1.260787, 1.573812, -0.308007, 0.872235, 0.886862, -0.871781, -0.641665, 1.366374, -0.113267, -1.159722, -0.668703, 1.815039, 0.595091, -0.565636, -0.432377, 0.655364, -0.530350, 0.223262, -0.376085, 0.689388, -0.729058, 0.204988, -0.824053, 0.180232, 1.599495, -0.731228, -0.663255, 1.522107, -0.074084, -0.383539, -0.947920, -1.390600, -1.053887, 0.149423, 0.712729, -1.130143, 1.045283, -0.857786, 1.537115, -0.119805, 0.807445, 1.026763, -0.190870, -0.111456, -1.318238, 0.692103, -2.121644, 0.829086, -0.026467, 0.315860, -0.508171, 0.978706, -0.094271, 0.482766, 0.063251, 0.696607, -0.734660, -0.921647, -2.859883, 0.595629, 1.027587, -0.308843, 0.308777, 0.493165, 0.407634, -0.170799, 0.661208, -0.339857, 0.971929, 0.223874, 0.150964, -1.839314, 0.479286, 1.192156, -0.098284, 0.940505, 0.453902, 0.164296, -0.329036, 0.471698, 0.424481, -1.207757, 0.410675, 1.341208, 0.039281, 2.280072, -0.111745, 1.645847, 0.617979, 1.020951, -0.177061, -0.848419, 0.776999, 1.047746, -1.394860, -0.711719, 1.137093, 0.508692, 0.888876, -1.043580, -1.038355, 0.542944, -2.015140, 1.659163, -0.460035, -0.389169, -0.661165, -0.956067, 1.455035, -0.539357, -1.799368, -2.227365, -1.015788, -0.675792, -0.711573, -0.090874, 0.148912, -0.312871, 1.065857, 1.210309, 0.312178, -0.448619, 1.359525, -0.113720, -0.165262, 0.137375, -0.839877, -0.081154, 0.385588, -1.088797, 0.374503, -0.041132, -0.345726, 1.052026, 0.368237, 2.014079, 0.903191, -0.390452, 1.335467, -0.123253, 0.076881, -0.005428, -0.056674, -1.238062, -0.476601, 2.223424, -0.038491, -1.657153, 0.512451, -0.474903, -0.839980, 0.346412, -0.178794, 1.800566, 0.969297, -1.538997, 0.917291, -0.633409, 0.467818, -0.525772, -1.653481, 0.434764, -0.946488, -0.071141, 0.089515, -2.700401, 0.491068, -0.434103, -2.106482, -0.836489, 0.030744, 0.704557, 0.169227, -0.581069, 0.308519, -1.461853, 0.533210, -0.058622, -1.285363, -0.997537, 0.542398, -1.837131, 0.651152, 0.860826, 0.543492, 0.347823, 0.221643, 0.798698, -0.294278, -1.931498, -0.850154, -0.253810, -0.208597, 1.134314, 0.324154, 0.823437, -1.940263, -0.659292, -0.158890, 0.482506, -0.095291, -1.405621, 0.127493, 0.979046, -1.092762, 0.520652, -2.317508, -0.965994, -0.562386, 0.594169, -0.046183, 0.337349, -1.545096, -0.388379, -0.317658, -1.013963, 1.283882, 0.760395, -0.228511, -0.312008, -0.017794, -0.165449, -0.359139, 2.102571, -0.071530, 1.856672, 1.285719, -0.467908, -0.431862, -0.564636, 0.720390, 2.225982, 0.392278, -2.410956, -1.527783, 0.442965, -0.252785, -0.572023, -0.724353, 1.934277, -0.140482, 0.211455, -0.826488, -0.833588, 1.283167, 1.433935, 0.892710, -1.549989, -1.972353, -0.310757, -0.005267, -0.684660, 1.272709, 0.260295, -0.345306, 0.462329, 1.513755, 0.385444, 1.209313, -0.004909, -2.188060, -1.092138, -1.325463, 0.289360, 0.516631, 0.274442, 0.312139, -0.603574, 1.079439, 0.743366, -0.228353, 0.155221, 0.693112, 0.097172, -0.196367, -2.053584, -0.378396, -0.750965, -0.764740, 1.693198, -0.045962, 0.232595, 0.218477, 1.279129, 1.068703, -0.354990, 2.089678, 0.357730, 0.475604, -1.090824, 0.244587, 0.070679, -0.296406, 0.318676, -0.314453, 2.791081, 0.045121, -0.284261, -0.030492, -0.117100, 0.912488, 0.919127, 0.962275, -1.032450, -2.489725, 0.215029, -0.875048, 0.013175, 0.758264, 0.704067, -1.657629, -0.174419, -0.011595, -0.464354, -2.370385, -1.138803, -0.996811, 0.659809, 0.297365, 0.787593, 1.764847, -0.995690, 0.547790, 0.840957, 0.287533, 0.168475, -0.130493, 0.554714, 0.011954, -0.143710, 0.521149, 0.144483, -0.148056, 1.671616, 1.570593, -0.416353, -0.482659, 1.194052, 0.634107, -1.153550, 0.384681, -0.188263, -0.103472, -0.985794, -1.689505, 0.122353, -0.349882, 0.221638, -0.831836, -0.088502, -0.446688, -0.396308, -0.657153, -0.516972, 2.371084, -0.163270, 0.882068, -0.682320, 1.303902, -0.280778, 1.358976, -0.342145, 1.088719, -0.244487, -2.749675, 0.639160, 0.362296, -0.869902, 0.234387, -1.322121, 0.463583, 0.460574, 0.701397, 1.247351, -1.042597, 0.274357, 1.246255, -1.186560, 0.233272, -0.573487, -0.884217, 0.960747, 0.961809, 1.549715, -3.122383, 0.770053, -1.117264, -0.135092, -1.429894, 0.023609, 0.781423, -0.167609, -0.658889, 1.577381, 1.303085, 0.071211, 0.296225, -0.589479, 1.086330, 1.022677, -0.414684, -0.595780, -0.325936, -1.073704, -0.608644, -0.986945, 0.968682, -0.842668, -1.816612, 0.191153, 0.793030, -1.577809, -1.327633, -0.609591, -2.380559, 0.830386, 0.510704, -0.371219, 0.352099, -0.046286, 0.052941, 1.122246, 0.253216, 0.722260, 0.430056, -1.063971, 0.404912, 0.854655, -0.373516, 0.681307, -0.315942, -0.912663, 0.059600, -0.446299, -0.717699, 0.137851, -0.295279, -1.544815, -0.112538, -1.752796, 0.786013, 2.303229, 0.803852, 0.554195, -0.421207, 0.657703, 0.637455, 0.994803, 1.007241, -1.090348, -0.136962, -2.406943, -0.122650, 1.471413, -0.372442, -0.561248, 0.223584, 1.125191, -0.582914, 0.504705, -2.098955, -2.068324, -0.173595, 0.436372, -0.520439, 0.165415, -0.586491, -0.188730, -2.191633, 0.412729, 0.244630, 0.579097, -0.031607, -1.085368, 1.806918, 1.021006, 0.227214, 0.883058, 0.605557, -1.082798, 0.846859, 0.536918, -0.170733, 0.265881, -0.244898, 0.664074, 0.798106, 1.495914, 0.035138, 0.023863},
    {0.585246, 2.138080, 0.609802, -1.179121, 1.044950, 0.809906, -0.365733, 1.671494, -0.134982, 0.018295, 0.289219, -0.202503, 1.402349, 0.163733, -1.353152, -0.491839, -0.836018, -0.038971, 1.499048, 1.253073, 1.200726, -0.550053, 1.176193, 0.826350, 1.892170, -1.963426, 1.417262, -0.623877, 0.336000, 0.327060, 0.286652, -0.612714, 0.461547, 0.488462, -0.896004, 1.971774, 1.014211, -1.455777, -1.604446, -0.211825, 1.475106, -2.205938, -0.764110, 0.753830, 0.691443, -0.032896, -0.509923, 1.295274, -0.710498, 0.668898, 0.421583, -0.931861, 1.337643, 1.084276, 0.761199, 2.001527, 0.372593, 0.403767, 2.377574, -0.495456, 0.519994, -1.894677, 1.441694, 0.049260, 0.565440, -0.601940, 0.397992, 0.040822, 1.397725, 0.204046, -1.033467, -1.685793, 0.857863, 0.724793, -1.071576, -0.711320, -0.071605, -0.898153, 1.661540, 0.709613, -0.120931, -0.269409, 0.080174, -0.214602, -1.208528, 0.259644, 0.587795, -1.374175, -0.075749, -1.559424, -3.239600, -0.961565, -1.794290, 1.015803, 0.171011, 0.349967, -2.594450, 1.497081, -0.618028, 0.256080, -1.596155, 1.723258, 0.391693, -0.073033, -1.140978, 0.700807, 0.922385, 0.987089, 0.282423, -1.090144, -1.129084, -0.920896, 0.858851, -0.431977, -0.277818, 1.582242, 0.351847, 0.014202, -1.040791, 1.375991, 0.569326, 0.106464, -0.629027, -0.740495, -1.452214, 0.251181, -0.907545, -0.339859, 1.242278, 0.512126, -0.184156, -0.292278, 0.785323, 0.264280, -0.281839, 1.063582, -0.790701, -0.026967, 0.355798, -1.554136, 0.010385, 0.376791, 1.192184, 0.391221, 0.586671, -0.527767, 0.240377, 0.508319, -0.043082, -0.757609, 0.644823, -0.103559, -0.428402, 0.540476, 1.619401, -0.339610, -1.184796, 0.594570, 1.588181, -1.129839, -1.266148, -0.387609, 0.548044, -1.265202, 0.925139, -0.329505, 0.007019, 0.201609, 0.439844, 0.232071, -1.446903, -1.365752, -0.641669, -0.113942, 0.317805, -0.420531, -0.728718, 0.816696, 0.842032, 0.582655, 0.833242, -1.351572, -1.656101, 1.580360, 0.431804, 0.284487, 0.829079, -0.273957, -0.177209, -0.294290, 1.097703, 0.684841, 1.664166, 1.359463, -1.113646, 2.194505, 2.003369, -0.470446, -1.689813, 1.072472, 0.127174, 0.104152, -1.003579, 0.617727, -0.491820, 0.318628, 1.253274, 0.225608, 1.185265, -0.963386, 0.834261, 0.258937, -1.258048, 0.494250, -0.860720, 0.933035, -0.083631, -0.460022, -0.225252, -0.139912, 0.756817, -1.737022, -1.185065, 1.188311, 0.171412, -0.881941, -0.716646, 0.429767, 1.146616, 0.558111, -1.786616, -0.939978, -1.088288, -0.085125, 0.453365, 0.303556, 0.973628, 1.309624, 0.645775, 0.889133, -0.350813, -0.442282, 0.063817, -3.240851, 1.328845, -0.361164, 0.429481, -0.090049, -1.808918, -0.848806, 1.229469, 0.376394, -0.514800, 0.503527, -1.475102, -0.810449, 1.440006, -0.164216, -0.225113, -2.203992, 1.043837, 0.236766, 1.272243, 0.095458, 0.354935, -0.047940, 1.021696, 1.162593, 0.057052, 0.975093, -0.406995, -0.215898, 1.013520, -1.384200, -0.645439, 0.846457, -0.296217, 0.073813, -0.532594, -1.030078, -0.077227, -0.085656, 0.629302, -1.629187, -0.396388, -1.038329, 0.454145, -2.868180, 0.454400, -0.443723, -0.898671, -0.822667, 0.153153, 0.358047, 0.662354, -1.000814, -0.577685, -0.971570, 0.046414, 0.574373, -0.238978, -3.496741, -1.107707, -0.509622, 1.054088, -0.264599, -0.864567, -1.050951, 0.122085, 0.607421, 0.288488, 1.231262, -0.522706, -0.275105, -0.265774, 1.519366, -0.370131, -0.849735, -1.129114, 1.969982, 1.341104, 0.724091, 0.972608, -0.732833, -0.718084, 0.016919, 1.403304, 0.241029, -0.764331, 1.526485, -1.334565, 1.698177, -0.556364, -0.700046, -0.175594, -0.151633, 1.715122, 0.229154, -0.897258, -1.019508, -0.306518, -1.009835, 0.894060, -0.179360, -1.076249, 0.501462, 0.546298, -0.253953, -1.181514, -1.135698, -1.092484, -0.176513, -0.962458, -0.027716, 0.769988, -1.572273, 0.990554, 0.921776, -0.422424, 1.648746, -0.489500, -0.558186, -2.742500, -1.739879, 0.748112, 1.316757, 0.004765, 0.008544, 0.806400, -0.359132, 0.157903, -1.301949, -0.359121, 1.096174, -0.890243, 0.953865, 0.997226, 0.310910, 0.122612, -0.210032, 0.874697, -1.787691, 0.121784, 1.420525, 0.539985, -1.111178, 0.613796, 0.772431, -0.153956, -0.735352, 1.572233, -0.811429, 0.814501, -0.542012, -2.400519, 1.177573, -0.899353, -0.401902, 0.050877, 0.268278, -0.973319, -1.204136, 0.764030, 0.082859, 1.290322, -1.839993, 1.877665, 0.806908, -1.034846, -0.151479, -0.380984, 0.094122, 2.124319, 0.348916, 0.306549, -0.414170, -1.173538, -0.965739, 0.465806, -0.146917, -0.408369, 0.038050, 0.248046, -0.342946, -0.400001, 0.167673, 1.692251, 0.989886, -0.305015, -0.171862, 1.089800, -1.216276, 0.370741, 0.734320, 0.451616, -1.919234, -1.896382, 0.233163, -0.725376, -0.214543, -0.223589, 0.502867, 1.275545, 0.512704, 0.607113, 0.037974, -0.249475, -0.551954, -1.062239, -0.429855, 1.010539, 0.459440, 0.881021, -0.450432, -1.088363, 1.037374, 0.400778, -0.614862, -0.353649, -1.711365, -0.504967, 1.976403, -0.228270, -0.266792, -3.484999, -0.320482, -1.952926, 0.529547, -0.651286, -0.012166, -1.010239, -0.494540, 0.667993, -0.012541, -0.577166, 0.090317, 1.142523, 0.069192, -0.447664, -0.553649, -1.295559, 0.260111, 0.050729, -2.117552, 1.323317, 0.928073, -0.055476, 1.011759, 0.286267, 1.133780, 0.777666, 0.326646, 1.326926, -0.200990, -0.539701, 0.969096, 0.996178, -0.233398, 0.544654, -0.961481, -1.788451, -0.935595, -0.434601, 2.052980, 0.615330, -0.261652, 0.215721, 0.512537, 0.897070, -0.407423, 0.593381, 0.301087, -0.060729, -0.438819, -0.962246, -0.981468, 1.010829, -1.855401, -0.311926, 0.021316, 0.159089, -0.245216, -0.722695, -1.213652, -1.096348, 0.637305, 0.078887, -0.144631, -0.286470, 0.829436, -0.549591, -0.112599, 0.237143, -0.585317, -1.314942, -1.897873, 1.113119, -0.217748, 0.788791, -0.419309, 0.182592, 0.826871, -0.442698, -0.934410, 1.608295, 2.273394, 1.246188, 1.615952, -0.142425, -0.376877, -1.408949, 0.363661, 1.556998, 0.419543, 0.196750, -0.267152, -0.376807, -0.204167, -0.678590, 0.094344, -0.655469, -0.801440, -0.477508, -1.690107, 0.264785, -0.469234, 1.090534, -0.572491, -1.198326, 1.332569, -0.157908, 1.112130, -0.111918, 0.719418, -0.318861, -0.742180, 1.138628, 0.649155, 0.305660, 0.954622, -2.148697, -1.411757, -1.238483, -0.069842, 0.413043, 2.228023, 1.580365, 0.162897, -1.357954, -0.491615, -0.497483, -0.272043, 1.412590, 0.769608, -0.378417, 0.221815, -1.306930, -0.364750, -0.836174, 0.674650, 0.240007, -1.575267, 0.945264, -1.592553, 0.378050, -0.940128, -0.021999, -0.585468, -0.731979, 2.146761, 0.681532, -0.689250, -0.835975, 1.016482, -0.955832, 0.622185, 0.126434, -1.380862, -0.738978, -0.708140, 1.282278, -1.663507, 2.169415, 1.173396, -1.751883, 0.113419, -1.754063, -0.506894, 0.000489, -0.783350, 0.800935, -0.425931, 1.424055, -2.154575, 2.289741, -1.570025, -0.755577, 0.566647, 0.209088, 0.044535, -0.732947, -0.022649, 1.182418, -0.907713, -1.352280, 0.204746, -0.911479, 0.937921, 0.077182, -0.089163, -0.098726, 1.324595, 0.435427, -0.045398, -0.687075, -0.123562, 0.662825, -0.547547, -0.766984, -0.782281, 0.443152, -1.030268, 0.475314, -0.703648, 0.204094, -0.148188, -0.252290, 0.051481, 0.185421, -0.706143, -0.099302, -0.426147, 1.575984, 0.211587, -0.473922, 1.113136, 0.523781, 0.080037, 1.262310, -0.816331, -0.297398, 0.306817, 0.443218, -2.108369, 1.277849, 0.541809, 0.292970, -0.012592, -0.808959, -0.723354, 0.343539, -0.983584, -1.583872, 0.265565, 2.008379, 1.162009, 0.636617, 0.271930, -0.123152, -0.600038, 0.968595, -0.385965, 2.039966, 1.573681, -0.487266, 0.709183, -0.016029, 0.666992, 0.797050, -0.696878, -1.189982, -2.021637, 0.833177, 0.133179, 0.413572, -0.474210, -2.166494, 1.561505, 0.865949, -1.780649, 1.094891, -2.523978, -0.339900, -0.850851, 1.115870, -0.590951, -1.906525, 0.611402, -0.104315, 0.340778, 0.839705, 1.350662, 0.895823, 0.438164, -0.348521, -0.973902, 0.700684, -0.365020, 0.882138, 1.539660, 1.231488, 1.481503, 0.446847, -0.453267, -0.262662, -1.336983, -2.766139, 1.047812, 1.994200, 0.258602, -0.732035, -1.705158, 0.486477, -0.262278, 1.239471, 1.443221, 1.245589, 0.201659, -1.740030, 0.199263, 1.072641, 0.147800, -0.068743, 1.251005, -1.209018, -1.142680, 0.109503, 1.708564, 1.172015, 0.837586, 0.228011, 0.693253, -0.754952, -2.264892, -0.103448, 1.754342, 0.990353, -0.377398, -0.052704, 0.546498, 1.448875, -1.996827, 0.460170, -0.675720},
    {1.421797, 1.039128, 1.345265, -0.175900, -1.749279, -0.377155, 0.247434, 0.075546, -0.234242, 0.363475, -0.036831, 1.278200, 1.872286, -0.580731, -0.706145, 0.069837, 0.638119, 0.374119, 0.900255, -1.444462, 0.568336, -0.703223, -0.384290, 0.995483, -0.001921, 0.223892, -1.807882, -0.685354, 0.396416, -0.207078, -0.126392, 0.638028, -1.897834, -0.049780, 1.219474, 0.323124, -0.573317, -0.369746, -0.545977, -0.846048, -0.171785, -0.432542, -0.511964, -0.777710, -0.103075, 0.336412, -2.116445, -0.386108, -0.161919, -1.870286, -1.004352, 0.276338, -1.294384, -1.018260, 1.398811, -0.057974, -1.110883, -1.499339, -0.323296, -1.821252, -0.671626, 0.106549, -0.395961, 0.065120, 1.753838, 0.110347, 0.827563, 0.555177, -0.870978, -0.431449, 0.155964, -0.445924, -0.745273, -1.524724, 0.984367, -0.574668, -0.305721, 1.202706, -1.178524, -0.555375, 0.391933, -0.703380, -1.388113, 0.477216, -1.207246, -0.075225, 1.092999, -1.903607, -0.517808, -0.279963, -0.179459, 1.276251, 0.690042, -0.252997, -0.162287, 1.078325, -0.365540, -0.600180, -0.574897, 0.531539, 1.354125, 0.022085, 0.302049, 1.063417, -1.939062, 1.389652, 0.385975, -0.411549, -0.348809, -2.442467, -0.579307, 0.247567, -0.934357, -0.507048, 0.019867, 0.035757, -1.119892, 0.630317, 1.566535, -1.993608, 1.368432, 0.882866, 0.226195, 1.858297, -1.424903, -0.593578, -0.508290, 1.013223, 0.318391, -1.346310, -1.252351, -0.381013, -0.893136, -1.699862, 1.037891, 1.543355, 0.047050, 1.558932, 0.125802, 0.763674, -0.604415, 1.099776, -0.367013, -0.089607, -0.287899, -0.423157, -0.252611, 0.112794, -0.635769, 0.858519, -0.752199, 0.489109, 0.986243, -0.305911, -0.543030, 0.597991, -0.348335, 1.225890, 0.182924, 1.028493, 0.038513, -0.039356, 0.404437, -0.360948, -1.283724, -0.299016, 1.842268, 0.186125, 0.628707, 0.443596, 1.489535, -0.904721, 0.857179, -0.415489, -0.317525, -2.562530, -2.095387, -1.470027, -0.019696, -0.014902, 0.309162, 0.494037, 0.723163, -0.573507, -0.861349, 0.305828, -0.456550, 0.682032, -0.203080, 1.678914, 0.845954, -0.180108, -0.643195, -0.590435, -0.307637, -1.523901, 0.741078, 2.145495, -0.025215, -0.145491, -1.606313, 0.227404, 1.373526, -0.474891, 0.090308, -0.378803, -0.755151, -1.443426, 0.214370, 0.284989, 1.408846, 0.009293, -0.296866, 1.437658, -0.349445, 0.765527, -1.758796, 1.994248, -1.304185, 0.362708, 1.018915, 0.318907, -0.152592, -1.202077, 0.733441, 1.728189, -0.746783, 0.084474, 0.155457, -0.388030, -1.738334, -1.841982, 0.641005, -0.533325, 0.405808, 0.532229, -0.704723, 2.064586, -0.115962, 0.493822, 1.279299, 1.545299, 0.869548, 0.139089, -0.301276, -0.367435, -0.853192, 1.178699, -1.077177, 0.047696, -0.211229, -1.251289, 0.287598, 1.466997, 0.262130, 0.743787, 0.691882, 0.063263, -0.199149, 0.397642, 0.254340, -1.762162, -0.117128, 1.286188, 0.321873, -0.885809, -0.731291, 1.483907, -0.599450, 0.498450, 1.495865, -1.817083, -0.369858, -0.563104, 0.475594, 0.686391, 0.247087, 0.703061, 0.587994, 0.786415, -1.119955, 1.102444, 0.613636, -1.860563, 0.369738, 0.967227, -1.223797, 0.698611, 1.066173, 0.063271, 0.587289, -2.472482, -0.168222, 0.011832, 1.841232, -0.597413, 0.265053, 2.337741, 1.763878, 1.126662, 1.402572, -0.373893, 0.883577, 0.345887, -0.753298, 0.789867, -1.221306, -0.089145, -0.552797, -0.885937, -0.202881, 1.179685, 0.538731, -0.436205, -0.209472, 1.270043, -0.648060, 1.179747, -0.873145, 1.339831, 1.748992, -0.986723, -0.115414, 0.672932, 0.794921, -1.952327, 0.185434, -1.515357, -0.704487, 0.137580, -0.109762, 0.942745, 0.389345, -1.020230, 0.539465, 0.800196, 1.079602, -0.533513, 0.663959, 0.964320, 0.990892, -1.010163, -0.073677, -1.187864, 1.069639, -0.992397, 0.391487, 0.179221, 0.035730, 0.524302, -0.654858, 0.742135, -0.954327, -0.834052, -1.961433, -0.035865, 0.077626, -0.603564, 0.493913, 0.289107, -0.124694, 0.133021, 1.069296, 0.782513, -0.383566, -0.456464, 0.054320, -2.001668, 0.437069, 0.754177, -0.300050, -0.657522, -0.978781, 1.510622, -1.064613, 0.076794, -1.744987, 1.234963, 1.532472, -0.221111, 1.140363, 0.424224, 0.569868, -1.060967, -1.017471, 1.118227, 1.215250, -1.244879, 1.825394, -1.541792, 0.811946, 0.251221, -1.629133, -0.210831, -0.461103, -0.315667, 0.138795, 1.169894, 0.031759, 0.717722, -0.200406, 0.142209, 0.107862, 1.127978, 0.864532, 0.509841, -0.531995, 0.390325, -1.122723, -0.254306, 0.366882, -0.337163, -0.477342, 0.059779, 0.506409, -0.834008, 0.041244, 1.625557, -0.708406, 0.178374, 0.977477, -0.795252, 0.766207, -0.997285, 1.084811, 0.061606, 0.417223, -0.257977, -0.776440, 0.305998, 0.624530, -0.273619, -0.082181, -0.109234, 1.064004, -1.118192, 0.316123, 0.456644, -0.555333, -0.417730, -0.438831, 0.220331, 0.694424, -0.472534, -0.607389, 0.250220, -2.006595, -1.945651, 1.396201, 0.585425, -1.126086, 1.282384, -0.763904, 1.275700, -0.451446, 0.906020, 0.338165, -1.304462, 0.254509, -0.587507, 0.807867, 0.744673, -0.377696, 1.400088, 0.910265, -0.549922, 1.799672, -0.259260, 2.151779, 0.439253, 1.417487, 0.226475, -0.768499, -1.693554, 1.727158, -1.168678, 0.649526, 0.643762, -0.355838, 1.203165, 1.951413, -0.849699, 0.843760, -0.364079, 0.912052, 1.187496, -0.677133, 1.139345, -0.000182, -0.776612, 0.780567, -0.074710, -0.006898, 1.277911, -0.132582, -0.947457, 0.790907, -0.787873, -0.117042, -0.077819, 1.084889, 1.351365, -0.689531, -0.522057, -1.757762, -1.768031, -1.672899, 1.377806, -0.121445, -0.774042, -0.960730, -0.192279, -0.671894, -0.674919, -0.681720, 0.696447, -1.466350, 1.063064, 1.179233, -0.083573, -0.781886, 0.369972, -0.762893, -0.141406, -0.303182, 0.822088, -0.495361, -0.849763, 1.177461, -0.871233, 1.163574, -1.412906, 1.431212, 0.046105, 1.494022, -0.591968, 0.084509, 0.664093, -0.697313, -0.066260, 0.204291, 0.489797, 0.375173, -0.648749, 0.161641, -0.840047, -0.814780, -0.059622, -1.306634, -0.368876, 0.618214, 1.170881, -0.402255, -1.320038, -0.481809, -0.739812, -0.160243, 0.709858, 0.371798, -0.454081, -0.115591, -1.035936, -0.207530, 0.233853, 0.029728, -0.005956, -0.849402, 0.828713, -2.128230, 0.831998, -0.902769, -0.274306, -0.748330, 0.600894, -0.286504, -0.180363, -0.773622, 0.470183, -0.862586, 1.172084, -0.697215, 0.091323, -2.285918, 0.157744, 0.891754, 0.242422, 0.256107, -0.567047, 0.568504, -1.030571, 1.669792, -0.577007, -1.777882, -0.555358, -0.375038, 0.770043, -1.005779, -0.158550, 0.729016, -1.197278, 0.295759, -2.082959, 1.396571, 1.060014, 0.107483, 0.523883, -1.004781, -2.232082, 0.663502, -0.398956, -1.632955, 0.310649, -1.069664, -1.721885, 0.791928, -1.676879, -0.162128, 0.245857, 0.653404, -1.150766, -0.553178, -1.107067, -0.112013, 3.289498, -1.665371, -1.954729, 0.371853, 1.923881, -0.966148, 1.227266, -0.757389, 1.541540, 0.989546, -0.665400, 0.532284, 0.452116, 0.003667, 1.699968, -0.472155, 0.244311, 2.609067, 0.973557, -1.356016, -0.777881, 1.978896, -0.446086, 1.187382, -0.138375, 0.591020, -0.639110, 0.444156, -1.290400, -1.517731, -1.460295, -1.874711, 0.827793, 1.398285, 0.036725, -0.663130, -0.705711, -0.471831, -1.320160, -0.575924, -0.518079, 0.108762, 0.010343, -0.354399, 0.537652, -1.714425, -0.497785, -0.124398, 1.759087, -0.032385, 0.197586, 0.903563, -0.862785, 0.184534, 0.393725, -1.154607, -1.185798, -1.230592, 0.132804, 1.102983, -0.457635, -1.081191, 1.111659, -0.826068, -0.030959, -0.497265, -0.584312, -1.558671, -0.078688, -0.406350, 1.322027, 0.452379, 1.036346, 1.091171, 1.270740, -0.943002, 0.404239, -0.266701, 0.257683, 0.639526, -0.334514, -0.576510, 1.068263, -0.564147, -0.405621, -1.516457, 0.761631, 0.928110, 0.066174, -0.724211, -0.011309, 1.562226, 0.718284, -0.371032, -0.974086, 0.891475, -0.051624, -0.113585, -1.221109, -1.433359, -1.203890, -0.690587, 0.094293, -1.479451, -1.262454, -2.017529, 0.792547, -0.561817, 1.456487, 1.152535, 0.211315, 1.847734, 2.097727, -1.250233, 0.883220, -0.623818, 0.088905, -1.871173, 0.928977, 0.065135, 0.332308, 1.070406, 0.441169, 0.336295, -0.473432, 0.664954, 0.027783, 0.624973, -1.062914, 1.209096, -0.929617, -0.866986, -0.849604, -0.614158, 0.125264, 1.857852, -1.138256, 1.207505, 0.149612, 1.816845, -0.643265, -0.634940, 0.172617, 0.657955, -0.342673, 0.258086, 0.764737, 2.247580, -0.589025, -0.100779, 0.582888, 0.366347, -1.790677, -0.158132, -1.461434, -0.512018, -1.673782, 0.418729, -0.585924, -2.427266, -1.485801},
    {0.871580, 0.187326, 0.620098, 1.120395, -0.351344, 0.269331, 0.007755, 1.610306, 0.895299, -0.014448, 0.207047, -1.267934, -0.154213, -0.536671, -0.637449, -1.553164, -1.043623, 1.051697, 0.358572, 0.018793, 0.233441, 1.064412, 1.286069, -0.474890, 2.080955, -0.969903, 1.084452, 1.211378, 0.432318, 0.669030, 1.459677, -0.769387, 0.832764, 0.459723, 0.018026, -0.292450, -0.189583, 1.692295, -1.616975, 0.984450, 1.282391, -1.057860, -0.111459, -0.235191, 0.817679, -1.088631, 0.505889, -0.237046, 0.513839, 1.875502, -0.373215, 1.138396, 0.030258, -1.961528, -0.580117, 0.587923, 1.064600, -0.093430, 0.878519, -1.322647, 0.620838, -1.096799, 2.090109, -0.340927, -0.270456, -0.342373, 0.875812, 0.789169, 0.461562, -0.834946, -1.758404, 0.197780, -0.229628, -1.298615, -0.688408, -0.217683, -0.040226, 1.288769, -0.622009, -0.214023, -1.139758, -1.259076, -0.620724, -1.644281, -1.114330, -1.387077, 0.867114, 0.348291, 0.098732, 0.334868, 0.568858, -0.498210, -0.136496, 0.751467, 0.875662, 1.745402, 0.170394, -1.381284, 1.126073, -1.198258, 0.274235, -1.228049, -0.210346, 0.569616, 1.623432, 1.201444, -0.952998, 0.513537, -0.010818, -0.204623, 1.252593, 1.140215, 1.581924, 1.009153, -1.675011, -1.865773, 0.823654, -1.745756, -2.276671, 0.885701, 0.999483, -1.132575, -1.054336, 0.388016, -0.441933, 0.539191, 1.489826, -0.246262, 0.271090, 1.577780, 0.506222, -0.819334, 1.562153, 1.661304, 1.116741, 0.292947, 1.215838, 1.305437, 0.294925, 0.691493, 1.056594, 1.169401, 0.992042, -0.485260, 0.861426, -0.326156, 0.393504, 1.397873, 0.233630, 0.865651, -0.457454, 0.422407, -0.685331, -0.163495, -0.404295, 0.593382, -0.840909, 0.056008, 1.041287, 0.026495, 1.135656, -0.221539, -0.251197, -2.247183, -0.561044, -0.659675, 2.326835, 1.565107, -0.152389, -1.206493, 0.729190, 0.509042, 0.372477, 0.033775, -1.698819, -1.324961, 1.490891, 0.151818, -0.849944, 2.035846, 0.118463, -0.874726, -0.071861, -1.168998, 0.839535, -1.611985, -0.629086, -1.031344, 0.877118, 0.369099, 0.372258, -0.258439, 1.361821, -0.651019, 0.348510, 0.248010, -0.399604, -0.879677, -2.308331, -0.013005, -0.138712, -0.792875, 0.042083, -0.011305, 0.662455, -0.480465, -0.521225, 0.418176, -2.178734, -0.990623, 0.635821, 1.147538, -0.076638, 1.442406, 0.679331, 0.441221, -1.095784, 0.729612, 0.467115, 0.924592, -0.338772, -1.345179, -0.953414, 0.868673, 0.590607, -0.238591, 1.380861, -1.220532, 0.586761, 1.632854, 0.470157, 1.617314, 1.326429, 1.233024, -1.979381, -0.866592, -0.475189, -2.040670, -0.941346, 2.037543, -0.479537, 1.335414, 0.386367, -0.583686, -1.988983, 0.185259, -1.975081, -0.490414, 2.005394, 1.521687, -0.734161, -0.683028, -0.109230, 1.705094, -0.642967, -0.448405, 0.261721, -0.900456, -0.754159, -0.171393, 0.845810, -2.130595, 0.596085, 0.978456, -0.178184, 0.585791, -0.660938, -0.433046, -0.737826, 0.060294, 1.688340, 0.642670, 0.163504, -0.547815, -1.106330, -0.318616, 0.183572, -0.478364, -0.096582, -0.260081, 0.824913, -0.517433, 2.167821, 0.317831, 1.068705, 1.250455, -1.040471, -0.182409, -0.897270, 0.403887, 0.810286, -2.300110, 1.349938, 0.625788, 1.179324, 0.938605, 1.060660, 1.174186, -0.179641, -1.344886, 0.724951, 0.880258, -0.875733, 1.341995, -2.039858, -1.380950, -0.040282, 0.887497, 1.614992, 1.242317, -1.230602, 1.007331, -0.214397, 0.930943, 0.176098, 0.287309, -1.380198, 2.067412, -0.523831, 0.225586, -0.745682, 1.211081, -1.696861, -0.801024, -0.363027, 0.307203, 0.389831, 1.500199, -0.184494, -0.843304, -0.340090, 0.175893, 0.417144, 0.419608, 0.719341, 0.219607, -0.463197, -0.120867, 1.229920, -0.931327, 0.204190, -0.057376, -0.999933, -1.198232, -0.538439, 0.412061, 0.098947, -1.688747, 0.285091, 0.193814, -1.338893, -0.498438, -2.225632, -0.212677, -1.101317, 0.282857, -0.851248, 1.243620, 0.077064, -0.511709, -0.450621, 0.404671, -0.704592, -1.535255, -0.906711, -0.285318, 0.603285, 0.904803, 0.067578, 0.658087, -0.455441, -0.126001, -1.261503, 0.320804, 0.032556, -0.034459, -0.313216, -0.414817, 0.119446, -1.470353, 2.038042, -1.406740, 0.345498, 1.401237, -0.955537, -0.120646, 0.656632, 0.467144, 1.719661, 0.893499, -1.082116, -0.298336, 0.801841, -0.240119, 0.270567, 0.304497, 0.901577, -1.029374, 0.371917, 0.302979, -0.423548, -0.225903, 2.103981, 1.250952, 0.717609, -0.116784, -0.564845, 0.269007, -0.717155, -0.432503, -0.181111, 2.358460, -0.349188, -0.158989, 0.638651, -1.174917, 0.399788, -0.948142, -0.386639, 0.533941, 0.226282, 0.549892, 1.019091, 0.706160, 1.652652, -1.251653, -0.333636, 0.406091, -0.260706, -0.858060, -0.376056, -1.453867, -0.028102, -0.977182, -1.340326, -0.470426, -0.676724, -0.745986, 0.556216, 1.911402, 1.468821, -1.719803, -0.593999, -1.070867, -1.749971, -0.673387, -0.048780, 0.215468, -0.894158, 0.760675, -0.450054, -0.155969, -1.769972, 0.280091, -1.561022, 1.132638, 0.378283, 1.132456, 1.049431, 0.840246, -0.726472, -0.438520, 1.342054, -0.057813, -0.628599, 0.309340, -0.648309, 0.195499, 0.762102, -1.377819, 0.217976, 0.672085, -1.055452, -0.402787, -0.367640, -0.765072, -0.790774, 0.326763, 0.117630, 0.103091, -0.310402, -0.971898, -0.200030, 2.868556, 0.846775, -1.714989, 0.136885, -0.227713, 1.392902, -0.623346, -0.353126, -0.723797, 0.137254, 0.737489, 0.976337, -0.716897, -0.025444, -0.574637, -0.492025, 0.703718, -0.055604, -0.047727, 0.562942, -1.865153, 1.876058, -0.298461, 0.014419, -0.488070, 1.280350, -0.880597, -0.734716, -0.698373, 0.418302, 1.486334, -0.333417, -1.385088, -2.166133, 2.060809, 0.210236, -1.472993, 1.360967, 0.684872, -0.757396, -1.823889, -1.310295, -0.656322, 0.079349, -1.344350, -0.608322, -0.219663, -0.147421, -1.557786, -1.367575, -1.862034, 1.637732, -0.577324, 0.034459, 0.244872, 0.386051, 0.691226, -2.068853, 0.392612, -0.383847, -0.091694, 0.308280, 0.474457, -1.276526, -0.664969, -0.373967, 0.835531, -0.814962, 0.460960, 0.231430, 1.391233, 1.230452, -1.505828, 0.155139, 0.164448, -0.181775, -0.692162, 2.006088, -0.874531, 0.831782, 1.678251, -1.516825, 0.128450, 0.350925, -0.451441, 0.183845, 2.957990, 0.290519, -0.757196, 0.238646, 0.190687, -1.346445, -1.199577, 1.009828, 0.486597, -0.362440, 1.417680, 0.629136, -2.320125, 0.177794, 0.601369, 0.547064, 0.226585, 0.494545, 0.065524, -0.878822, 0.159142, 0.195550, 1.335815, -0.418119, -0.169845, -1.649048, 0.619215, -0.138987, -0.683877, 0.497037, 0.081078, -0.511597, -1.135382, 0.864470, -0.945285, 0.853004, 0.560629, -0.136584, 2.131753, -0.424316, -0.269782, 0.094352, -2.015966, -0.359192, -0.922710, 2.037356, -1.260898, -2.715064, 1.869483, 0.339422, 2.224907, -0.325708, 0.737966, 1.143023, -1.384551, 0.130919, -1.910511, 0.760858, -0.025783, -0.471472, -0.579968, 0.572779, 0.751046, 0.323476, 0.621502, -0.768639, 0.946075, 0.271659, -1.180379, 0.034111, -1.122276, 0.148716, -0.835888, 0.334129, -1.564310, -1.149432, -0.796120, 0.246448, 0.533632, -1.907164, 0.433549, -0.203519, 0.650632, -0.833339, -0.954771, 0.755229, -0.332726, -1.035387, 0.891553, -0.765668, 1.579018, -0.110253, 1.096512, 1.384872, -0.502452, 2.001240, 2.312318, -0.665008, 1.440407, -0.521447, 1.290055, -1.175170, -0.262722, -1.445708, 0.242684, 1.693759, 1.617432, -1.178611, -0.626859, 0.356445, 0.250490, -0.852467, -0.703367, -1.263229, 0.386376, 2.121833, -0.676539, -1.217490, 0.214611, -0.860767, -1.358806, 1.507982, 0.900991, 1.193736, -0.202502, 0.934754, 0.745546, -0.135886, 0.903485, -1.023019, -0.077039, -0.221197, -0.182159, -1.616111, 0.661741, -1.123353, 0.491955, 0.512034, 0.435321, -0.091509, -1.468797, 0.519438, 0.188429, 0.233128, -1.480216, 0.076491, 2.596515, -0.745025, 0.220711, 0.320190, 0.380377, 2.445136, 0.671014, -0.622819, -0.983438, -0.836134, -0.829377, 0.460368, 0.139620, -0.147088, 0.808983, -1.027169, -2.371941, 0.053882, -0.451822, -0.182749, -0.548629, -0.616026, -0.189938, 2.312442, 0.331058, -0.951921, 0.729132, -0.827878, 0.434801, 1.822664, 0.456240, -0.505444, 0.461303, 1.588889, 0.197997, -0.259386, 0.496559, 0.022600, -0.871084, -1.594763, -0.186022, 0.640713, 2.354634, -1.315102, -1.016797, -0.681386, 0.382300, -0.660697, -0.426977, -0.229001, -0.080056, -0.625667, -0.209262, 1.283041, -1.252014, -1.297920, 0.923395, -0.607649, -0.482370, -0.851052, -1.797209, -0.097927, 1.760685, 2.127917, -1.623693, -0.547967, 1.126121, -1.213464, 0.164113},
    {-0.253603, 0.615250, -0.763153, -2.432826, -0.336807, 0.534760, -1.166160, 0.566765, 2.458022, 0.809330, 0.787515, -0.570825, -1.804454, -0.726091, 1.466554, -1.118098, 0.320837, 1.937290, 1.020134, 0.885730, 0.379949, 0.081019, 0.942444, -0.548838, -0.170738, -0.280560, 1.876148, 0.612608, -0.861251, -0.435230, -1.742388, -2.468884, -0.415327, -0.228045, 0.762789, 0.513367, -0.758722, -0.534008, 0.489524, -0.634941, 2.127798, -0.931712, 1.754001, 0.133473, 1.526085, 0.686937, -0.760280, 0.826704, -0.344820, 0.236412, 0.824840, -0.371435, -1.583078, -1.543034, -0.138541, 0.586732, 0.767059, -0.323183, 1.069938, 0.806680, 0.564678, -1.498726, -0.933792, 1.247908, -0.377823, -1.215135, 0.119083, -2.475477, -0.417830, -0.496487, 1.431768, 1.104177, 1.274204, 0.865306, 0.480098, -0.071046, -0.264281, -0.580123, 0.238059, -2.570000, -0.435618, -1.446219, 0.479027, 2.233066, 0.691812, -1.066555, -0.283056, -0.692112, -0.344911, -1.040003, 0.151931, -0.110237, -0.925913, 0.096224, -0.750026, -0.898338, -0.070020, 0.401951, 0.266612, 0.059764, 0.817522, -1.028794, -0.301545, -0.872296, -0.823958, -0.852544, -1.036261, 0.665970, 0.947895, -0.925574, -1.173878, 0.598194, 0.492492, 0.629660, 0.659562, 0.372008, -0.863161, -0.467727, 1.490132, -0.988989, 1.864954, 0.116377, -2.174840, -0.364197, 0.923546, 0.636488, -0.272957, -1.457291, 0.227684, -0.472517, -1.008455, -1.270129, 0.096286, -0.434446, 2.353262, 0.511475, -1.701316, 0.379671, 1.886366, -0.944853, -0.073551, 1.636608, 1.096242, 1.207382, 0.379623, 0.992797, -0.137925, -0.892773, -1.381988, -0.092735, -1.875901, 1.821417, -0.244624, -1.227749, 0.709697, -0.923581, 0.917632, -0.611682, -0.736167, -0.085394, -0.234943, -0.356182, 0.602687, -1.410724, -1.861203, -1.335203, -0.350665, -0.023255, -0.017319, 1.919593, 0.173904, 0.383389, -0.400059, 1.237834, -0.311525, 1.159809, -0.351557, -0.501346, 0.179004, 2.325747, 1.089570, 0.792560, 0.386937, -1.614771, -0.142507, 0.373035, 0.392246, 0.035634, -0.399594, -0.688355, -1.835824, -1.074391, -0.578864, -0.461390, 0.495621, 1.827747, -0.397459, 1.772994, 0.451855, -0.296286, 0.031351, 0.384038, -1.274505, 0.709120, -0.797877, 1.745260, -1.513777, -1.764515, 0.820966, -1.210065, 0.516693, 0.086540, 0.993871, -0.262128, -0.666518, 1.771440, -2.040442, -1.486118, 0.340730, -0.204909, 1.039485, 1.444969, -0.378300, 0.270590, -0.274063, 0.208197, 0.317896, 1.093717, -0.570144, 0.790964, -0.466759, -0.799433, 0.774696, 0.377359, 0.885824, 0.096058, -0.659022, 0.655019, 0.207383, 2.654722, 1.083922, -1.845251, -1.392788, 3.010325, 0.221125, -1.574421, 0.838465, 0.560674, -0.249337, -1.277598, -0.865903, -1.292234, -1.011272, -0.079690, -1.208212, -0.693681, 0.322224, 0.451188, -0.661881, -0.630343, -0.155390, 0.757581, -0.085526, 0.842884, -0.554965, -0.489563, 0.758533, 0.571498, 0.713073, 0.006178, -0.262625, 0.440368, -0.876223, 0.755470, -0.557656, -0.972211, 0.766961, -0.248564, -0.390606, -2.025402, 1.252602, -0.188493, -0.850680, 1.861694, -2.289055, 1.441510, -0.313269, 0.841608, -0.778301, 0.226304, 0.970863, -0.008170, -1.911763, 0.850595, 0.995208, -1.949787, -0.879886, 0.434827, 1.041698, 1.082455, 0.862989, -1.004226, 1.341474, -1.368688, 1.112902, -1.496338, -1.187036, 0.704078, 0.547393, -0.746681, 0.042674, -1.466467, -0.753139, -1.462107, -0.218437, 0.300605, 0.093543, 1.599054, -1.027202, -3.690978, 3.281068, -0.028044, 0.646059, 0.620202, 0.036981, 1.130908, 1.594674, -0.996961, -0.521767, 1.389215, 0.097638, 0.585794, 0.977932, 1.425522, 1.031068, 0.109392, -1.651108, 0.598210, 1.265769, -2.464593, 0.376268, 0.301539, -0.224157, 1.707838, 0.238187, -0.533828, 0.913540, -0.304704, -1.627965, 0.613291, -1.449503, 0.359986, -0.034669, 0.997904, 0.215946, 2.681583, 0.754777, -0.515836, -2.348472, 1.759142, 0.050928, 0.429342, 1.070509, -0.369940, -0.411170, -0.228570, -0.769393, 0.083243, 0.584724, 1.249792, -0.007398, -1.971554, 0.289104, 0.773779, -0.345772, 2.199689, 0.670555, -0.234050, 0.064528, 0.748616, -0.430117, 1.331943, -0.290348, -1.333935, -0.069315, 0.118304, -0.317049, -1.494660, 0.581785, -0.511139, 2.382612, -0.287854, 0.545003, -1.679079, 1.926815, 0.131142, 0.780516, 0.697742, -0.752172, -1.687154, 0.371364, -0.671888, 0.792002, -0.558441, 2.237928, -0.944753, -0.760662, -0.905308, 1.630626, -0.402477, -0.161572, -1.573863, 0.123075, 0.748469, 0.145607, 0.920548, -0.049621, -0.118469, -0.116129, 0.561099, -0.624902, 1.888446, -1.137382, 0.099945, 0.674493, -2.259965, 0.858931, 2.075377, -2.625759, -1.057049, -0.783061, 0.174703, 1.434871, 0.317255, 0.181053, 1.230252, 0.586573, 1.169103, -0.818790, 0.347370, -0.519070, -1.826853, -0.401500, -0.915177, 0.077801, -1.190958, 0.073658, -0.842211, 0.578042, -1.662280, -0.646043, 0.926154, 0.565375, 1.063107, 0.345358, 0.122526, -0.508620, 0.164440, -0.078892, 0.236889, 0.995062, -1.511367, 0.224323, -0.706709, 0.261118, -1.249692, 2.033861, -0.578772, 0.440428, -0.671105, 0.503160, -0.959822, -0.492726, 0.260555, 1.363924, -0.223313, -1.504521, 0.610571, -0.576313, -0.479600, -2.164044, 0.744201, -1.317246, -2.649949, 0.324371, 0.625609, -0.261206, 0.871623, -0.413716, -0.757893, 1.335451, 0.970856, -0.456095, 0.903114, -0.038525, 1.731404, 0.071324, -0.303615, 0.700707, -0.429474, -0.417129, 1.187766, -1.011827, -0.529582, 0.007721, -0.081023, -0.884074, -0.229330, -0.419995, -0.304060, 0.379401, -0.120880, -0.210862, -0.607674, -0.439355, 2.616386, -0.210115, -0.749225, 1.628999, -0.511824, 0.983016, -0.472681, -0.638228, -0.423334, 0.150863, -0.394754, -0.915165, 0.434029, -1.914015, -1.132452, -0.267719, 0.795811, -1.046008, -1.854450, 0.206460, -0.192606, 0.153742, 0.720007, -0.620077, -0.806843, -1.591115, 1.624349, -0.563014, -1.220673, 0.631936, 0.435748, 0.847309, -0.707458, -0.667393, 0.210245, -0.253759, 0.184077, -1.435381, -0.309316, 0.283088, 0.587993, -0.075601, -0.605853, 0.127636, -0.570972, -0.102602, -1.750399, 0.859389, -2.015010, 0.753992, 0.617800, 1.755704, -0.046179, -0.912486, -0.415913, -0.765797, -0.919833, -1.435794, -0.022811, -0.119315, 0.173840, -1.078585, -0.639708, 1.048358, -0.010403, -0.282438, -0.064165, -0.643696, -0.176324, 0.194228, 0.126385, 0.739051, 0.177827, -0.271146, 1.436758, -1.345243, 0.176213, 0.100598, -0.916630, 0.855609, -0.141808, 0.243772, -0.279407, -0.135846, 1.259181, 0.746224, -1.686006, 0.066920, -0.650643, -1.144036, -0.425169, 0.100017, -0.248842, 2.113377, 0.467807, -0.636802, 0.491378, -0.096617, 1.366046, -0.573368, -0.537462, 0.335462, -0.444115, 2.369673, 0.248552, -0.772085, -1.448239, 0.591370, 0.244227, -0.635937, -1.514905, 0.818394, -0.585109, -2.273864, 0.860482, 0.948060, 1.164594, 0.876113, 0.211361, -0.647664, 0.418269, 1.503742, 0.075149, -1.997689, 1.746872, 0.413548, -0.408096, 0.977565, -0.902737, 0.098056, -0.663487, 0.058898, 1.132997, 0.935906, 0.777020, 0.011386, 0.074282, 1.410645, -0.140947, -0.500784, 2.265382, 0.465720, 0.199611, -0.397357, 3.157541, -0.482350, -0.514268, 0.568155, -0.073490, 0.599000, -0.856241, 0.544067, 0.499396, 0.410992, 0.650083, -1.099935, 0.943646, -1.089650, -0.945971, -0.682625, 0.494200, -0.823151, -0.914291, 1.040216, -1.016330, -0.488192, 0.759362, -0.591370, -1.822651, 0.235603, 1.198323, 0.109410, 1.552215, -1.887484, -1.576333, -0.752455, -0.181226, 0.503398, 1.193999, -1.152838, 0.849188, 0.096177, -0.590882, -1.412007, 1.185374, 0.307320, 1.771528, -0.107568, -0.721243, 0.487757, 1.732767, -0.007513, 0.142905, -1.217961, 2.171250, 0.328445, 0.950076, -0.740423, 1.674730, 1.166997, -0.318393, 0.690470, 0.537917, -0.989684, -1.482658, -0.041400, 0.162083, -0.419441, -1.750874, -0.703158, -0.455428, 0.465708, 0.123687, 0.111970, -0.596924, 1.112590, -0.515159, -0.740826, 0.656743, -0.691743, 0.791473, 1.213533, 2.029205, -0.848153, -1.792583, -0.950406, -1.726027, -1.685437, -0.421838, 1.687358, 0.325447, -0.576173, -1.431926, 1.358051, -0.131744, 2.342744, -0.658916, -0.939987, -0.288337, -1.697804, 0.832983, -0.307775, 0.910749, 1.541969, -1.652724, 0.231173, 0.203151, 0.646451, 0.332296, -0.164577, -0.699349, -0.603981, 0.822748, -0.295328, -3.074021, -0.783645, 1.073209, 0.061223, 0.061664, -0.304315, -1.041250, -0.288987, -0.764115, 0.625346, -0.443792, -1.178431, -0.576932, 0.302709, 1.201358},
    {0.694658, 0.030326, -1.674692, -0.965992, -0.895942, -0.222524, -1.863245, 0.004297, -0.913487, 1.187419, -0.031095, 0.288723, 1.142050, -0.697149, 1.242378, -1.585368, 0.465977, -0.652186, -0.562358, -1.709034, -1.525824, -1.088123, 1.546917, -0.456606, 0.156528, 1.043783, -1.658655, -0.128480, -0.439502, 0.416737, 0.718182, 0.444773, 0.000964, 0.201049, 0.415362, 1.220771, 0.944211, 1.165618, -0.396755, -1.048743, 1.474779, -0.172514, -0.117341, 1.162462, 0.899690, -0.088375, -0.618285, -2.421690, 0.833465, 1.162390, -0.515465, -0.229124, -2.411253, -0.911596, 1.627494, 1.304629, -0.112920, 0.130449, 0.056073, -1.240837, 1.674918, -2.351245, 1.118249, 1.055841, -0.649388, -0.148559, -0.724591, 0.497525, 0.948637, 0.476536, 0.349526, -2.060738, 1.903890, 0.532752, 0.635525, 0.227912, 0.782102, 0.590490, -0.110143, 0.459804, -0.268576, -0.172635, 0.794399, -0.074051, 0.369069, 0.317879, 1.148781, -0.378873, 1.551847, -2.074196, -0.035177, 0.880615, -0.499899, -1.244999, -0.069016, 1.060227, 0.216326, 0.715864, 0.380856, 0.895592, 0.909060, -1.218601, -0.446750, -2.625652, 0.951458, 0.050966, 0.362847, -0.202598, -0.658723, 1.376348, -0.436874, -1.425080, -1.035752, -1.444558, 0.915519, -1.228226, -0.830936, -0.404859, -1.115042, 0.684493, -1.055203, 2.014771, 0.009848, 0.613667, 1.157407, 1.365227, 0.087552, 1.637908, 0.582274, 0.687781, 2.195185, 1.118889, 1.301643, -1.382303, 0.651048, -0.477223, -1.855643, 0.475442, -0.230490, -0.766089, -1.255828, -0.968008, -0.549412, -0.412519, 1.490197, -1.213197, 0.712996, 0.750535, -1.764763, 0.431569, -0.185506, 0.717703, 0.235994, -1.492105, 0.174099, 0.922723, 0.316708, -1.299229, 0.236528, -1.236792, -0.018290, 1.574467, 0.602238, -0.994041, 0.411794, 0.189939, -1.771892, -0.592346, 0.598225, -0.677179, 1.397834, -1.615275, 0.819248, 0.161839, 1.823258, -0.015848, -0.196950, -0.283498, 0.809917, -1.103762, 0.524580, -1.161832, -0.400180, -0.889021, -0.278141, 0.453383, -0.987847, -1.126174, -0.151408, 0.184706, -0.125906, 0.897670, -0.695414, 1.989157, 0.515260, 0.583240, -0.318290, 0.085069, -1.148951, -0.207177, 2.126609, -0.173802, -0.721950, -0.117781, -3.078074, -0.062415, -1.412480, 0.539654, -0.984479, 0.358605, 0.642798, -0.165103, 0.619514, 0.255137, 1.588801, 0.688294, -1.618137, -1.225601, 1.547928, -0.309727, -0.874734, 0.716189, 0.126510, 0.266370, 0.765066, 0.482396, -0.358678, 0.197350, -1.236747, 0.215720, -0.189287, 2.114893, 0.691573, -0.390797, -0.318757, -1.950819, -1.051168, 1.713198, -1.760580, -0.470685, 0.550142, 1.415366, -0.076577, 1.571787, 2.125607, 0.119912, -0.620297, -0.859225, 1.023902, 0.343956, -0.607861, 0.165354, 1.966818, -0.661512, -0.841314, -0.793285, 0.590353, 0.000035, -2.432560, -0.734292, -0.048376, -0.198646, -1.172508, 0.114590, -1.649798, 0.173989, 0.172011, -0.125601, 2.021872, 1.279628, 0.982452, -0.540231, -0.185040, -1.230793, -0.078079, -1.004622, -0.622525, 1.262691, -1.532647, 0.339149, -0.229611, -0.841588, 0.025617, 0.549724, 0.000840, 1.079603, -1.441292, -1.377872, -0.809239, -1.395777, -0.836278, 0.113344, 0.129234, 0.942285, -2.038289, 0.593147, 0.572089, -0.178874, 1.127199, -1.444270, -1.840421, -1.550022, -2.436315, -3.214677, 1.799287, -1.010941, 2.000219, 0.572590, 1.567990, -1.467649, -1.104963, 0.141885, -0.507027, 0.355548, -0.028579, -1.262824, 0.347138, 0.365874, 0.552371, -0.250971, -0.309470, 0.976499, 0.303473, 1.295026, -1.129850, 0.636892, -0.357207, -0.216240, -0.558373, -0.119339, 0.420071, 0.485848, -0.304575, 1.272678, 0.471926, -0.706183, 0.940036, 0.518617, 0.801705, -1.436418, 0.336290, 0.657930, -0.953244, -1.597985, -1.236362, -1.471616, 0.572867, 1.363432, 0.998603, -0.072338, 0.671022, 0.862264, -0.777822, -1.745975, -1.432556, 0.504205, 0.336229, -1.046333, 1.517124, -0.183449, -0.731239, -0.268599, -0.195428, 0.780758, 0.134788, -0.287516, 0.762039, 0.051761, 0.188134, -0.347531, -1.216717, 0.900693, -1.106402, -1.424490, 0.962599, 0.191579, -2.026708, 0.192155, -0.347577, -2.256521, -1.924262, 0.522890, -0.916470, -0.043423, -1.320765, 2.292984, 2.383174, -2.640612, 0.386955, 0.507291, 0.891240, -0.598928, 0.159056, 0.251268, -1.131227, 2.307406, -1.120832, 0.068869, -0.109558, 0.319583, -0.298955, 0.866450, -0.425722, -1.124218, -1.063162, -0.937367, 0.978448, 0.938416, -1.086421, -2.019323, 1.028745, 2.211564, -0.090924, 0.180610, 0.308420, -0.830771, 0.756607, 0.787807, -0.494879, -0.836540, -1.508416, -1.668643, -0.085143, -1.353913, 0.479986, 2.953225, -1.091080, 0.987533, -1.541510, 1.281324, 2.647358, 0.865479, -1.375403, -0.261965, 1.404159, 0.134982, -0.113860, -0.198926, -0.278766, -0.701027, 1.913383, -0.254229, 0.658062, 0.857260, 0.524583, 0.613762, -0.186310, 0.220768, -0.927064, -0.773760, 1.733334, 0.163939, 1.295240, 0.258034, -0.186732, 0.825132, -0.108471, 1.291132, 0.654974, -2.169838, 0.985763, -0.306878, -0.164052, -0.207663, -1.122572, -0.088512, -1.409731, 1.267286, 1.477340, -0.890602, 2.285099, 1.791897, -1.788606, 1.450457, 0.753832, -1.154297, -1.463453, -0.204558, -0.506777, 0.330754, -0.616667, -0.178324, -0.451157, 1.473077, 0.071215, -0.308322, -0.940998, -0.408292, 0.619795, 0.313676, -0.279837, 0.706284, 0.398623, -0.560395, -0.424032, -1.374407, -0.453031, 0.113496, 1.444719, 1.222206, 2.128253, 0.770858, 1.809858, 1.809225, -0.530217, 0.378224, 0.897648, 0.091651, -0.120717, -0.368067, -0.814187, 0.562143, -1.546917, -0.716259, 0.793520, -0.875366, 1.094346, -1.784733, -0.686504, 0.781552, -0.475607, -0.165887, 1.451027, 0.142065, -1.597334, -1.095455, -0.294061, 0.690086, 0.561940, 0.760695, 0.225621, 1.346885, 0.879385, 0.939334, -1.026445, 1.057629, 1.443033, -0.118895, -0.974405, 0.353712, 0.321192, -0.580291, 0.586950, -0.323642, 0.004278, 1.830414, 0.918598, 0.262530, 0.753196, 0.335754, 0.272924, -1.325208, -0.825478, 1.001012, -2.079318, 0.077533, -0.224895, 1.191442, 0.109577, 0.835214, -0.025749, -1.245599, -0.950339, 0.345599, -0.420297, 0.763874, 1.342117, -0.010651, -1.064832, 0.512684, 0.092949, 0.519809, -0.135379, 0.363002, -1.194401, 1.178144, 0.759603, -0.793922, 0.895109, 0.350818, -0.635880, 2.192565, 0.802355, -0.515614, 1.451995, 2.049867, 1.567584, -0.071691, -0.411929, -0.366636, 0.865878, -0.124831, 0.345905, 0.860691, -0.987547, 1.478540, 0.161444, -0.461611, 0.307708, 1.300053, 0.096387, -0.941081, -1.727823, 0.436120, 0.486109, 2.544617, 0.507490, -1.430940, 0.422067, 0.089789, -0.307673, -0.003494, 0.741773, -0.521378, 0.537928, -0.478795, -1.447507, 0.544148, 1.847136, -0.477504, -0.270996, -0.444020, -0.020113, 0.423301, -0.478765, 0.682223, 0.943478, 0.982300, 1.384724, 0.491145, -0.334713, 0.719593, 0.254926, -2.089527, -0.492267, -1.310088, 0.572613, -0.344730, -1.242478, 0.367072, 0.650804, 0.281489, -0.303967, -0.672320, 1.041176, 0.856838, 0.308563, 0.025028, -0.245255, -1.053434, 0.173341, -0.007843, 0.417390, -0.302720, -0.404331, -0.997030, 0.058750, -0.384070, -0.036351, -0.456091, 0.838991, 0.729707, -1.653237, 0.584154, 0.707672, -1.251364, -1.137595, 0.346437, -0.124204, 0.228073, -0.336509, 0.659677, -1.153975, 0.806319, -0.440184, 0.439451, 0.246564, 1.296202, 0.575493, 0.228007, -0.514574, 0.569497, -0.011138, -0.406763, -1.877879, -0.390388, -0.034885, -1.402696, -0.323218, 1.008669, -0.114111, -0.464707, -1.018256, -0.926193, -0.050047, 0.149582, -0.616731, 0.928776, 0.393669, 1.604733, -1.035295, -0.622918, -0.037411, 0.305727, -0.329069, -0.500892, -0.036553, -1.994401, -2.637916, 1.091958, -0.221599, -0.752468, -1.250386, 1.165205, 0.428420, 0.318507, -1.502675, -0.993884, 0.946932, -0.246757, 0.656862, -0.075032, -0.540967, -0.883051, 1.094660, -0.741204, 0.011333, -0.993610, 0.216445, 0.133261, 1.436021, -0.933377, 0.835859, -0.450669, -0.653432, -0.655492, 2.800170, 0.794085, 0.097275, -1.311716, -0.221742, -1.099785, -0.351383, -2.038647, -1.033925, -0.526904, 0.114595, 1.027633, 0.701173, -1.133636, -0.083655, 1.133305, -0.562048, 0.031552, 1.063010, 0.650966, 0.631452, -0.023885, 2.305220, -0.361257, -0.361109, -0.491769, 0.741170, -0.877695, 0.428235, 0.332645, 0.512673, 0.638646, -1.292997, 0.491629, -0.134175, 0.534998, -1.097403, 0.605566, 1.181434, -0.660244, 1.574691, -1.331358, -0.249722, -0.553202, 1.050069, 0.448435, -0.383258, -0.522143},
    {0.847192, 1.368718, -0.383904, -2.044195, 0.466154, -0.059863, 0.345938, 1.097900, 1.066398, -0.522088, -1.102895, 0.337984, -0.196898, 0.725897, 0.126337, 0.808240, -0.125835, -0.084183, 0.828463, -0.539906, -1.754082, 0.111901, 2.221756, 0.443818, 0.303013, 1.896365, -0.385857, -0.089773, 0.650339, -0.144474, -0.374300, 0.080862, 0.974173, 0.469423, 1.322471, 0.396646, 0.544237, -1.586451, -0.664887, 1.683298, -0.375199, -0.536355, 0.793729, -0.638223, 0.800197, -0.813056, 0.392865, -0.003653, -1.034016, 1.047647, -1.416270, -0.545700, 0.935023, -0.779121, 0.792909, 0.698865, -1.346457, 1.368306, -0.408104, 1.863461, -0.001991, 0.767851, -0.920041, 0.810092, 0.076977, 0.613998, 0.007131, -0.808265, -0.901541, 2.402526, -0.315173, -0.957433, 0.151520, -1.221800, 0.781634, -0.349166, 1.088209, -0.533006, -1.203620, -2.417509, -1.043677, 0.153490, -0.156236, 0.788004, -2.652588, -0.150936, 0.699510, -0.473151, 1.486664, -1.556881, 1.344133, -0.890772, -2.234712, 0.044852, -0.579764, 1.288206, -0.829349, -0.712619, -0.380140, -0.557461, 0.108805, -0.111604, -0.341612, -0.382427, 0.432288, -0.780868, 1.565975, -1.258695, -0.360920, -2.242962, 1.688919, -1.310422, 1.247099, -0.308944, 0.457193, -0.821990, -1.117097, 0.935446, -0.625352, 2.220852, -0.697164, 0.622724, 0.239663, 0.678602, -1.309980, -0.573427, -0.795521, 0.158816, -1.211099, -0.246329, 0.001071, -0.207811, 0.075676, -0.715786, 0.498930, 0.712940, -0.215121, 0.844448, 0.762819, 1.299965, 0.395818, -0.137731, -1.231830, -0.461371, -0.219233, -0.600217, -1.835330, -0.987224, 0.359541, 1.425383, 1.096212, -1.543998, -0.541265, -1.440827, 2.391731, -1.014451, -1.090027, -0.564405, -0.140497, -0.116636, -1.583440, -0.512976, 0.140635, 0.374489, -1.215236, -0.119142, 0.271138, 0.807693, -1.954542, 0.038688, -0.663201, 1.805698, 0.090358, 0.618571, 0.003060, -1.400544, -0.478540, -1.238485, 1.182013, -0.163293, 0.889690, -1.060782, 1.560316, 0.079985, -0.766211, -1.346136, 0.658779, 0.379514, -0.346142, 0.433971, -0.163926, 1.332510, 1.022978, -0.281420, -0.370153, -0.273791, 0.495116, 2.586937, 1.150207, -0.197843, 0.139527, 0.806563, -0.596740, -0.189926, 0.185375, 2.410313, 0.863829, -0.186012, 1.050780, 0.487549, -2.139174, -0.085036, 0.028442, -0.039522, 1.229087, -1.313220, -0.406261, -0.140102, 0.967278, -0.260665, 1.287654, 1.845582, -0.956630, 2.063723, -0.093555, 0.408605, -0.430636, -1.085930, 2.311360, -1.090801, 1.002157, 1.310518, 0.434910, -1.291901, -0.377501, 1.177890, -1.009424, -0.085216, 0.587658, 0.048231, -0.192003, 0.101859, 1.140328, -2.189766, 0.551219, -0.363136, 1.392429, 0.508692, -0.030498, -0.302591, -0.739154, -0.963663, 0.109153, 1.158478, 0.126503, -0.335873, -0.715606, 1.157389, 0.193767, 1.885974, -0.244247, -2.421297, -0.717083, -0.097042, -1.855480, -1.660450, -2.420634, 0.852068, -0.337177, 0.251295, 0.838804, -0.829051, -0.364493, 2.222857, 0.487229, -0.909139, 2.217878, 0.438315, -0.508996, 0.546703, 0.786977, -0.831629, -1.034542, -0.140196, 1.242262, 0.671305, -1.204759, -0.918602, -1.298488, 0.419070, 1.539125, -0.341243, -0.873390, 0.767716, 0.565484, -0.648730, 0.580058, 0.590668, 1.188573, -1.034544, -1.101031, 0.246798, -1.480034, 0.730394, 1.534889, 0.053213, -0.452092, 1.202008, 0.869478, -0.464806, 0.959688, 0.138569, 1.042939, -0.209470, -0.657403, -1.413028, -0.485317, -0.850979, -2.227062, 0.107375, 1.267373, 0.557998, 0.290519, 1.068986, 0.625784, -0.208626, 0.364215, 0.154052, -0.004403, -0.633992, 2.136632, -0.310828, -1.001314, 0.068888, -0.042391, -0.225131, -0.304632, -0.366817, -1.603659, 0.722740, 0.126037, -0.591396, 1.228383, -0.293923, -0.926978, 0.090510, 0.295509, -1.497489, 0.706151, 1.066592, -0.700734, -1.842183, -0.065444, 1.223839, 1.553770, 0.097709, 0.263763, 0.678435, -0.771504, -0.619587, -0.357714, -0.874375, 0.894681, -0.104106, 1.095940, -0.433194, -1.418686, 0.844738, -1.965626, 2.667331, 0.560418, 0.406210, -0.987804, 0.594265, 0.590075, 0.535373, -0.798770, -1.464826, 1.716502, -0.173738, -3.187522, 0.841028, -1.260770, 0.393366, 0.456458, 0.088368, -2.049341, 2.066441, -0.937069, -1.730406, -0.965647, -0.420628, -1.758055, 0.599832, 1.276032, 0.191446, 0.414755, -1.991065, -0.095498, -0.093475, 0.312267, 0.814278, 0.285600, -0.017216, 0.203188, -0.912060, -0.357613, -1.851886, -1.451959, 1.152973, -1.843432, 0.060630, -0.331702, -0.756697, 0.497961, 0.944984, -1.560821, 1.105268, 0.935829, -1.064363, -0.900889, -0.424512, -1.155896, 0.784716, 0.677470, -0.622860, -0.464104, 0.337154, -0.552949, 0.443218, -0.280124, 0.776172, -2.025204, -1.199380, 1.142785, 0.337662, -1.416347, 1.273721, 0.642669, 0.118046, 0.436533, -0.969000, 0.134603, -1.660752, 1.182791, -0.215124, 0.320987, 0.794808, -0.132719, 0.441427, -0.624874, -1.924451, 1.178396, -1.118948, 0.837682, -0.012347, -1.061609, 1.212097, -0.548213, -1.205675, -1.410268, 2.028909, -1.063819, 1.554045, 0.638476, -0.405270, 1.054440, -0.308488, 0.321969, 1.241974, 0.677078, 0.531687, 0.450863, -0.419134, -0.872302, 2.464722, 0.582408, 0.120858, -0.345598, -0.261401, -0.066162, 1.192790, -0.251942, 1.019045, 1.285348, 0.879327, 1.640271, 1.624077, 0.383629, -1.339855, 0.890379, 0.856000, 0.745129, -0.503744, -0.138287, -0.455988, 0.722925, -1.615636, -0.536409, 0.256011, 0.220656, 0.825961, 0.167158, 0.309967, -1.288077, -0.816390, -0.667391, -0.039280, 1.560178, 1.961968, 1.256246, 1.069627, 0.463773, 1.404991, -0.752683, 0.524690, 1.540656, -1.290737, -0.942653, -0.914098, 0.208285, -0.505838, 0.274819, -0.273302, 1.155066, -0.334753, 0.149189, 0.571454, 0.864279, -1.299157, -0.861299, 0.185781, 0.214194, -0.847540, -0.134037, 0.326413, 1.129211, 1.038938, 0.495320, 0.078031, -1.512451, 0.272405, 2.723286, 0.170961, 0.005654, 1.282525, 0.627832, 0.467422, 1.693759, -0.170812, -0.834015, 0.096150, 0.437277, 1.027117, 1.578265, -1.413929, -0.637366, -0.340543, 1.746509, -0.445798, 1.177650, -0.489980, -0.704279, -0.060915, 0.489145, 1.153915, 0.528825, 0.356306, 0.846244, 2.063331, -0.600795, 1.038651, 0.812642, -0.182902, 2.071458, 0.102114, 1.636551, 0.097261, -2.092863, -0.305779, -0.561072, -0.523694, -0.647041, 0.254776, 1.128742, -1.028397, -0.334883, -1.058218, -0.323329, 0.375614, -0.601496, 0.150760, -0.650206, -0.205881, 1.275562, 0.221393, 1.207581, 0.368299, -0.753910, 0.001903, 1.535779, -0.380677, 1.255231, 1.334340, 2.644417, 2.013227, -0.223725, 1.213740, 0.576214, 0.581848, -0.388929, 0.022628, -0.653530, 0.328641, -0.015936, 2.300332, -0.831154, -0.423449, 0.299653, 1.532989, 0.474408, -1.023272, -2.032695, -0.843824, 1.523201, 0.735833, -1.332989, 0.719057, 0.950008, -0.745824, -0.637658, 1.458211, -0.158206, -1.300823, -0.756155, 0.005058, -1.291759, -0.952365, -0.318834, 0.934143, 0.813133, -0.486479, -1.223393, -0.121452, -0.383599, -0.363723, -1.250993, -0.759591, -0.602843, -0.413616, 0.577599, -0.947084, -0.610649, 0.410703, 0.697325, 0.900597, -0.779631, 0.833706, 0.139658, 1.093189, -1.420805, -0.667494, -0.275742, 1.220660, -0.687976, 0.381543, -0.859084, -0.817665, -1.210652, -0.696494, 0.417093, -0.991451, 1.576328, 0.745754, 0.594927, -0.636402, 0.563418, 0.901756, 0.572820, 0.960264, -0.578477, 0.970903, 0.058225, 0.431262, -0.268637, 0.393367, -0.531304, 1.082935, -1.834696, -1.385771, 1.745043, 0.434166, 0.073814, -0.496562, 0.497359, -0.455707, -0.412246, 0.099098, 0.622040, -0.274615, -0.226209, -0.044000, 0.929004, 0.105530, 1.244751, 0.961958, 0.273357, 0.595712, -2.473647, 0.653501, 0.439910, -0.083253, -0.119971, -0.702063, -0.581537, -1.008996, -0.614734, -0.097712, -0.994107, 0.922259, 0.440202, 0.402924, -0.849007, 1.032456, -0.337834, 0.157792, -0.245203, 0.185029, -0.675875, 0.101640, -0.448452, 1.132083, -0.723690, 0.289279, 0.805832, 0.967943, -1.105922, 0.382998, -0.498307, 0.492785, -0.752871, 0.083718, -0.104482, 0.130716, -0.238902, -0.523624, 1.092694, 1.302697, -1.337371, 1.253424, -0.717756, -1.032006, -1.619146, 0.118390, -0.717060, -1.784120, 0.600123, 0.058887, 0.522981, 1.456963, 0.010884, -1.148229, -0.056376, -0.790869, -0.562182, -0.814506, 0.245528, 0.070484, 1.247415, 1.026448, -1.055734, -1.621367, 1.021001, -0.773589, 0.975327, -1.453649, 0.638216, 0.445304, 0.401518, -0.792184, 0.153771, 0.616257, -1.529396, 0.003890},
    {0.356241, 1.063350, 0.343155, 0.239000, -1.770692, 0.725180, -0.581646, 0.988613, 0.658758, -0.770799, 0.575255, -0.556526, -1.233754, -0.012673, 0.475165, -0.662492, -0.117438, -1.670637, -0.519876, -0.966332, 0.472904, 0.342074, 0.096290, 1.034360, 1.161086, 0.110221, 0.682398, 1.034460, -1.892399, -1.555900, 0.857281, -0.121496, -1.330837, -1.062234, 0.485064, -0.908784, -1.699953, 2.135919, 0.515666, 0.818511, 0.370216, -0.146627, -0.663857, -1.901111, 0.153601, 1.211631, 0.115509, -0.839284, -0.586564, 0.140058, 1.051121, 0.091791, -0.004543, -1.141751, 2.056211, -0.548292, -0.560505, 0.713439, 1.088937, -0.334768, 0.577001, -0.022871, 1.361005, -0.552860, -0.256119, -0.104248, 0.749509, 1.235709, -0.216890, -0.135223, -0.190045, -1.589682, -0.980513, -1.568284, 1.338690, -0.457732, -0.041077, -2.739077, 0.376430, -1.467823, 1.902428, -2.489127, 0.132934, 1.033839, 0.483643, -0.736759, 0.988756, 0.063879, -1.049567, -0.076207, 0.461290, 1.147438, 0.228304, 0.481276, 1.226277, -0.880283, 0.699682, -0.734260, -1.401861, -0.086647, -1.620895, 0.127385, -0.913734, -0.940427, 0.228951, 0.518218, -0.812437, -0.017585, -0.700341, -2.029507, -1.530586, -1.354730, -0.408378, 0.366536, 0.647751, 0.479606, -1.121244, 0.733886, -0.438684, 0.845540, -1.908969, -0.518156, 0.529305, 0.272071, -0.280389, 1.003884, 1.135463, 0.026376, -2.976798, -0.292163, -0.533729, 1.175479, -1.504694, -0.220327, 0.500325, 1.134679, 1.015660, 2.491440, 0.466809, 1.642417, 1.059482, 2.360793, 0.758347, 0.540097, 2.253363, 0.712394, 0.596107, -1.015636, 1.011372, 1.274336, 2.809152, 0.357257, 1.599510, -1.011745, -0.294076, -0.349767, 1.305248, -0.667534, 1.315991, 0.740572, -0.870306, -1.124841, 1.087840, 0.962502, -0.346908, 0.051435, -0.383075, -1.109305, -0.245780, 0.124699, 1.352438, 3.141984, -0.180704, 0.404209, 1.895015, -0.811700, -1.219935, -1.060020, 2.222390, 0.438257, -0.518379, -0.438093, -0.135631, -1.124108, 0.006216, -0.945346, -1.626473, 1.144938, 0.738814, 0.708767, -1.040234, 1.913396, -0.259783, 0.202355, -0.733885, -1.058218, 1.385221, 0.373608, 0.838209, -1.950085, -0.851036, -1.029413, 0.248901, -0.504436, -1.646249, -1.554315, -0.003773, 0.404558, -0.832440, 0.716146, -1.563734, 0.653686, 0.573455, 0.824724, 0.177982, 0.878213, 1.694527, -0.967725, 0.962608, 0.460731, -0.809089, 1.433893, 0.866943, 0.538664, -0.972100, 0.143238, 0.060602, 0.174801, 0.064252, 0.549078, -1.740200, 1.152362, 1.775771, 0.008035, -0.977611, -1.899730, 2.491955, 0.784870, 0.833061, 0.007179, -1.270894, 0.068735, 0.475346, -0.203001, -0.219324, 0.458204, -0.806542, 1.309341, 0.460359, 0.136329, -0.279215, -1.052618, 1.591835, -0.241215, -1.004434, -1.113843, 0.823184, -0.078886, 0.993209, -0.471561, -1.007621, 0.049588, 0.720452, 0.490963, 0.150040, 0.216183, 0.473810, -1.993915, -1.102979, 2.546531, -1.045129, -0.656587, 0.735349, 0.873231, -0.057202, 0.649190, 0.210402, -0.767846, -0.631274, -1.867817, 1.050574, -1.697939, 1.053496, -0.771817, -1.135026, -0.365865, -0.869665, -0.320048, 0.243592, 0.145634, 0.418209, -1.707720, -0.350702, 0.678164, -0.329895, 1.157983, -0.917351, -1.761304, -0.597224, 1.850620, 1.091471, 0.914324, 0.941414, -0.538850, 1.555224, 0.004535, -0.504998, -0.923279, 0.517906, -0.885868, 1.203686, -0.863357, 0.765404, 0.414947, -0.029206, 0.029171, -1.702706, 1.576054, -0.238746, 2.331521, 0.149378, -0.436053, 1.996482, -0.306141, 0.326521, -1.528815, 0.082420, -0.513580, 1.081559, -0.783711, 0.918754, 1.917392, -0.761366, -1.345944, -1.030655, -0.007966, -0.883340, 0.600826, 1.199594, -0.606216, 0.698800, 0.488844, 0.392388, 0.698104, -0.014794, -0.088283, -0.047129, -1.870003, 0.782517, 0.378627, -0.402554, -0.999137, 1.541191, -0.135919, -1.040712, 0.562739, 0.731051, 0.406190, -0.628156, -0.335610, 0.185710, 0.398471, 1.010642, 1.934571, -0.447401, 0.755459, -0.625220, 0.636678, -2.316645, -0.221238, 0.062040, 0.688625, 0.425508, -0.522461, 1.661791, 2.331242, 1.090425, -0.478015, -0.590521, 0.476144, -0.126880, -0.687472, -0.733391, -0.110162, 2.219647, -1.431687, 0.807764, 0.314603, -0.464412, 0.001489, 0.459436, -0.867673, 1.778349, -1.716792, 0.880404, -0.405198, -0.328275, -0.627694, 0.645050, -1.238974, -0.665414, 1.670722, -0.184946, -0.239289, -0.180429, -0.119742, 0.577847, 1.093118, -0.474725, 0.071045, 2.291965, -0.759896, -1.255199, -0.700133, 1.047739, -0.273393, -0.972049, 0.785956, -0.123671, -0.760298, 0.052752, -1.432790, 0.893994, 0.392714, -0.437539, -0.900914, -0.992688, -0.986843, -1.736312, 0.499146, -0.026473, 0.257287, -0.495986, -0.372284, -1.906134, 1.118148, -0.587939, 0.174530, 0.304355, -0.409562, 1.645002, 1.751808, -1.873175, -0.331273, 1.088102, 0.747481, 0.035748, 0.441032, -0.501121, -0.882235, 0.642548, 1.061197, 0.895048, -0.831980, -0.209307, 1.580717, 0.253291, -0.257531, -1.667523, 2.443235, 1.802251, -0.209072, -1.163920, -0.072930, 0.691523, 0.040572, 0.134434, -0.623484, 1.147443, -1.229883, -1.564927, -2.578781, -1.129301, -1.532044, 0.099696, -0.351462, 0.089528, -1.065679, -0.724625, 1.547045, -0.260152, 0.242373, -0.607130, -0.538017, 0.083235, 0.486253, 1.714737, 1.418074, 0.602649, -0.577617, -0.886926, -0.977853, 0.453349, 0.979918, 1.004830, -0.561910, -0.339774, -0.567913, -0.545388, -0.050168, 1.310594, 3.550127, 0.133109, 0.430687, -0.413579, -0.463672, -0.084593, 0.132214, -0.440080, 0.475992, 0.959894, 1.097824, 0.276629, -0.288972, -0.053555, 0.724038, 0.427251, -1.028638, -0.340028, -0.274735, 1.231312, -0.644428, -0.316705, -0.760700, -0.503787, -0.514277, 0.467237, -0.275515, 0.490797, 2.420339, 1.574001, 0.164321, 0.906468, -1.533235, -1.611476, 1.478256, 0.486170, 0.467035, -1.067685, 0.735922, -0.190092, -1.172561, 1.514430, 0.598190, -1.665332, -0.655518, -0.547749, -0.267989, 0.650753, 0.705831, 1.770713, -0.865864, -1.132705, 1.083169, 0.761921, 1.406505, -0.743330, -0.884644, 0.165416, 0.525107, -1.003431, -0.573867, 0.533512, -1.812382, 0.163995, 0.477746, 1.237063, 0.228989, 0.007540, -0.121702, 0.684321, 1.188645, -0.327182, -0.049910, 0.981863, 0.812655, -0.590792, -0.143941, 1.315360, 1.463446, 0.563220, -0.005318, 1.830904, -1.227376, 0.981676, -0.631763, -0.428015, -0.067537, -0.819805, -0.314835, 1.198065, -0.191685, -1.381614, -0.526977, -0.436827, 0.078868, -0.741059, 1.585386, -1.735123, 1.265692, -1.076326, 1.588654, -0.819237, 0.238765, -0.197685, 0.448296, -0.816162, -0.423361, -0.141666, -0.224431, 1.360218, 0.406345, 1.880799, -1.493960, -0.141820, 2.105382, 3.068212, -0.676940, -0.847845, -0.503749, 1.806869, 1.499346, -1.328980, -0.740191, -0.709569, -2.128836, 0.907620, 0.733285, 0.661484, -1.218568, 0.300533, -0.760540, -1.118744, -0.906709, -0.892551, -0.580019, 0.006137, 2.017143, 0.565423, -0.365998, 1.813052, -0.770842, 0.209021, 0.924031, -0.166775, -0.972076, 0.459364, -0.699313, -0.079021, 0.130782, -0.878908, -0.299300, -0.762754, 1.214749, -1.163517, -2.147831, 0.486646, -0.223153, 0.898881, -0.499538, 1.562922, 1.667237, 1.072994, -0.034364, 0.251411, -1.721762, -0.746547, -0.190873, 0.974529, -0.783894, 0.322752, -0.035827, 0.093094, 0.758949, 0.482272, 0.636038, 1.855529, 1.055970, 1.383715, 0.626295, 0.846092, 0.173625, 0.047641, 0.543935, 0.010294, 2.299156, 0.139234, -0.156682, -1.569233, 0.923832, -1.055673, 0.493418, -0.454790, 1.125305, -0.425209, 0.009907, 0.014801, 0.522096, 0.377537, -1.090101, 1.304771, -0.951789, 1.088072, -1.840847, 1.266332, 1.976882, 0.334876, 0.824990, 0.627717, 1.144307, 1.346659, -0.459616, -0.793370, -0.359908, 1.578176, 0.172246, 0.908081, 1.421602, 0.343164, 0.318163, 0.324887, 0.876588, -1.613355, 1.075150, -0.233983, 0.477921, 0.460313, -0.346301, 0.188896, 1.930505, -2.396412, -0.859025, 0.249153, -1.268643, -1.075670, 0.083489, 0.752549, 0.225707, 1.339389, 1.447879, -1.287898, -0.059859, -0.023392, -0.482633, -1.565363, 0.124691, 0.443106, -1.300720, 0.035920, -1.760789, 1.307444, -0.312935, 0.736323, -2.098188, -1.459363, 0.984098, -0.835662, -2.280181, -2.040061, 0.198017, 1.051362, 0.108790, -0.419148, -1.545734, 0.607675, 0.044488, 1.230315, 0.165727, -0.653251, 0.896904, -0.308844, -0.298894, 1.106732, -0.399239, -1.537744, -0.702963, 0.623653, -2.378209, 0.461240, -0.727328, 0.501155, 0.338356, 0.391286, -0.741781},
};

const float biases[10] = {
-1.359952, -1.026374, -0.325098, 1.458129, 0.344196, 0.210491, 0.821468, -0.563161, -1.724756, 0.455810};

