
#include <math.h>

#define INPUT_SIZE 784
#define OUTPUT_SIZE 10

float weights[OUTPUT_SIZE][INPUT_SIZE] = {
    {-0.048174, 0.062528, -0.063190, -0.005552, -0.052286, 0.038622, 0.040851, 0.010072, -0.001013, -0.039131, -0.050466, 0.067690, 0.054342, -0.120854, -0.085126, -0.047584, -0.019602, -0.035548, -0.046813, -0.012993, 0.006185, -0.075180, -0.055406, 0.001433, 0.051563, 0.017422, 0.006369, -0.080717, 0.060010, -0.013695, -0.040997, -0.044720, -0.042792, -0.084849, 0.041882, -0.091831, -0.033921, -0.072506, -0.123390, 0.084837, 0.208474, 0.084916, -0.004401, 0.124216, 0.124257, 0.048947, -0.137135, -0.097932, -0.024797, -0.017474, -0.091427, -0.054211, -0.053299, 0.083475, 0.083695, -0.008849, -0.062110, -0.003256, -0.011428, 0.211397, 0.094999, 0.034586, -0.198126, -0.131030, -0.262717, -0.298714, -0.381803, -0.248765, -0.158006, -0.449697, -0.536580, -0.464911, -0.286819, -0.392188, -0.365749, -0.242458, -0.311603, -0.233291, -0.153876, -0.154007, -0.024682, -0.016029, 0.032468, 0.013583, 0.015878, -0.001806, -0.051438, 0.141361, -0.102458, -0.264508, -0.311662, -0.199467, -0.103560, -0.136613, -0.130960, -0.078491, -0.177943, -0.090769, -0.206162, -0.159711, -0.095503, -0.101657, -0.372340, -0.275501, -0.364123, -0.547358, -0.463648, -0.260338, -0.166852, -0.018882, -0.209636, 0.030681, 0.006719, 0.010880, 0.002120, -0.027968, -0.304437, -0.359454, -0.211216, -0.065777, -0.139519, -0.050629, -0.026629, 0.054188, -0.117687, 0.060406, -0.141123, 0.041846, -0.050688, -0.009181, -0.009999, -0.106472, -0.222265, -0.197647, -0.180882, -0.231024, -0.200964, -0.282375, -0.188228, -0.080631, -0.007743, 0.035868, -0.195918, -0.021635, -0.361808, -0.298230, -0.113398, -0.118612, -0.032809, -0.100778, -0.070737, 0.076178, 0.053379, 0.063462, 0.229148, 0.185386, 0.046370, 0.202840, 0.095248, 0.136111, -0.095865, 0.010863, 0.030050, -0.263663, -0.375946, -0.466681, -0.442104, -0.124640, -0.071220, 0.006288, -0.143361, -0.171874, -0.432412, -0.018604, 0.010501, -0.028793, -0.137487, -0.201807, -0.010499, -0.056763, 0.052368, 0.071757, 0.043915, 0.026346, 0.128196, 0.154143, 0.151083, 0.164845, 0.104302, 0.114468, 0.159460, -0.017715, -0.431021, -0.714066, -0.481638, -0.181668, -0.002505, -0.153334, -0.141225, -0.106343, -0.488843, -0.007558, -0.053773, -0.106226, -0.127377, -0.070741, -0.083924, 0.056912, 0.077944, 0.023734, 0.068178, 0.142308, 0.211273, 0.186864, 0.158684, 0.186803, -0.013004, 0.014941, 0.125207, 0.081206, -0.275640, -0.594038, -0.565928, -0.178675, 0.020575, -0.121198, -0.041719, -0.260250, -0.339614, -0.110150, -0.110254, -0.073507, -0.152462, -0.009907, -0.051365, -0.048590, 0.068669, 0.013410, 0.102343, 0.132157, 0.312060, 0.223114, 0.161220, 0.131699, -0.003752, 0.044281, 0.146504, 0.109913, -0.031381, -0.762075, -0.626308, -0.270418, 0.048229, -0.078698, -0.029308, -0.340031, -0.208895, -0.155397, -0.062630, -0.100774, -0.077702, -0.035920, 0.005716, -0.075543, 0.000835, 0.162653, -0.009669, 0.016223, 0.183110, 0.271992, 0.321744, 0.197404, 0.158826, 0.036125, -0.005778, 0.079063, 0.112427, -0.911107, -0.792072, -0.230543, 0.052295, 0.043697, 0.135635, -0.034555, -0.154301, -0.075439, -0.126490, -0.071953, -0.001057, -0.028914, -0.081166, 0.041400, -0.003501, 0.074703, 0.006652, -0.195294, -0.110520, 0.082954, 0.165198, 0.114525, 0.123157, 0.071532, 0.169697, 0.213844, -0.007501, -0.692679, -0.634624, -0.054926, -0.051272, 0.049500, -0.148594, -0.161274, -0.263041, -0.182625, -0.010946, -0.001850, -0.012788, -0.082681, -0.108436, -0.039359, -0.020119, -0.159944, -0.341487, -0.430642, -0.461019, -0.093861, -0.068709, 0.122285, 0.144717, 0.196146, 0.183458, 0.174737, 0.159878, -0.432072, -0.409730, -0.066655, -0.013350, 0.001511, -0.026922, -0.037064, -0.283737, -0.027793, 0.032606, 0.050275, 0.019501, -0.035502, -0.042031, 0.075295, -0.020204, -0.174080, -0.539491, -0.694670, -0.552912, -0.182896, -0.051685, -0.109991, -0.014965, 0.100659, 0.210504, 0.182139, 0.346568, -0.047881, -0.263745, -0.134972, 0.070385, 0.089907, -0.080040, -0.155467, -0.065145, -0.082149, 0.138542, 0.144902, -0.004788, -0.005444, -0.013563, 0.054118, -0.060069, -0.401575, -0.533995, -0.654176, -0.443141, -0.221593, -0.082718, -0.059444, -0.062904, 0.097155, 0.104302, 0.274676, 0.350503, 0.074286, -0.138014, -0.048015, -0.087412, -0.053918, -0.192419, -0.329303, -0.111912, 0.237444, 0.164462, 0.192590, 0.120165, 0.078388, 0.162826, 0.031485, -0.002461, -0.406620, -0.598862, -0.546435, -0.598633, -0.261763, -0.087521, -0.084542, 0.033806, 0.105490, 0.151800, 0.280591, 0.310511, -0.092150, -0.258431, -0.093395, -0.077884, -0.092321, -0.086323, -0.273002, 0.049051, 0.207135, 0.035307, 0.176164, 0.209058, 0.183651, 0.242861, -0.031169, -0.162133, -0.469411, -0.602917, -0.512148, -0.457011, -0.307544, -0.043090, -0.025793, -0.010368, 0.113091, 0.110837, 0.281591, 0.194756, -0.147442, -0.396535, -0.088122, 0.014089, -0.031092, -0.127786, -0.233282, 0.011336, 0.136159, 0.130339, 0.143856, 0.135973, 0.254331, 0.233912, 0.063837, -0.248871, -0.644829, -0.564693, -0.474698, -0.238731, -0.147911, 0.023134, 0.098711, 0.081682, 0.077110, 0.100292, 0.157268, -0.029184, -0.230734, -0.398963, 0.166631, -0.019558, -0.053542, -0.144373, -0.273247, -0.025530, 0.175197, 0.088278, 0.042672, 0.107438, 0.192545, 0.283962, -0.016569, -0.243669, -0.591550, -0.523594, -0.362775, -0.093706, 0.011264, 0.067528, 0.067478, 0.010266, 0.092145, 0.098511, -0.039562, -0.093256, -0.226265, -0.237729, 0.051941, -0.009732, -0.020139, -0.176571, -0.404677, -0.150750, 0.120296, -0.002129, 0.141502, 0.049354, 0.224050, 0.288448, 0.118729, -0.200231, -0.407309, -0.408415, -0.279411, -0.022306, -0.079800, -0.108413, -0.034807, -0.062743, 0.050988, 0.076473, 0.014582, -0.004018, -0.344507, -0.210015, -0.291702, 0.036655, 0.214449, -0.167672, -0.375910, -0.150495, 0.002830, 0.061515, -0.014232, 0.129041, 0.049785, 0.251871, 0.156850, 0.053381, -0.161490, -0.189775, -0.145045, -0.059009, -0.006641, -0.060641, -0.076982, -0.028159, 0.063598, -0.036327, -0.030483, -0.152860, -0.362180, -0.301845, -0.076718, 0.043102, 0.060631, -0.048383, -0.193711, -0.017948, 0.005861, -0.023590, 0.071804, 0.040788, 0.076717, 0.190517, 0.264482, 0.254705, 0.041989, -0.073146, 0.070692, -0.128509, -0.024759, -0.054963, -0.106908, -0.142627, -0.068576, 0.021314, -0.235954, -0.228006, -0.342721, -0.110026, 0.072076, -0.066832, 0.050557, -0.163575, -0.184243, -0.207036, 0.101345, 0.022796, 0.030137, -0.027984, 0.095224, 0.230164, 0.197418, 0.238087, 0.098557, 0.037337, 0.041117, -0.010112, -0.205377, -0.164261, -0.213401, -0.118424, -0.116005, 0.023274, -0.100639, -0.185220, -0.168809, 0.153908, -0.018986, 0.047519, 0.025747, -0.110070, -0.255331, -0.377390, 0.053966, 0.041509, 0.093104, 0.098584, 0.113066, 0.113865, 0.141735, 0.225077, 0.227102, 0.097630, 0.152974, 0.046382, -0.077555, -0.035285, -0.106013, -0.096338, -0.025832, -0.016714, -0.104593, -0.250638, -0.125630, 0.083747, 0.033675, -0.030265, -0.068916, -0.109094, -0.362762, -0.406643, -0.228374, 0.057488, 0.126865, 0.013819, 0.192482, 0.140766, 0.311163, 0.235342, 0.213335, 0.136585, 0.111699, 0.020164, 0.018118, -0.190022, -0.290398, -0.292220, -0.245807, -0.065692, -0.189499, -0.326363, -0.099019, -0.113310, 0.000673, 0.063890, 0.030485, -0.108854, -0.205540, -0.179066, -0.205876, -0.257321, -0.326253, -0.119238, -0.117026, -0.095748, -0.008728, 0.027421, 0.129351, -0.006382, -0.004234, -0.196127, -0.173700, -0.351947, -0.536028, -0.447420, -0.512239, -0.461678, -0.397929, -0.260877, -0.027900, -0.056030, -0.076937, -0.070147, -0.082142, -0.144186, -0.166385, -0.213003, -0.451461, -0.452000, -0.378092, -0.511986, -0.567604, -0.647187, -0.505031, -0.533504, -0.446541, -0.603654, -0.635706, -0.580090, -0.542188, -0.635587, -0.726124, -0.587757, -0.587535, -0.340369, -0.393992, -0.253017, -0.111944, 0.008410, -0.079119, 0.001402, -0.010378, -0.031583, -0.105043, -0.042259, -0.141314, -0.237103, -0.240179, -0.348831, -0.564998, -0.458186, -0.413523, -0.287631, -0.508295, -0.382915, -0.573325, -0.355748, -0.338308, -0.520146, -0.149139, -0.380556, -0.308065, -0.166476, -0.089550, -0.047917, -0.085095, 0.029016, 0.085383, -0.018396, -0.060925, -0.031912, -0.083942, 0.039328, -0.039695, -0.019911, -0.128350, -0.124429, -0.162610, -0.089213, -0.175602, -0.190918, -0.220220, -0.232085, -0.178771, -0.103000, -0.200589, -0.210553, -0.134446, -0.061258, -0.173883, -0.128335, -0.121029, -0.019863, 0.039333, 0.035788, -0.021437},
    {-0.016962, 0.034180, 0.005345, -0.042292, 0.033064, 0.019176, -0.029075, 0.058616, 0.078157, 0.082476, 0.007719, 0.041097, -0.100850, -0.139155, 0.048568, 0.079839, -0.025344, 0.003830, -0.002027, -0.032336, 0.026926, 0.014938, 0.061730, 0.032616, 0.031960, 0.076529, 0.030687, -0.001111, 0.014287, -0.058545, -0.050600, -0.014301, 0.062021, -0.071026, 0.031148, -0.003330, -0.108696, -0.190516, -0.129156, -0.177644, -0.109925, -0.168514, 0.186107, 0.195916, -0.267819, -0.371113, -0.038781, -0.079626, -0.055559, -0.060435, -0.015228, -0.035661, -0.006070, -0.059576, -0.025670, -0.064348, -0.030047, 0.067599, -0.022001, 0.041736, 0.040163, 0.011268, -0.031722, -0.195823, -0.304124, -0.351141, -0.391355, -0.361622, 0.016359, 0.143950, 0.063726, 0.198341, 0.249416, -0.087588, -0.109990, -0.003032, -0.090958, -0.343310, -0.118240, -0.125515, -0.063627, -0.034615, -0.065128, -0.070449, -0.023545, 0.024159, 0.011991, 0.024168, -0.089804, -0.229118, -0.209602, -0.323950, -0.555018, -0.460337, -0.550440, -0.381571, -0.137301, -0.064577, -0.165549, -0.007236, -0.074136, -0.216237, -0.318520, -0.263662, -0.384883, -0.432166, -0.495779, -0.340337, -0.350973, -0.271757, -0.199258, 0.006203, 0.071097, 0.071296, -0.038391, -0.060166, -0.175760, -0.073223, -0.246527, -0.259482, 0.018185, -0.118161, -0.040403, -0.207812, -0.005514, 0.059140, 0.051495, 0.050356, 0.069298, -0.098498, -0.027561, -0.051245, 0.121734, 0.071719, 0.018643, -0.076734, -0.379422, -0.431545, -0.352959, -0.161494, -0.022802, 0.016307, 0.009828, -0.045982, 0.114982, 0.141218, 0.096562, -0.195302, -0.228702, -0.302639, -0.186091, -0.178120, -0.071986, -0.018270, -0.011112, -0.011809, -0.130246, -0.158102, -0.064507, -0.005441, 0.059411, 0.148635, 0.194574, 0.050667, -0.126661, -0.546663, -0.247367, -0.213253, -0.045762, -0.061890, -0.127126, -0.193679, 0.051350, -0.115306, -0.128843, -0.334770, -0.388064, -0.369642, -0.184906, -0.124049, -0.218220, -0.103288, -0.182891, -0.253811, -0.266013, -0.260667, -0.119676, -0.059832, 0.014418, 0.053549, -0.034737, -0.057613, -0.150633, -0.739844, -0.392773, -0.157291, 0.010664, -0.124289, -0.122345, -0.250396, 0.038870, -0.320272, -0.399769, -0.221649, -0.477932, -0.332188, -0.293454, -0.182889, -0.008063, -0.209699, -0.089156, -0.277224, -0.167147, -0.231287, -0.070537, -0.057931, 0.007249, -0.051980, -0.054438, -0.209267, -0.495593, -0.813108, -0.318901, -0.270127, 0.046749, -0.067831, -0.167335, -0.142507, 0.040493, -0.299958, -0.296595, -0.204370, -0.284533, -0.419169, -0.252304, -0.162614, -0.127404, -0.059312, 0.102131, 0.098535, -0.034300, -0.006982, -0.042063, -0.092226, -0.127039, -0.155946, -0.303144, -0.547269, -0.820677, -0.788433, -0.344661, -0.188068, -0.044216, -0.146765, -0.127269, -0.060909, -0.114782, -0.266375, -0.271339, -0.167046, -0.207801, -0.284984, -0.180913, -0.157445, -0.148381, 0.068373, 0.157522, 0.283636, 0.233742, -0.001686, -0.032870, -0.124759, -0.185633, -0.236685, -0.430206, -0.684901, -0.709788, -0.722060, -0.463986, -0.155708, -0.037154, 0.072156, -0.207648, -0.158887, -0.070399, -0.303980, -0.355846, -0.264322, -0.129719, -0.216544, -0.108427, -0.062503, -0.036200, 0.195710, 0.482817, 0.486522, 0.228542, 0.071825, -0.198939, -0.143321, -0.229044, -0.281670, -0.423412, -0.547789, -0.701714, -0.343457, -0.320855, 0.154109, -0.042744, 0.002491, -0.054850, -0.224476, -0.013662, -0.177083, -0.361052, -0.230375, -0.106711, -0.231252, -0.121528, -0.161482, -0.105444, 0.168784, 0.469909, 0.524240, 0.154491, -0.132587, -0.065731, -0.173877, -0.146797, -0.128446, -0.206672, -0.225968, -0.696478, -0.130438, -0.162504, 0.161495, 0.023894, -0.048653, -0.196654, -0.025995, 0.128327, -0.279629, -0.037938, 0.067919, -0.125002, -0.165919, -0.274460, -0.360572, -0.154646, 0.254866, 0.564046, 0.403622, 0.201961, -0.137560, -0.028247, -0.167396, -0.145492, -0.131561, -0.196909, -0.037120, -0.346420, -0.174397, -0.149029, 0.232929, 0.046079, -0.029587, -0.130786, 0.154251, 0.145970, -0.114851, -0.011081, -0.082454, -0.091317, -0.158371, -0.487333, -0.402384, -0.286476, 0.358417, 0.431801, 0.317643, 0.096555, 0.022720, -0.270686, -0.327186, -0.211732, -0.179400, -0.244162, -0.373304, -0.499217, -0.312328, -0.129260, -0.024584, 0.012943, -0.108276, 0.068761, 0.167069, 0.111849, -0.020907, -0.250888, -0.197775, -0.032603, -0.187575, -0.448017, -0.475831, -0.138903, 0.375321, 0.489861, 0.329668, 0.072466, -0.229882, -0.352354, -0.294351, -0.263427, -0.288425, -0.138037, -0.136945, -0.133677, -0.273370, -0.092579, -0.013859, -0.096655, -0.074345, 0.088527, 0.083610, 0.017813, -0.317672, -0.429069, -0.120578, -0.138461, -0.250961, -0.287853, -0.193978, -0.016561, 0.305557, 0.393607, 0.329370, -0.123899, -0.323696, -0.457099, -0.455977, -0.390989, -0.255162, -0.339121, -0.408587, -0.348438, -0.364006, -0.248979, -0.063922, 0.079682, 0.053885, 0.029019, -0.136387, -0.192084, -0.250197, -0.441131, -0.294991, -0.252214, -0.079230, -0.142083, -0.110598, 0.042996, 0.220356, 0.498128, 0.078127, -0.231581, -0.551000, -0.507406, -0.319717, -0.292339, -0.285545, -0.210824, -0.348301, -0.058459, -0.379216, -0.107988, -0.075455, -0.063368, 0.027260, 0.056566, -0.156508, -0.312698, -0.456051, -0.443298, -0.325384, -0.178939, -0.125378, -0.109187, -0.110753, 0.032410, 0.314545, 0.296523, 0.069557, -0.459075, -0.426531, -0.396934, -0.308284, -0.205449, -0.096841, -0.119866, -0.124438, 0.026419, -0.143800, -0.214787, -0.179140, -0.022920, -0.072212, -0.105299, -0.202912, -0.392925, -0.600234, -0.579259, -0.315203, -0.187289, -0.054580, -0.094346, -0.104614, 0.132411, 0.261872, 0.194909, -0.018886, -0.367103, -0.167702, -0.081325, -0.148784, 0.040638, -0.018855, -0.135765, -0.121578, -0.096310, 0.061332, -0.032552, 0.171632, -0.009895, 0.006939, -0.080758, -0.278963, -0.495099, -0.724918, -0.433023, -0.130188, -0.069496, -0.035959, 0.052061, -0.038170, 0.034702, 0.146667, 0.024026, -0.079065, -0.065468, -0.040263, 0.105073, 0.196828, 0.054000, -0.093254, -0.156337, -0.038047, 0.060817, 0.120433, -0.036386, 0.107024, -0.009173, -0.048248, -0.153604, -0.114105, -0.201327, -0.389887, -0.106030, -0.063040, 0.111607, 0.022536, 0.145460, 0.102374, -0.010133, 0.027897, -0.006778, -0.031344, 0.146745, 0.151779, 0.141852, 0.148123, 0.034273, 0.077176, -0.014325, 0.038388, 0.087094, 0.059790, 0.141027, -0.066228, 0.089288, -0.044957, -0.153832, 0.018209, -0.024632, 0.087048, 0.109173, 0.004323, 0.087239, 0.066978, 0.079847, -0.069624, -0.082296, -0.154188, -0.042027, 0.092278, 0.118499, 0.136623, 0.201449, 0.039115, 0.113395, 0.103050, -0.235639, -0.069313, 0.153202, 0.046169, -0.104847, 0.054916, 0.143158, 0.163531, -0.068773, -0.011377, 0.016975, 0.409043, 0.271970, 0.131754, 0.112586, -0.000237, -0.056232, -0.233366, -0.328303, -0.348067, -0.038823, 0.088721, 0.107150, 0.242685, 0.267048, 0.170004, 0.088802, 0.004084, -0.359790, -0.186512, -0.037434, 0.111597, 0.187259, -0.086319, -0.049467, 0.022466, -0.031889, -0.375062, -0.079037, 0.313459, 0.209011, 0.054448, -0.013538, 0.034213, -0.067147, -0.198688, -0.139831, -0.132573, -0.212792, 0.029918, 0.103959, 0.381411, 0.082216, -0.000456, -0.015874, -0.216364, -0.444171, -0.386951, -0.203362, -0.023973, 0.275095, 0.008264, -0.034428, 0.077315, 0.023112, -0.239537, -0.316199, -0.021476, 0.050319, -0.204998, -0.172803, -0.138279, -0.232451, -0.322260, -0.195204, -0.312724, -0.297485, -0.288196, -0.361209, -0.034505, 0.005124, 0.067719, -0.019155, -0.094836, -0.116384, -0.365768, -0.189172, 0.111294, 0.221443, 0.068057, 0.070805, 0.048652, -0.070431, -0.259869, -0.525703, -0.472727, -0.380729, -0.627932, -0.286617, -0.478312, -0.742856, -0.628840, -0.529955, -0.427704, -0.525593, -0.570109, -0.754088, -0.757874, -0.683633, -0.554680, -0.426836, -0.270520, -0.196548, -0.248674, -0.150328, -0.088882, -0.016280, 0.018772, 0.029294, -0.004001, -0.082068, -0.100996, -0.261594, -0.232107, -0.276198, -0.202924, -0.208818, -0.298936, -0.398788, -0.410617, -0.605049, -0.584900, -0.491077, -0.207408, -0.358532, -0.443778, -0.287932, -0.247479, -0.114566, -0.124398, -0.115970, -0.079208, 0.081252, -0.004582, 0.084796, -0.058688, 0.075919, -0.061354, -0.008161, -0.005351, -0.052279, -0.101955, -0.061294, 0.015865, -0.024014, 0.046680, -0.254282, -0.020337, -0.124371, -0.292470, -0.281486, -0.104303, -0.089223, -0.208231, -0.283718, -0.050473, -0.038972, 0.028367, 0.029767, 0.041755, -0.018052, 0.079527, -0.009248, 0.062544},
    {0.042994, 0.046444, -0.078446, -0.006583, -0.029467, -0.057895, 0.033216, 0.085281, -0.059481, 0.028165, -0.075669, 0.004835, -0.143469, -0.081718, -0.020904, -0.004771, -0.056959, 0.059783, 0.058068, -0.001390, -0.037395, 0.006139, -0.032885, 0.045699, -0.044226, 0.064791, 0.068236, 0.085175, -0.028086, 0.030763, 0.058402, -0.062683, -0.078382, -0.063657, -0.171603, -0.214027, -0.013196, -0.223404, -0.207853, -0.291527, -0.356472, -0.330047, -0.017844, 0.140136, 0.284514, 0.055237, -0.310539, -0.276490, -0.319135, -0.112527, -0.123931, -0.034612, 0.036280, -0.044236, 0.016361, -0.039832, 0.014995, -0.044831, 0.019814, -0.057428, -0.005009, 0.041375, -0.006202, -0.026648, -0.069467, 0.112885, -0.088023, 0.104269, 0.093620, 0.058617, -0.027587, 0.118435, 0.078535, -0.107422, -0.204992, -0.289039, -0.209474, -0.105851, -0.260495, -0.091328, 0.182881, 0.162063, 0.045098, 0.086164, 0.024207, -0.079129, 0.123021, -0.171610, -0.068141, -0.030184, 0.032491, 0.081279, 0.192052, 0.283145, 0.401720, 0.373160, 0.284834, 0.281063, 0.210445, 0.059202, 0.115618, 0.042999, -0.215394, -0.214035, -0.292047, -0.227826, -0.353399, -0.510742, 0.001051, 0.136900, -0.119707, 0.040686, 0.021548, 0.012193, -0.119736, -0.297403, -0.180045, 0.098610, 0.185729, 0.052236, 0.148634, 0.238813, 0.156537, 0.204232, 0.167545, 0.101563, 0.242811, 0.197537, 0.112185, 0.094280, 0.001335, -0.184169, -0.067765, -0.175367, -0.479760, -0.449966, -0.310201, -0.037824, -0.255941, -0.107794, 0.034748, 0.048220, -0.168192, -0.156244, -0.014877, 0.002972, -0.050365, 0.124828, 0.062586, 0.079226, 0.208471, 0.250329, 0.121323, 0.080140, 0.220494, 0.110127, 0.149329, 0.164573, 0.118891, -0.047788, 0.016516, -0.002660, -0.043011, -0.265904, -0.445664, -0.291237, -0.211053, -0.111476, -0.038382, -0.105163, -0.079034, -0.179877, 0.092600, 0.056675, 0.070964, 0.214185, 0.027816, 0.071303, 0.049792, 0.013914, 0.099830, 0.074252, 0.052155, 0.163248, 0.134197, 0.043847, 0.077245, -0.050938, 0.007630, 0.000821, -0.109126, -0.377832, -0.394319, -0.413284, -0.191676, -0.085111, 0.066987, -0.270266, 0.146728, -0.016345, 0.219658, 0.118665, 0.173561, 0.092087, 0.081655, 0.049845, -0.008109, 0.081920, -0.003190, 0.088958, 0.016080, 0.010102, -0.061985, -0.123905, -0.024019, -0.088672, -0.106436, -0.066313, 0.052309, -0.323630, -0.614720, -0.237066, -0.417349, -0.119315, -0.007147, -0.146644, 0.085219, 0.000976, 0.257438, 0.168954, 0.027527, -0.024966, -0.012664, 0.111310, 0.173629, 0.066712, -0.039979, 0.040210, 0.099753, 0.114005, 0.019015, -0.018063, -0.095581, 0.116129, 0.004530, 0.022990, -0.068520, -0.118259, -0.691801, -0.668905, -0.469749, -0.167339, 0.059826, -0.194272, -0.067667, -0.095877, 0.136628, 0.201998, 0.024491, 0.020692, -0.107002, 0.163080, 0.101567, 0.091933, 0.003666, -0.033704, 0.107921, 0.098104, 0.077614, 0.082163, -0.024369, 0.070900, -0.055560, -0.017918, -0.117472, -0.091758, -0.750943, -0.755945, -0.109326, -0.241841, -0.017196, -0.037899, -0.013269, -0.033797, 0.071956, 0.124145, 0.029883, -0.159854, 0.028537, -0.145892, -0.200768, -0.256016, -0.216277, -0.315876, -0.120441, -0.102082, -0.016593, 0.112572, 0.018169, -0.087799, -0.004605, -0.108016, -0.076681, -0.241179, -0.523503, -0.173733, 0.025739, -0.021915, -0.017583, -0.054332, -0.292902, -0.371933, -0.165497, 0.043589, -0.284420, -0.265606, -0.443372, -0.458857, -0.416213, -0.415637, -0.563654, -0.677062, -0.587692, -0.286073, -0.188625, -0.095405, -0.159319, 0.103578, 0.010323, -0.035323, -0.090004, -0.207600, -0.168265, 0.247142, 0.020292, -0.149948, -0.054129, -0.040492, -0.025181, -0.341911, -0.391426, -0.370229, -0.684798, -0.735589, -0.607553, -0.578602, -0.532941, -0.515701, -0.430822, -0.466555, -0.529095, -0.378942, -0.316773, -0.190028, -0.073670, -0.030791, -0.083329, -0.032434, -0.217868, -0.269575, 0.038188, 0.344037, 0.329653, 0.080020, -0.026175, -0.020588, -0.105917, -0.261980, -0.585950, -0.652942, -0.678311, -0.525348, -0.361355, -0.315464, -0.244338, -0.127422, -0.149282, -0.117238, -0.097666, -0.226854, -0.197835, -0.205559, -0.108544, -0.109736, 0.024364, -0.136489, -0.186677, -0.228843, 0.266556, 0.555983, 0.356113, 0.176361, -0.014360, -0.124881, -0.137191, -0.182087, -0.466060, -0.511454, -0.266980, -0.236340, -0.198932, -0.118736, -0.033898, -0.003380, -0.012039, 0.099863, -0.051296, -0.131048, -0.040904, -0.174548, -0.109656, -0.010755, -0.109257, -0.167882, -0.138789, -0.039386, 0.092030, 0.403053, 0.439100, 0.184795, -0.094806, -0.123738, -0.077557, 0.073063, 0.114936, 0.034324, 0.033992, -0.079277, 0.038137, 0.005166, -0.045246, 0.080098, 0.144267, 0.203534, 0.051160, 0.041632, -0.082912, -0.040661, -0.055142, 0.016241, -0.183889, -0.120601, -0.118283, -0.133550, 0.364687, 0.468739, 0.418764, 0.141172, 0.077013, -0.211403, 0.012331, 0.152068, 0.222332, 0.241168, 0.210141, 0.003439, -0.127201, 0.025834, 0.139376, 0.143325, 0.194409, 0.246531, 0.084296, 0.013627, 0.081433, 0.035541, 0.081052, -0.021147, 0.072513, 0.172121, 0.137495, 0.073295, 0.278159, 0.656475, 0.606725, 0.072668, 0.028517, -0.141949, 0.010529, 0.177877, 0.309890, 0.234636, 0.226903, 0.104813, 0.042293, 0.096275, 0.158238, 0.209001, 0.288926, 0.256747, 0.041133, 0.104722, 0.060650, 0.009997, -0.017740, 0.015242, -0.006770, 0.163174, 0.111508, 0.168274, 0.280823, 0.661714, 0.434875, 0.352585, -0.076675, -0.064540, -0.125941, 0.001529, 0.221405, 0.249353, 0.163335, 0.201799, 0.111050, 0.089099, 0.182334, 0.164892, 0.320915, 0.149332, 0.071727, -0.026226, 0.100887, 0.166631, 0.121703, -0.029534, -0.080186, 0.072442, 0.164484, 0.189669, 0.439120, 0.521739, 0.300693, 0.205349, 0.053472, -0.097943, -0.128450, -0.160757, 0.203159, 0.045614, 0.156898, 0.256096, 0.160537, 0.200007, 0.104809, 0.218385, 0.170938, 0.216671, 0.083918, 0.112691, 0.062801, 0.103403, 0.038224, 0.036194, 0.062894, 0.142136, 0.300031, 0.264112, 0.302122, 0.547356, 0.320015, 0.045076, 0.056405, -0.151855, 0.090904, 0.024271, 0.154936, 0.146747, 0.112092, 0.198981, 0.163621, 0.247936, 0.146053, 0.166820, 0.117167, -0.001522, 0.073234, -0.038604, 0.123796, 0.029241, 0.034925, 0.236358, 0.136275, 0.178875, 0.118176, 0.203846, 0.268927, 0.281602, 0.130422, 0.048206, -0.034455, 0.063731, 0.082744, 0.041696, 0.131393, 0.001843, 0.148491, 0.119131, 0.029049, 0.236072, 0.092810, 0.141829, 0.013715, 0.049197, -0.080361, -0.026472, 0.053933, 0.224769, 0.198060, 0.223201, 0.059478, 0.093897, 0.156922, 0.364079, 0.176611, 0.203719, 0.116798, -0.014489, -0.115008, -0.178002, 0.058707, 0.130095, 0.108485, 0.033843, 0.119293, 0.198369, 0.160875, 0.203547, 0.164203, 0.191058, 0.020999, 0.010634, -0.021241, -0.059012, -0.030668, 0.042972, 0.184164, 0.217633, 0.251808, 0.087359, 0.211764, 0.138702, 0.180558, 0.234822, 0.009557, 0.048483, -0.064283, 0.074349, -0.090953, 0.027073, 0.064110, -0.076525, 0.051776, -0.016319, 0.022604, 0.059481, -0.036138, 0.005781, -0.005619, -0.009245, -0.071857, -0.135090, -0.086372, -0.029287, 0.225933, 0.201887, 0.166722, 0.239241, 0.296658, 0.152379, 0.219972, 0.194917, -0.020819, -0.021110, -0.081577, -0.028192, -0.195680, -0.500045, -0.443327, -0.451601, -0.333342, -0.324089, -0.196427, -0.230366, -0.132620, -0.126682, -0.028986, -0.059895, 0.072574, -0.052757, -0.114655, 0.014350, 0.066084, -0.029133, -0.020061, 0.102959, 0.047522, -0.067003, 0.335166, 0.284274, 0.223899, -0.071355, -0.012856, 0.048958, -0.012087, -0.288594, -0.327716, -0.642859, -0.245218, -0.457002, -0.532444, -0.701777, -0.552534, -0.470683, -0.366684, -0.291964, -0.147259, -0.074387, -0.107623, -0.186263, -0.273951, -0.376889, -0.379061, -0.312382, -0.363771, -0.407037, -0.206541, 0.152743, 0.156082, 0.031087, 0.050094, -0.056678, -0.002548, -0.055439, -0.074414, -0.113989, -0.210489, -0.350929, -0.278957, -0.306227, -0.244006, -0.407886, -0.369058, -0.521971, -0.345835, -0.372199, -0.436678, -0.498761, -0.577150, -0.501543, -0.447139, -0.437845, -0.360535, -0.187956, 0.030254, -0.089389, -0.011508, -0.023909, 0.018033, 0.074403, -0.049696, 0.062667, -0.064539, -0.079157, 0.017114, -0.106954, -0.045063, -0.037351, -0.146820, -0.194263, -0.177535, -0.110419, -0.069849, -0.055815, -0.149156, -0.021666, -0.156239, -0.105614, -0.219085, -0.139996, -0.231587, -0.125796, -0.004165, 0.075425, 0.062743, 0.015256},
    {-0.017848, 0.079920, -0.031080, -0.029648, 0.011604, -0.037523, 0.034732, -0.084580, -0.023460, 0.012458, 0.067640, 0.015807, -0.063628, -0.091491, -0.070889, 0.022151, -0.079272, 0.061355, 0.030438, -0.060682, 0.016801, 0.004440, 0.063959, 0.079891, -0.012723, -0.044349, -0.060071, 0.057756, 0.086388, 0.027499, -0.039551, -0.006116, 0.059866, 0.053502, -0.081446, -0.017539, 0.034686, 0.014956, -0.126988, -0.098611, -0.071121, -0.022299, -0.112277, -0.136864, -0.243500, -0.078886, -0.077343, -0.125714, -0.108012, -0.074023, 0.017473, -0.026393, -0.010798, 0.071590, 0.061031, -0.025325, 0.007813, -0.069042, -0.022435, 0.024463, 0.021331, -0.050268, -0.083201, -0.180961, -0.285714, -0.294150, -0.077377, 0.019993, -0.036686, -0.004070, -0.103153, -0.210546, -0.191557, -0.086701, -0.152629, -0.258922, -0.251682, -0.316522, -0.184449, -0.160767, 0.009356, 0.003652, -0.038068, -0.037248, 0.073577, -0.038278, -0.023265, 0.002391, -0.239933, 0.167937, 0.235377, 0.024986, 0.120224, 0.014179, 0.063878, 0.100224, 0.251148, 0.086686, 0.207363, 0.189580, 0.062515, 0.234110, 0.133418, 0.067610, 0.133025, -0.245064, -0.506669, -0.381352, -0.325399, -0.097456, -0.030399, 0.065077, -0.008412, -0.059624, 0.036625, 0.238081, 0.245538, 0.334454, 0.311931, 0.276368, 0.227531, 0.287702, 0.211653, 0.258269, 0.231219, 0.229314, 0.172799, 0.195304, 0.099628, 0.083715, 0.068966, 0.107607, -0.151635, -0.260111, -0.211506, -0.614216, -0.429223, -0.103004, -0.102661, -0.045207, 0.018326, -0.035777, 0.088970, 0.227872, 0.299490, 0.291270, 0.226428, 0.189697, 0.067202, 0.067757, 0.123316, 0.061336, 0.095945, 0.120572, 0.010898, 0.107928, 0.111114, -0.039899, 0.073527, 0.013406, -0.074250, -0.115289, -0.276099, -0.384246, -0.361495, -0.300535, -0.206129, -0.144811, -0.026067, 0.103723, -0.046335, 0.362876, 0.181178, 0.201492, 0.239995, 0.121698, 0.076930, 0.144997, 0.201472, 0.133380, 0.073164, 0.130271, 0.141755, 0.090963, 0.152265, 0.042791, 0.089080, -0.018227, 0.042802, -0.046350, -0.253152, -0.324918, -0.345255, -0.620449, -0.251559, -0.113932, -0.089581, 0.277258, -0.197854, 0.163532, 0.288523, 0.229760, 0.158961, 0.118859, 0.008050, 0.102981, 0.014160, 0.025945, 0.146945, 0.011027, 0.226154, 0.104307, 0.017273, 0.137104, -0.008469, 0.075869, 0.000193, -0.166405, -0.093639, -0.361673, -0.723821, -0.488420, -0.252164, -0.125274, 0.075468, -0.113412, -0.044148, 0.104358, 0.265088, 0.170749, 0.033536, 0.070249, -0.017557, 0.003780, 0.054101, -0.006445, -0.028048, 0.051625, 0.109289, 0.157787, 0.088224, 0.103466, 0.110440, 0.069753, 0.063084, 0.050609, 0.112790, -0.371920, -0.951829, -0.611187, -0.192947, -0.109191, -0.016369, -0.052156, 0.065109, 0.189676, 0.346728, 0.109292, 0.089450, 0.096313, -0.071467, -0.036713, -0.210714, -0.241856, -0.238759, -0.066639, 0.110892, 0.256393, 0.220943, 0.164395, 0.145311, 0.193565, 0.212854, 0.193759, 0.089613, -0.200602, -1.036146, -0.630857, -0.263633, -0.174580, -0.026971, -0.178977, -0.091110, 0.276975, 0.170708, -0.103465, 0.002345, -0.059224, -0.306332, -0.323193, -0.367376, -0.478590, -0.395218, -0.058763, 0.171221, 0.184180, 0.124787, 0.159199, 0.161095, 0.166045, 0.192639, 0.004482, 0.137689, -0.147063, -0.963957, -0.459956, -0.168037, -0.005722, -0.103224, -0.117296, 0.034954, 0.210304, 0.068961, -0.091869, -0.307018, -0.422449, -0.397704, -0.340581, -0.419911, -0.226271, -0.051484, 0.031446, 0.135985, 0.091525, 0.041854, 0.094467, 0.121960, 0.097454, 0.106110, -0.155271, -0.096554, -0.303783, -0.642199, -0.410067, -0.205548, -0.015246, -0.128859, -0.210426, -0.317029, -0.055255, -0.083031, -0.282128, -0.408491, -0.329047, -0.331429, -0.124567, -0.103078, -0.135917, 0.023840, 0.108251, 0.089310, 0.087785, 0.110273, 0.055564, 0.072760, -0.017960, -0.175883, -0.354627, -0.436628, -0.427252, -0.506776, -0.022605, -0.013943, -0.062286, -0.042582, -0.232994, -0.239162, -0.070868, -0.160395, -0.298780, -0.298385, -0.311220, -0.266658, -0.177962, -0.224349, -0.053133, -0.016207, 0.134263, 0.201412, -0.007987, 0.034058, 0.056988, 0.083290, -0.196233, -0.263393, -0.406042, -0.450941, -0.347586, -0.219137, -0.384130, -0.118661, 0.036670, -0.100645, 0.068686, -0.027259, 0.062529, -0.000531, -0.270432, -0.402371, -0.346844, -0.260280, -0.168035, -0.139385, -0.099235, 0.095692, 0.072524, 0.069594, 0.005101, -0.068287, -0.019282, -0.033708, -0.025036, -0.138034, -0.096975, -0.293957, -0.202265, -0.121158, -0.281043, -0.151971, 0.035466, -0.130010, 0.062749, 0.170246, 0.032912, 0.093352, -0.114312, -0.170000, -0.318573, -0.313682, -0.196765, -0.226322, -0.010568, 0.100435, 0.085078, 0.093419, 0.046160, -0.011049, -0.080916, -0.005893, 0.120137, 0.092152, 0.112928, 0.036971, -0.025546, 0.174181, -0.568962, 0.005546, -0.146859, -0.004652, 0.103771, 0.165062, 0.231835, 0.189039, -0.026420, -0.193312, -0.228644, -0.305637, -0.318738, -0.198383, -0.152750, 0.037281, 0.082315, -0.062054, -0.110474, -0.188449, -0.032981, 0.073318, 0.177631, 0.146841, 0.095842, 0.232950, 0.172317, 0.169288, -0.456987, -0.286827, -0.074854, -0.004104, 0.101617, 0.094905, 0.442298, 0.328984, 0.069720, -0.057530, -0.141095, -0.147237, -0.426378, -0.424994, -0.366217, -0.315575, -0.211898, -0.283872, -0.120794, 0.027602, 0.091071, 0.133072, 0.184026, 0.018825, 0.166471, 0.150057, 0.090955, -0.146611, -0.577933, -0.287570, -0.184947, -0.183026, -0.013707, 0.107818, 0.452693, 0.310662, 0.224705, 0.183477, -0.177274, -0.119381, -0.244890, -0.478400, -0.375285, -0.322339, -0.336798, -0.329308, -0.011564, 0.133525, 0.226402, 0.116353, 0.119307, 0.093474, 0.233268, 0.226065, 0.042134, -0.479002, -0.671141, -0.306254, -0.247626, 0.041912, -0.017476, 0.010725, 0.294083, 0.199637, 0.289283, 0.120704, 0.127929, -0.037024, -0.092505, -0.184910, -0.238980, -0.357858, -0.154633, -0.078042, 0.036461, 0.129077, 0.223303, 0.200183, 0.204799, 0.020098, 0.116854, 0.088200, 0.024844, -0.247249, -0.474127, -0.248292, -0.158114, 0.048636, -0.040966, -0.054562, 0.336725, 0.240353, 0.221579, 0.168655, 0.096731, 0.174957, 0.033192, -0.034637, -0.201096, -0.182217, -0.178747, 0.060363, -0.029591, 0.048242, 0.189711, 0.175018, 0.143201, 0.091037, 0.111303, -0.028010, -0.127628, -0.213020, -0.342820, -0.096451, -0.071613, -0.151485, 0.078047, 0.145498, 0.210849, 0.321312, 0.102314, 0.214930, 0.092104, 0.069780, -0.010986, -0.029300, -0.131727, -0.122081, -0.054651, -0.034993, 0.109726, 0.133091, 0.044928, 0.126547, 0.152816, 0.037568, -0.019118, -0.145328, -0.153286, -0.602461, -0.376909, -0.059001, 0.057788, -0.124356, 0.098874, 0.199440, 0.217362, 0.132609, 0.032763, 0.173015, 0.041677, -0.009277, 0.126697, 0.015288, -0.000926, -0.021799, -0.061554, -0.016644, 0.017705, 0.064449, 0.038540, 0.038380, 0.182263, -0.021815, -0.167852, -0.038742, -0.319488, -0.473167, -0.230323, 0.063036, -0.083247, -0.004271, 0.056117, 0.261316, 0.436507, 0.356965, 0.184685, 0.132784, 0.137933, 0.114923, 0.027808, 0.080870, 0.108636, 0.035746, 0.046684, -0.015111, 0.006980, -0.040496, 0.091881, 0.094794, -0.032339, -0.064951, -0.179606, -0.274485, -0.466680, -0.158626, -0.236274, 0.133712, -0.068204, -0.041295, -0.075634, 0.095719, 0.249303, 0.451153, 0.338144, 0.322549, 0.308815, 0.182225, 0.214247, 0.286431, 0.242288, 0.137100, 0.197318, 0.135936, 0.096706, 0.035868, 0.047887, -0.119509, -0.242397, -0.123228, -0.193495, -0.124139, -0.238148, -0.218962, -0.114667, -0.047712, -0.030668, 0.018488, -0.052951, 0.137098, -0.140955, 0.119696, 0.151406, 0.302201, 0.479585, 0.462026, 0.398005, 0.489937, 0.369771, 0.380188, 0.413314, 0.232883, 0.042255, 0.087836, -0.009297, 0.068148, 0.146303, -0.038537, -0.133009, -0.027163, -0.275329, -0.134468, -0.091845, -0.053921, -0.067317, 0.040551, -0.023298, -0.045816, -0.121740, -0.155182, 0.137536, 0.130836, 0.170187, 0.049057, -0.045077, 0.018683, -0.021570, 0.011420, -0.016760, -0.024200, -0.097679, 0.002792, -0.029634, -0.010203, 0.014741, -0.001433, 0.004783, -0.059262, -0.152424, -0.013282, -0.042518, -0.061231, -0.050004, -0.000648, 0.025679, -0.067338, 0.056859, 0.020738, -0.021469, -0.114309, -0.081568, -0.123754, -0.170334, -0.300766, -0.298085, -0.251802, -0.230478, -0.293217, -0.179292, -0.235205, -0.245416, -0.225379, -0.233597, -0.155008, -0.151812, -0.114181, -0.061654, 0.056768, -0.047661, -0.005899, -0.023875},
    {0.056512, -0.085959, -0.020477, 0.039282, -0.022361, 0.003749, 0.082204, -0.073282, 0.000402, 0.067938, -0.010007, 0.042853, -0.138937, -0.236639, 0.039365, 0.056490, -0.018889, 0.032568, 0.017219, 0.076552, -0.055795, 0.024466, -0.007308, -0.045799, 0.011880, -0.079827, 0.020543, -0.028696, 0.006560, 0.002895, 0.056656, 0.063131, -0.062887, -0.066767, -0.344012, -0.259871, -0.312896, -0.367833, -0.314647, -0.457014, -0.440494, -0.416216, -0.368869, -0.422160, -0.536057, -0.327107, -0.261892, -0.321949, -0.268088, -0.180905, -0.170879, -0.150571, -0.000866, 0.075623, 0.070267, 0.083932, -0.008084, -0.059603, -0.000495, -0.266413, -0.157012, -0.168730, -0.253376, -0.396086, -0.600635, -0.501794, -0.594577, -0.667203, -0.695113, -0.492707, -0.462450, -0.511744, -0.587050, -0.485679, -0.560732, -0.417205, -0.382637, -0.209921, -0.200524, -0.274518, -0.211962, -0.031240, 0.034708, -0.052664, -0.021211, 0.057370, -0.115518, -0.240334, -0.149556, -0.278847, -0.331811, -0.207382, -0.409924, -0.652004, -0.656820, -0.638288, -0.633864, -0.908129, -0.631009, -0.419705, -0.346709, -0.235787, -0.349607, -0.089835, -0.004174, 0.146347, 0.253076, -0.099493, -0.381679, -0.021541, -0.131517, 0.066160, -0.079262, 0.029727, -0.090006, -0.269241, 0.034023, 0.079383, -0.261699, -0.191410, -0.324422, -0.325635, -0.458979, -0.426548, -0.288916, -0.229139, -0.303090, -0.255777, -0.195937, -0.111368, -0.072959, 0.056281, 0.185554, 0.181981, 0.307810, 0.288912, 0.219988, -0.060507, -0.122722, -0.173183, 0.056483, -0.014981, -0.155021, 0.118405, 0.063535, 0.141442, -0.039915, -0.106867, -0.061818, -0.024139, -0.177378, -0.113167, -0.170218, -0.181080, -0.107097, -0.048658, 0.052438, 0.054125, 0.097111, 0.103019, 0.081399, 0.027808, 0.250514, 0.325520, 0.089544, -0.124553, -0.259201, -0.136417, 0.028680, -0.066590, -0.244154, 0.009022, 0.113466, 0.171512, 0.095355, 0.056138, 0.037849, -0.007069, -0.079844, -0.220975, -0.282571, -0.364961, -0.306556, -0.323942, -0.337930, -0.263838, -0.168511, -0.153277, -0.098512, -0.066042, 0.114654, 0.287248, 0.112074, -0.145810, 0.056690, -0.126907, 0.001839, -0.174279, -0.260509, 0.090937, 0.016124, 0.167393, -0.000173, -0.010697, -0.136434, -0.029383, -0.163940, -0.253502, -0.312204, -0.280136, -0.447339, -0.444812, -0.388375, -0.220311, -0.245967, -0.162682, -0.055365, -0.059772, 0.114832, 0.118371, 0.088894, -0.171378, -0.004355, -0.367037, 0.037574, -0.097864, -0.057872, -0.056042, -0.003075, 0.077643, -0.027276, -0.053765, -0.119577, -0.085016, -0.143369, -0.156209, -0.307254, -0.183749, -0.417318, -0.346851, -0.372517, -0.187042, -0.152692, -0.049147, -0.134315, -0.082200, -0.013626, -0.057612, -0.104964, -0.087250, -0.086259, -0.164327, 0.062945, -0.109101, -0.007422, -0.327178, -0.258355, -0.087045, -0.208171, -0.036699, -0.037071, 0.024160, -0.043777, -0.076752, -0.050417, -0.195040, -0.441936, -0.342730, -0.145075, -0.006642, 0.012280, -0.001594, -0.016169, -0.044690, -0.093040, -0.225621, -0.341412, -0.441668, -0.278448, -0.302272, -0.018089, -0.098386, -0.309105, -0.407259, -0.186494, -0.183567, -0.229616, -0.008920, -0.069919, 0.080871, 0.026903, 0.080341, 0.080702, -0.310331, -0.674573, -0.247171, -0.023582, 0.034253, -0.083810, -0.046192, -0.088173, 0.012549, -0.194176, -0.310876, -0.484703, -0.544308, -0.572110, -0.219850, -0.097224, -0.210470, -0.378402, -0.181367, -0.315416, -0.100720, -0.080691, 0.073182, 0.129621, 0.183126, 0.198622, 0.222766, 0.318637, -0.394822, -0.570933, -0.042604, 0.239605, 0.151075, 0.007380, -0.040712, -0.093610, -0.115991, -0.142539, -0.380037, -0.619795, -0.373486, -0.383914, -0.044749, 0.025909, -0.255676, -0.380058, -0.124800, -0.247504, -0.087281, 0.040229, 0.125924, 0.304804, 0.235240, 0.332053, 0.410630, 0.394577, -0.087330, -0.387908, 0.052620, 0.285984, 0.129986, 0.108488, 0.038666, 0.026095, 0.061039, -0.064988, -0.310805, -0.220333, -0.145872, -0.157834, -0.103259, -0.026536, -0.105713, -0.278654, -0.136895, -0.102349, 0.027895, 0.267808, 0.283125, 0.227962, 0.272199, 0.376648, 0.585670, 0.269886, -0.118771, -0.138974, 0.232804, 0.199597, 0.221432, 0.135616, 0.126827, 0.224197, 0.119342, 0.093175, -0.134522, -0.182879, -0.197843, -0.114038, -0.122013, -0.030450, -0.102810, -0.164842, 0.069737, 0.241543, 0.294698, 0.235724, 0.227626, 0.278424, 0.239631, 0.201021, 0.392889, 0.277047, -0.086545, -0.069345, 0.133287, 0.367030, 0.409968, 0.221865, 0.323483, 0.100478, 0.098514, 0.121642, -0.158900, -0.246030, -0.132892, -0.436521, -0.231611, -0.019378, -0.053218, 0.055017, 0.001135, 0.243409, 0.120810, 0.167970, 0.171558, 0.275990, 0.243979, 0.228291, 0.119739, 0.033287, -0.042635, 0.067531, 0.197163, 0.370064, 0.279348, 0.184969, 0.118110, 0.021533, 0.024075, 0.008012, -0.036124, -0.526814, -0.391241, -0.071103, -0.170193, -0.117874, -0.069905, -0.041562, -0.273909, -0.320213, -0.150499, 0.084460, 0.164693, 0.282613, 0.192579, 0.074004, 0.098625, -0.031070, 0.083205, 0.178306, 0.409442, 0.366792, 0.192920, 0.063064, 0.076357, 0.138786, 0.000991, -0.095091, -0.173980, -0.290415, -0.446314, -0.248917, -0.246617, 0.083674, 0.015237, -0.197464, -0.434236, -0.298966, -0.153624, -0.099853, 0.166019, 0.142426, 0.058779, -0.110249, 0.036466, 0.022572, 0.198990, 0.336298, 0.373266, 0.327692, 0.148176, 0.128716, -0.067034, 0.007472, -0.034888, -0.135589, -0.262913, -0.291402, -0.559758, -0.364533, -0.175233, -0.125271, -0.044184, -0.087898, -0.333231, -0.233441, -0.150550, -0.118710, -0.157882, 0.060876, -0.060581, -0.204584, -0.172516, 0.084139, 0.221473, 0.222232, 0.146638, 0.183849, -0.123050, -0.055561, -0.067952, 0.025411, 0.045110, -0.285486, -0.294274, -0.317618, -0.689000, -0.123910, -0.072834, 0.040083, -0.185498, -0.056117, -0.052764, -0.173063, -0.130116, -0.213044, -0.304254, -0.329878, -0.301724, -0.430697, -0.279006, -0.258885, -0.106254, 0.058182, 0.100531, -0.033290, -0.146396, -0.161973, -0.204517, -0.231877, -0.164085, -0.415314, -0.388849, -0.479019, -0.591594, -0.282489, -0.081485, 0.008512, -0.116584, -0.081908, -0.172404, -0.074048, -0.125921, -0.205267, -0.301566, -0.460087, -0.367089, -0.375647, -0.290587, -0.243429, -0.288275, -0.027060, -0.060931, 0.069546, 0.062088, -0.140234, -0.138507, -0.177518, -0.203377, -0.304749, -0.330569, -0.282784, -0.294278, -0.141323, -0.009063, -0.024130, -0.087427, -0.151234, -0.283760, -0.279774, -0.202226, -0.411653, -0.484848, -0.267566, -0.289123, -0.244697, -0.203680, -0.104960, -0.242027, -0.164091, -0.013889, -0.110541, -0.014270, -0.129421, 0.056754, -0.088475, -0.006847, -0.113275, -0.108535, -0.174729, -0.219857, -0.207150, -0.058280, -0.038138, 0.069542, -0.087137, -0.336178, -0.322824, -0.513151, -0.361932, -0.266201, -0.139421, -0.220299, -0.152933, -0.087548, -0.178525, -0.140093, -0.169414, -0.037351, -0.133835, 0.062255, 0.020365, 0.065507, 0.111091, 0.157047, 0.062486, -0.051435, -0.059307, -0.122258, -0.158558, -0.086625, 0.029956, -0.085262, -0.107574, -0.154720, -0.505715, -0.503547, -0.101012, -0.077518, -0.092792, 0.020185, -0.020848, -0.091485, -0.154135, -0.084189, -0.102942, -0.069780, -0.036746, -0.012826, 0.164043, 0.137023, 0.167632, 0.164484, -0.079791, -0.232195, -0.244937, -0.198231, -0.033779, -0.047712, -0.026509, -0.064362, -0.052973, -0.245279, -0.436533, -0.028853, 0.049895, -0.031969, -0.094562, -0.040449, 0.027091, -0.011748, -0.153846, -0.157372, -0.089392, -0.142881, -0.011240, -0.081833, -0.009874, 0.030961, -0.022576, -0.046903, 0.075478, -0.082853, -0.322951, 0.177592, -0.056851, 0.027434, 0.059738, -0.015161, -0.125849, -0.103838, -0.381250, -0.493367, -0.167419, -0.356896, -0.370592, -0.251341, -0.270674, -0.286397, -0.475019, -0.252604, -0.353176, -0.264491, -0.346545, -0.442288, -0.320247, -0.423618, -0.298810, -0.349008, -0.231446, 0.014128, -0.112626, -0.183622, -0.003632, -0.045741, 0.003220, 0.017885, -0.043362, -0.047469, -0.149266, -0.238146, -0.422614, -0.603287, -0.524219, -0.693861, -0.619363, -0.771032, -0.650458, -0.804104, -0.885752, -0.717299, -0.730135, -0.697913, -0.819669, -0.553268, -0.537138, -0.494678, -0.371190, -0.109246, 0.167737, 0.005710, -0.072771, -0.043707, 0.064910, 0.053905, 0.070487, 0.068118, 0.004527, 0.029943, -0.257769, -0.131100, -0.332873, -0.259094, -0.260006, -0.326815, -0.365263, -0.268504, -0.487656, -0.248991, -0.284084, -0.278571, -0.406867, -0.158647, -0.140619, -0.214705, -0.265331, -0.092375, 0.034486, 0.006390, 0.074524, -0.033412},
    {-0.055194, -0.010374, -0.019719, -0.070742, 0.035427, 0.079880, 0.029054, 0.008676, -0.057366, -0.030438, -0.012710, 0.056011, -0.059641, -0.174168, 0.061354, -0.087414, 0.002146, -0.014807, -0.060066, -0.053138, 0.083055, 0.028028, 0.032636, -0.075839, 0.000764, 0.034829, -0.054533, -0.015087, -0.060722, 0.019367, -0.021028, -0.076994, 0.072338, -0.056102, -0.001388, 0.049700, -0.066790, -0.020375, -0.078426, -0.073594, -0.088311, -0.237404, -0.295068, -0.290416, -0.182699, -0.079803, -0.109643, -0.221853, -0.272617, -0.149926, -0.090896, -0.023392, -0.042953, 0.078717, -0.049870, -0.062616, -0.036252, -0.046707, -0.102952, -0.059110, -0.078805, -0.074825, -0.027140, -0.125998, -0.140924, -0.214045, -0.227084, -0.269090, -0.379380, -0.581686, -0.684424, -0.316451, -0.066522, -0.039708, 0.031914, -0.063414, -0.144006, -0.254931, -0.145667, -0.102777, -0.393856, -0.215895, -0.052233, 0.072857, -0.070981, -0.033906, -0.003411, -0.133487, -0.089994, -0.282918, -0.238328, -0.306462, -0.138937, -0.152029, -0.214311, -0.283472, -0.233666, -0.140312, -0.092773, 0.029651, -0.059505, 0.041046, 0.105282, 0.217772, 0.126398, 0.077305, 0.106803, 0.116131, 0.033684, 0.177872, 0.116099, -0.032585, -0.079345, -0.007100, -0.187747, -0.216504, -0.298998, -0.317412, -0.235659, -0.172112, -0.241995, -0.288614, -0.121483, -0.054066, -0.068065, -0.162633, -0.067095, 0.117744, 0.089678, 0.048539, 0.144396, -0.019676, -0.015826, -0.004120, 0.091446, 0.158653, 0.320748, 0.251614, 0.077200, -0.312608, -0.074128, -0.083487, -0.231377, -0.251337, -0.539640, -0.377314, -0.293681, -0.263795, -0.102952, -0.072259, -0.003666, -0.045771, -0.017541, -0.074559, -0.024757, -0.071610, 0.030793, 0.096164, 0.112738, 0.080880, 0.030740, 0.077562, 0.150933, 0.223855, 0.334015, 0.206916, 0.128449, 0.052059, 0.068285, -0.089775, 0.005322, -0.542198, -0.369962, -0.195638, -0.148553, -0.033717, -0.081063, 0.074682, 0.012649, 0.073402, -0.038600, -0.010344, 0.047551, -0.010731, -0.076538, 0.124824, 0.061015, 0.199015, 0.144532, 0.038502, 0.152789, 0.256680, 0.445631, 0.447193, 0.258486, 0.164925, -0.035186, -0.151008, -0.152233, -0.544372, -0.483226, -0.308591, -0.121451, -0.084554, 0.117265, 0.111469, 0.142963, 0.139900, 0.137305, -0.027769, 0.026482, -0.156426, 0.008769, 0.098813, -0.003585, 0.066286, 0.084701, 0.195737, 0.102734, 0.246600, 0.530108, 0.581283, 0.257389, 0.132112, 0.007673, -0.185397, -0.299179, -0.614069, -0.674941, -0.407752, -0.284457, -0.081423, -0.008107, 0.002872, 0.004264, 0.062608, 0.011343, -0.084595, -0.134779, -0.179701, -0.114937, -0.110442, 0.028304, 0.070906, 0.128804, 0.151722, 0.215443, 0.376646, 0.637208, 0.574603, 0.275705, 0.097304, 0.025295, -0.197113, -0.216612, -0.532391, -0.517740, -0.359813, -0.097047, 0.058092, 0.085150, 0.070988, 0.100774, 0.219314, 0.138814, 0.043063, -0.116438, -0.336705, -0.284241, -0.221771, -0.067884, -0.102696, 0.076638, 0.196155, 0.252378, 0.401691, 0.883723, 0.808288, 0.478024, 0.149863, -0.039165, -0.110823, -0.212046, -0.466952, -0.192034, -0.093731, -0.061908, 0.047616, 0.244259, 0.262701, 0.224780, 0.269005, 0.196588, 0.205058, -0.058792, -0.103841, -0.198755, -0.376750, -0.289992, -0.213503, -0.224239, -0.071086, -0.001278, 0.444552, 0.966342, 1.089181, 0.694952, 0.078949, 0.015754, -0.075939, -0.090493, -0.391259, -0.087409, -0.101778, 0.195162, 0.031746, 0.255242, 0.052761, 0.108219, 0.285019, 0.251942, 0.344854, 0.030618, -0.199599, -0.124882, -0.225339, -0.260449, -0.321676, -0.441580, -0.503368, -0.536807, -0.183124, 0.272596, 0.885119, 0.473491, -0.016200, -0.041649, -0.108255, -0.286649, -0.136275, 0.113739, 0.059077, 0.119643, 0.043393, 0.020212, 0.008599, 0.095352, 0.245807, 0.279798, 0.231923, -0.011549, -0.221498, -0.296751, -0.304439, -0.223856, -0.325270, -0.377998, -0.529111, -0.828016, -0.948135, -0.874108, -0.034529, 0.155147, -0.063409, -0.058632, -0.046527, -0.198673, -0.044740, 0.010068, 0.147221, 0.111419, 0.103138, -0.003085, 0.066618, 0.216515, 0.277957, 0.242027, 0.234025, 0.021344, -0.315408, -0.299453, -0.301474, -0.188622, -0.184034, -0.115407, -0.248950, -0.506637, -0.629252, -0.898160, -0.278910, 0.017645, -0.164984, 0.239277, -0.186916, -0.236194, 0.010488, 0.012529, -0.051470, -0.090204, -0.050613, -0.033426, 0.134026, 0.139870, 0.106517, 0.174817, 0.037905, -0.071426, -0.311972, -0.291454, -0.226255, -0.153722, -0.202882, -0.057481, -0.134127, -0.145525, -0.212022, -0.271091, -0.390275, -0.292802, 0.049469, 0.137338, -0.092515, -0.381690, -0.027987, -0.084559, -0.141903, -0.107864, -0.245371, -0.066366, 0.022486, 0.106067, 0.133849, 0.125830, -0.091355, -0.182357, -0.214053, -0.180536, -0.211711, -0.050525, -0.007156, -0.047111, -0.057758, -0.105901, 0.065518, 0.068514, -0.337656, -0.466001, -0.159371, -0.112927, -0.146465, -0.269653, 0.048023, -0.092947, -0.136157, -0.253409, -0.414377, -0.283382, -0.207526, -0.153260, -0.127802, -0.099363, -0.172335, -0.329110, -0.140420, -0.278411, -0.132023, -0.073767, 0.044853, 0.041270, 0.033555, 0.067565, 0.112394, 0.052283, -0.404691, -0.570966, 0.025682, 0.084402, -0.032103, -0.327879, 0.070003, 0.080924, 0.209205, 0.109336, -0.209785, -0.304293, -0.380161, -0.368267, -0.312040, -0.382867, -0.308488, -0.251276, -0.090071, -0.003879, 0.023035, 0.109845, -0.031055, 0.077396, 0.005226, -0.056705, 0.055619, 0.225648, -0.231865, -0.542868, -0.267020, -0.132873, -0.004642, -0.226435, 0.046727, 0.122646, 0.287198, 0.331020, 0.102565, -0.123526, -0.275149, -0.231755, -0.261470, -0.243985, -0.076200, -0.010335, 0.026929, 0.067260, 0.059930, 0.074181, 0.041402, 0.067273, 0.059979, 0.056642, 0.136346, 0.123046, -0.171173, -0.287928, -0.334758, -0.017918, -0.065206, 0.134982, 0.108267, 0.093484, 0.184022, 0.206647, 0.239975, 0.178000, 0.067961, 0.023657, 0.046163, -0.024924, 0.027598, 0.054604, -0.036348, 0.044577, -0.080177, 0.086945, 0.012363, 0.146502, 0.062043, 0.057979, 0.107900, 0.021609, -0.158657, -0.216058, -0.142447, 0.020908, -0.184033, 0.041052, 0.095575, 0.030084, 0.132834, 0.069615, 0.021996, 0.255089, 0.096172, 0.021992, 0.112477, -0.069596, -0.028760, -0.030794, -0.013558, 0.094082, 0.119961, 0.066595, -0.010247, -0.035629, 0.041625, 0.288366, 0.066678, -0.027237, -0.053353, -0.112670, 0.086443, -0.095403, -0.165786, -0.373180, 0.015750, 0.103915, 0.046032, 0.079247, 0.017386, 0.098789, 0.106063, 0.106700, 0.125078, 0.081998, 0.075346, 0.013795, 0.071654, 0.100042, 0.072281, 0.047988, 0.098479, 0.054553, 0.171144, 0.180897, 0.197823, -0.097842, -0.119203, -0.128275, 0.009378, -0.039958, -0.122229, -0.295488, -0.133877, 0.120677, -0.105609, -0.108357, -0.000243, -0.022369, 0.059589, -0.011430, 0.082539, 0.137828, 0.198202, 0.129755, 0.089639, 0.121691, 0.061061, 0.118562, 0.086913, 0.150712, -0.005655, 0.100755, 0.237951, -0.035632, -0.035105, -0.144851, -0.106589, -0.085246, 0.084592, 0.025750, 0.001039, 0.124104, 0.123555, 0.035362, -0.106908, 0.030099, 0.061115, 0.128287, 0.158791, 0.148095, 0.112656, 0.133443, 0.004032, 0.107594, 0.010176, -0.128984, -0.072007, 0.028356, -0.021635, 0.157842, 0.210072, 0.119196, -0.065236, -0.121119, -0.030396, -0.024692, -0.052637, -0.219568, 0.061343, -0.010598, 0.013326, -0.179694, -0.089079, 0.017129, 0.142227, 0.176955, 0.146639, 0.105754, 0.248615, 0.135303, 0.116335, 0.068551, 0.088517, 0.114425, 0.054448, 0.097679, 0.044855, 0.165773, 0.231185, 0.071176, -0.334891, -0.231398, -0.007441, -0.048368, -0.073119, -0.053561, 0.203374, 0.150168, -0.004743, -0.050778, -0.243758, -0.033810, 0.092512, 0.003912, 0.094389, 0.108535, 0.200548, 0.064571, 0.233975, 0.147155, 0.204797, 0.070861, -0.030470, -0.100009, 0.127743, 0.251643, 0.179648, 0.213227, -0.018414, -0.058367, -0.039365, 0.019812, -0.073393, 0.034046, 0.003306, -0.117950, -0.377966, -0.288344, -0.544170, -0.285564, -0.108743, 0.006686, 0.055064, 0.093057, -0.065373, -0.179506, 0.120704, 0.017312, -0.087962, -0.129324, -0.116664, 0.036286, 0.123335, 0.177486, -0.051074, -0.009789, 0.014644, -0.004262, -0.072271, -0.017372, 0.000847, 0.036971, -0.019905, 0.050171, -0.005098, -0.090196, -0.031820, -0.234706, -0.072518, -0.216939, -0.225232, -0.260203, -0.218759, -0.318183, -0.267404, -0.268110, -0.363867, -0.359602, -0.310941, -0.226862, -0.345209, -0.281231, -0.150665, 0.018053, -0.058241, 0.066963, 0.081701},
    {-0.037345, 0.007395, -0.020326, 0.015443, -0.023723, -0.074547, 0.013481, 0.084232, -0.043193, 0.011806, -0.018821, -0.015712, 0.169606, 0.035301, -0.108229, -0.052459, 0.083833, 0.075313, 0.019711, -0.030988, 0.076719, 0.062352, -0.033061, 0.019848, -0.041596, -0.038145, 0.043772, -0.048181, -0.002902, -0.028709, 0.076038, -0.080341, 0.156201, 0.106443, 0.279889, 0.372110, 0.311609, 0.294878, 0.311952, 0.155828, 0.287192, 0.303741, 0.182476, 0.159145, -0.091312, 0.255618, 0.193625, 0.158215, 0.156066, 0.108798, 0.136111, 0.252057, -0.043022, 0.074007, 0.082384, -0.032285, -0.036990, -0.047536, 0.115400, -0.059028, 0.085653, 0.028829, 0.314359, 0.428763, 0.313803, 0.263417, 0.395565, 0.415538, 0.256924, 0.233087, 0.306366, 0.179524, 0.154263, 0.192044, 0.242767, 0.271572, 0.216639, 0.273622, 0.235759, 0.177928, 0.005220, -0.143822, -0.025101, 0.034823, -0.062625, -0.049902, 0.118089, 0.138181, 0.121385, 0.189697, 0.301669, 0.333932, 0.150541, 0.165141, 0.227123, 0.124076, 0.192214, 0.142380, 0.210873, 0.155504, 0.084273, 0.131690, 0.296850, 0.226371, 0.152235, 0.258004, 0.309145, 0.231085, 0.178171, -0.083935, 0.042224, 0.072021, -0.052523, -0.057388, -0.043541, 0.023544, 0.162245, 0.115990, 0.176544, -0.002414, 0.025926, 0.054840, 0.058509, -0.101283, -0.148629, -0.114311, 0.036098, -0.027293, 0.108229, 0.078850, 0.063537, 0.256538, 0.221069, 0.261569, 0.273652, 0.327247, -0.001325, -0.012668, -0.114799, 0.188736, 0.044213, 0.076588, 0.141010, -0.184775, 0.046683, -0.170653, -0.103181, -0.045388, 0.079071, -0.106662, -0.008948, -0.244947, -0.143631, -0.161154, -0.048409, -0.135073, -0.041850, 0.027241, 0.118356, 0.204999, 0.204852, 0.210628, 0.233335, 0.215159, 0.140865, 0.047807, 0.036044, 0.118475, 0.044285, -0.027930, -0.068537, -0.358357, -0.094839, -0.054599, -0.059574, -0.054278, -0.122825, -0.053223, -0.152900, -0.206123, -0.134934, -0.070965, -0.120902, -0.111637, -0.140541, -0.207509, -0.060552, -0.146468, -0.057389, 0.063521, 0.056891, 0.078398, 0.049001, -0.028067, -0.077497, 0.085427, 0.037729, 0.055839, -0.230420, -0.336313, -0.064888, -0.070399, -0.222667, -0.089976, -0.022243, -0.148022, -0.120683, -0.161061, -0.105527, -0.257765, -0.103615, -0.119666, -0.158255, -0.276533, -0.257349, -0.329817, -0.119813, -0.169253, -0.146304, -0.304903, -0.034463, -0.149165, -0.043197, 0.118744, -0.079275, -0.066248, -0.145264, -0.285817, 0.058412, -0.088228, -0.161802, -0.125194, -0.230043, -0.100511, -0.109581, -0.123407, -0.177041, -0.204862, -0.261393, -0.251641, -0.220337, -0.313826, -0.462677, -0.402670, -0.291427, -0.126755, -0.216863, -0.407080, -0.455039, -0.705485, -0.355889, -0.267343, -0.082353, -0.047469, -0.169009, -0.253873, -0.114800, -0.290035, -0.256633, -0.142358, -0.073538, -0.075562, -0.145099, -0.135935, -0.128189, -0.130582, -0.143419, -0.354301, -0.401814, -0.395286, -0.457818, -0.341754, -0.320283, -0.170629, -0.336446, -0.330377, -0.430815, -0.797375, -0.663919, -0.280928, -0.032278, -0.042851, -0.164188, -0.426575, -0.160515, -0.198080, -0.193223, 0.017077, -0.085478, -0.043143, -0.059516, -0.112574, -0.179223, -0.093014, -0.268417, -0.412001, -0.393477, -0.433657, -0.440175, -0.305595, -0.133969, -0.206804, -0.276687, -0.121972, -0.262397, -0.749286, -0.592367, -0.196534, 0.011047, 0.051447, -0.121372, -0.433481, -0.137023, -0.066963, -0.016826, 0.049315, 0.057983, 0.001870, -0.035639, -0.038862, -0.027819, 0.074283, -0.275991, -0.405063, -0.378234, -0.259772, -0.270200, -0.140881, -0.145651, 0.013784, 0.062104, 0.186923, -0.003942, -0.453295, -0.575324, -0.031131, 0.021054, 0.039735, 0.009486, -0.278098, -0.087299, 0.049718, 0.107951, 0.205684, 0.056425, 0.198606, 0.016207, 0.139208, 0.120963, 0.065171, -0.304247, -0.223786, -0.156292, -0.059154, -0.103108, -0.237586, -0.098556, 0.140457, 0.200638, 0.467173, 0.218103, -0.345574, -0.498127, -0.132342, 0.042201, -0.139964, -0.101217, -0.344451, -0.144311, 0.051924, 0.208150, 0.123406, -0.004597, 0.163250, 0.100805, 0.118273, 0.209295, -0.100644, -0.166868, -0.000491, 0.048940, -0.105495, -0.198823, -0.050907, -0.069555, 0.180789, 0.193404, 0.522731, 0.273995, -0.180826, -0.407916, -0.148600, -0.055388, 0.032293, -0.109264, -0.370657, -0.567632, 0.132629, 0.207527, -0.006410, 0.027966, 0.082175, 0.215798, 0.277292, 0.139243, -0.068634, -0.058336, 0.091984, 0.038751, -0.139028, -0.117591, -0.073271, 0.026399, 0.104050, 0.169027, 0.361311, 0.193721, -0.125063, -0.446211, -0.146337, -0.020180, -0.076166, -0.156759, -0.415742, -0.513920, 0.041623, 0.040481, 0.079648, 0.160107, 0.092612, 0.289372, 0.284761, 0.150678, 0.011503, 0.152237, 0.089417, -0.040645, -0.137000, -0.056732, -0.054313, 0.097905, 0.134761, 0.098036, 0.062066, 0.023586, -0.107380, -0.409903, -0.277351, -0.056635, -0.104581, -0.044608, -0.448254, -0.390015, 0.029294, 0.084364, 0.146396, 0.205321, 0.162288, 0.347235, 0.377717, 0.058350, -0.015312, 0.066881, 0.081358, -0.069882, -0.127569, 0.037545, 0.077399, 0.016665, -0.036146, 0.087124, -0.021615, -0.003431, -0.007626, -0.512937, -0.141989, -0.073849, -0.081667, -0.129899, -0.421297, -0.553028, -0.183798, -0.083982, 0.157964, 0.116096, 0.294674, 0.304525, 0.412051, 0.226902, -0.021881, 0.025080, -0.097123, -0.082864, -0.053001, 0.122730, 0.088535, 0.012782, -0.033918, 0.090080, -0.090430, -0.037642, -0.108630, -0.514330, -0.246486, 0.045062, 0.026574, -0.087553, -0.287180, -0.604551, -0.369995, -0.163626, -0.032422, 0.086772, 0.166041, 0.249496, 0.335490, 0.328479, 0.187465, 0.014902, 0.061292, 0.079955, 0.100365, 0.166570, 0.033405, 0.043619, -0.011765, -0.007027, -0.119855, -0.088141, -0.143514, -0.402025, -0.269244, -0.037620, -0.068485, -0.108736, -0.341194, -0.336907, -0.324817, -0.257064, -0.045186, 0.050832, 0.129010, 0.297006, 0.330534, 0.279069, 0.203691, 0.092412, 0.181041, 0.188084, 0.188882, 0.033947, -0.007855, -0.005708, 0.053459, 0.005756, -0.059856, -0.166639, -0.237028, -0.304795, -0.199749, 0.075490, -0.133918, -0.199387, -0.385326, -0.453385, -0.348941, -0.260279, -0.103546, -0.066293, 0.100767, 0.229559, 0.302035, 0.294030, 0.249590, 0.391564, 0.201987, 0.159376, 0.099804, 0.164623, 0.035166, 0.126024, -0.011881, 0.009851, -0.045338, -0.255303, -0.137758, -0.164101, -0.014958, -0.099702, -0.082458, -0.117593, -0.245815, -0.474323, -0.370115, -0.359739, -0.132958, -0.055956, 0.073862, 0.043117, 0.318596, 0.398797, 0.394065, 0.297336, 0.298440, 0.207650, 0.217839, 0.139713, 0.052476, -0.108204, -0.188483, -0.037093, -0.244972, -0.303387, -0.243769, -0.024180, -0.002154, -0.038966, -0.079449, -0.133085, -0.097865, -0.360127, -0.535240, -0.601312, -0.319466, -0.097813, -0.129896, 0.049479, -0.017579, 0.040480, 0.148769, 0.135288, 0.048905, 0.026529, 0.051851, -0.132921, -0.071408, -0.033280, 0.031371, -0.262646, -0.444252, -0.435106, -0.233643, 0.090672, -0.002345, -0.083447, 0.014141, -0.013567, -0.089263, -0.164188, -0.313364, -0.419239, -0.421435, -0.358702, -0.253547, -0.270561, -0.208186, -0.167377, -0.066671, -0.121108, -0.102649, -0.122556, -0.197724, -0.046870, -0.031770, 0.035429, -0.269545, -0.395525, -0.474946, -0.283051, -0.243608, -0.106246, 0.039985, -0.058340, -0.069331, 0.023012, -0.015413, -0.072884, -0.170651, -0.208067, -0.284430, -0.356688, -0.403371, -0.393204, -0.512131, -0.354718, -0.490577, -0.370175, -0.329330, -0.317468, -0.326117, -0.302445, -0.292052, -0.295631, -0.453059, -0.360031, -0.253286, -0.084140, -0.124329, 0.016739, 0.057364, 0.013956, 0.018602, -0.017264, -0.106798, -0.184359, -0.133151, -0.287237, -0.167839, -0.311737, -0.298284, -0.308341, -0.232901, -0.232048, -0.313931, -0.370282, -0.323243, -0.404027, -0.273669, -0.465010, -0.343557, -0.265514, -0.206499, -0.203145, -0.101598, -0.025637, -0.057921, 0.038130, 0.063644, 0.046177, 0.034641, -0.048714, -0.018075, -0.029502, -0.036830, -0.057072, -0.064008, -0.056387, -0.142233, -0.178186, -0.078373, -0.152283, -0.186158, -0.136904, -0.152026, -0.111760, -0.158063, -0.138037, -0.081345, -0.104453, -0.191235, -0.116657, -0.045099, -0.058955, 0.013484, 0.049946, 0.020086, -0.002920, 0.022081, 0.038900, 0.082228, 0.049824, -0.061832, -0.082041, 0.015765, -0.044994, -0.091056, 0.020724, -0.089300, -0.074582, -0.126852, -0.132116, -0.004709, -0.071886, -0.027301, -0.168858, 0.005359, 0.013319, -0.106102, -0.063086, -0.109918, -0.048858, -0.028839, 0.012050, -0.086529},
    {-0.032179, -0.055516, -0.034193, -0.036373, -0.036379, -0.013337, 0.086127, -0.004552, 0.058163, -0.068195, -0.070926, -0.027182, 0.018252, 0.016122, 0.010169, 0.075473, 0.080757, 0.076907, -0.032830, -0.005292, -0.004523, -0.055225, 0.073016, -0.019541, -0.071241, -0.035366, -0.030047, -0.016403, 0.052346, 0.073547, 0.030938, 0.020710, -0.064814, -0.054297, -0.125527, -0.091759, -0.054693, -0.079874, -0.088573, -0.217308, -0.154808, -0.280803, -0.165889, -0.208259, -0.215489, -0.226729, -0.046282, -0.046130, -0.051528, -0.091547, -0.020644, -0.139519, -0.008431, -0.014404, 0.029586, 0.068672, 0.045293, -0.050644, 0.070528, -0.178799, 0.011767, 0.041943, -0.018363, -0.116081, -0.156263, -0.315450, -0.302377, -0.341071, -0.347556, -0.313546, -0.260908, -0.230382, -0.365297, -0.170858, -0.101894, -0.142199, -0.158834, -0.136407, -0.075017, -0.077614, 0.044759, -0.091415, -0.086797, -0.050625, -0.039437, 0.051381, 0.010114, -0.156382, -0.093228, -0.120397, -0.216078, -0.450398, -0.408537, -0.566489, -0.616340, -0.456285, -0.387992, -0.434713, -0.367598, -0.386683, -0.459856, -0.242795, -0.359156, -0.348128, -0.381655, -0.277295, -0.205891, -0.147118, -0.107572, -0.084334, -0.032595, -0.081350, 0.070956, 0.061570, 0.046459, -0.075524, -0.293018, -0.376479, -0.394102, -0.433879, -0.579420, -0.562183, -0.524847, -0.405410, -0.246345, -0.379329, -0.438735, -0.339355, -0.381629, -0.558274, -0.415298, -0.299027, -0.270664, -0.143491, -0.244621, -0.193239, -0.220569, -0.161910, -0.183411, 0.001151, 0.062235, 0.022974, -0.198701, -0.094383, -0.104535, 0.104027, -0.003074, 0.023906, 0.031137, -0.129408, -0.155133, -0.198482, -0.321429, -0.296686, -0.306622, -0.277468, -0.353818, -0.345071, -0.452808, -0.515554, -0.532661, -0.462114, -0.411571, -0.449622, -0.371850, -0.247898, -0.127720, -0.111945, 0.030264, -0.119890, 0.065838, 0.239111, -0.052542, 0.118070, 0.138891, 0.139348, 0.129369, 0.088672, 0.108334, 0.181737, 0.068268, -0.031829, -0.166011, -0.134817, -0.056186, -0.016315, -0.070375, -0.138188, -0.208013, -0.116904, -0.099444, -0.308539, -0.526479, -0.604518, -0.272111, -0.130460, 0.090349, -0.004366, 0.187040, 0.241764, 0.136407, 0.075154, 0.211198, 0.256563, 0.091313, 0.274122, 0.271588, 0.184354, 0.162249, 0.131570, -0.103089, 0.013961, 0.082920, 0.164570, 0.102691, 0.110908, 0.094743, -0.050258, -0.018580, -0.156144, -0.261633, -0.434857, -0.412852, -0.134561, -0.062276, 0.242322, 0.259015, 0.336619, 0.126653, 0.198822, 0.252111, 0.172197, 0.222062, 0.195808, 0.158067, 0.150091, 0.226701, 0.067074, 0.123734, 0.251763, 0.275501, 0.262330, 0.208294, 0.082879, 0.161367, -0.048660, -0.005593, -0.173907, -0.361910, -0.519378, -0.453881, -0.123260, 0.044250, 0.131301, 0.164937, 0.400532, 0.156254, 0.161125, 0.229489, 0.096238, -0.019984, 0.057698, 0.028780, 0.055163, 0.167711, 0.084131, 0.208887, 0.275072, 0.290915, 0.289202, 0.252716, 0.245520, 0.073188, 0.083354, -0.053558, -0.118244, -0.267758, -0.482062, -0.169607, 0.116523, 0.059393, 0.121148, 0.235552, 0.304427, 0.177679, 0.126214, 0.060055, 0.050914, -0.007277, -0.033452, 0.095507, 0.091735, 0.000008, 0.221007, 0.328056, 0.329908, 0.499153, 0.276727, 0.258051, 0.225586, 0.223937, 0.148191, 0.132374, -0.114990, -0.506193, -0.360277, -0.149056, 0.077754, 0.083925, 0.172162, 0.364750, 0.346669, 0.293875, 0.201265, 0.056543, 0.119025, -0.070739, 0.123377, 0.030267, 0.046523, -0.038403, 0.026658, 0.115245, 0.313060, 0.372081, 0.332541, 0.337845, 0.150957, 0.123836, 0.187239, 0.080396, -0.202193, -0.637694, -0.470551, -0.220971, -0.167824, 0.126481, 0.205286, 0.356650, 0.469473, 0.299540, 0.059210, -0.007826, 0.121589, 0.185283, -0.057938, -0.037969, -0.226731, -0.374933, -0.419336, -0.325509, 0.063176, 0.357159, 0.297532, 0.122612, 0.050174, 0.021986, -0.110623, 0.090826, -0.277477, -0.361714, -0.219589, -0.096352, -0.088628, -0.012158, 0.233063, 0.430765, 0.349313, 0.236693, 0.138712, 0.051115, 0.017649, -0.141377, -0.048487, -0.142226, -0.498258, -0.717018, -0.705903, -0.276268, -0.056581, 0.127789, 0.108279, 0.122029, 0.004032, 0.084501, -0.003930, -0.015979, -0.212632, -0.031170, 0.129656, -0.047816, 0.024260, -0.067626, 0.169618, 0.387624, 0.222154, 0.100628, 0.119262, -0.055813, -0.140616, -0.097650, -0.232945, -0.277810, -0.517363, -0.661303, -0.587653, -0.207308, -0.141529, 0.044391, 0.144903, 0.173928, 0.354129, 0.172364, 0.148507, 0.232382, 0.218361, 0.024982, -0.180794, -0.164179, 0.025234, -0.032824, 0.005997, 0.214266, 0.156900, 0.059570, 0.015277, -0.062763, -0.073221, -0.229323, -0.175198, -0.242649, -0.520329, -0.515628, -0.370873, -0.217652, -0.052352, -0.006263, 0.242060, 0.404194, 0.261150, 0.264899, 0.326774, 0.325593, 0.008925, -0.162327, -0.397616, -0.341439, -0.151275, 0.000195, -0.055190, 0.012085, 0.072999, 0.048370, -0.114150, -0.031880, -0.018092, -0.097448, -0.242713, -0.319796, -0.485561, -0.226116, -0.248202, -0.174388, 0.027472, 0.122675, 0.154812, 0.220629, 0.200449, 0.248871, 0.117844, -0.019972, -0.130773, -0.151875, -0.647264, -0.440711, -0.211946, -0.018205, -0.036480, -0.063194, -0.307785, 0.096344, -0.072664, -0.140648, -0.242865, -0.150227, -0.240799, -0.314011, -0.238043, -0.177050, 0.053796, 0.119761, 0.101084, -0.020878, 0.038510, 0.039877, 0.045396, -0.010842, -0.056444, -0.057058, -0.106321, -0.071666, 0.042871, 0.116493, -0.223570, -0.041252, 0.060766, 0.274110, -0.365388, -0.013626, -0.206367, -0.340128, -0.367857, -0.247322, -0.296452, -0.304638, -0.253825, -0.085133, 0.111863, 0.022502, 0.015493, -0.080169, -0.013436, -0.046395, -0.185223, -0.053077, -0.082066, -0.277529, -0.405205, -0.262817, -0.077040, 0.194822, -0.145075, 0.048034, 0.099010, 0.177137, -0.355228, -0.015056, -0.156344, -0.264684, -0.415696, -0.238983, -0.337480, -0.289165, -0.136833, -0.059349, 0.025441, 0.017650, -0.090083, -0.212212, -0.230373, -0.308690, -0.240292, -0.205770, -0.311787, -0.461822, -0.534368, -0.224264, -0.316072, -0.147071, 0.016664, 0.025706, -0.096390, -0.193174, -0.446958, -0.382702, -0.261238, -0.439587, -0.427205, -0.330647, -0.167355, -0.240844, -0.225824, 0.021016, 0.029881, -0.033096, -0.131085, -0.264992, -0.318622, -0.382019, -0.298924, -0.379184, -0.450818, -0.559429, -0.392663, -0.273047, -0.173299, -0.203221, 0.044144, -0.129742, -0.031888, -0.370802, -0.497155, -0.322082, -0.304183, -0.310728, -0.351138, -0.110016, -0.038625, -0.199617, -0.088607, -0.044807, -0.123629, -0.052762, -0.036539, -0.114708, -0.156147, -0.395026, -0.422986, -0.459072, -0.419789, -0.637152, -0.456498, -0.322265, -0.034915, -0.188319, -0.069524, -0.074097, 0.020041, -0.259556, -0.444338, -0.269434, -0.001600, -0.044835, 0.089999, 0.062881, -0.050688, -0.139269, -0.058246, -0.031117, -0.149462, -0.073320, 0.055777, -0.079783, -0.168034, -0.265239, -0.381499, -0.310465, -0.412011, -0.543465, -0.590534, -0.210297, -0.143745, -0.180241, -0.076660, -0.031820, -0.005493, -0.154859, -0.361203, -0.010245, 0.082093, 0.183690, 0.158621, 0.019159, -0.072601, -0.124060, -0.064402, -0.144958, -0.080024, -0.118476, -0.042251, -0.054883, -0.153037, -0.314554, -0.425906, -0.476146, -0.461051, -0.573873, -0.681110, -0.282459, -0.132295, 0.002390, 0.030341, -0.000009, -0.021890, -0.028212, 0.117466, 0.131085, 0.423704, 0.343889, 0.254848, 0.183804, 0.141482, 0.064793, -0.006997, -0.002795, 0.147343, 0.142410, -0.006974, -0.018362, 0.017456, -0.136945, -0.170610, -0.231667, -0.277224, -0.402982, -0.561739, -0.295958, -0.083197, -0.079564, 0.067262, -0.074632, 0.086141, -0.152471, 0.253282, 0.258570, 0.309692, 0.065838, 0.217730, 0.308616, 0.353408, 0.160768, 0.310992, 0.199559, 0.216835, 0.253205, 0.210777, 0.201664, 0.234132, 0.146005, 0.171225, -0.012686, -0.033494, -0.062943, -0.356278, -0.189137, -0.154780, -0.045226, 0.003988, -0.051868, -0.059359, -0.046163, -0.177999, -0.142697, -0.016011, -0.125978, -0.003116, 0.148800, 0.265736, 0.145483, 0.244749, 0.156555, 0.268064, 0.233297, 0.317000, 0.359696, 0.337627, 0.236122, 0.337553, 0.012536, 0.188437, 0.096575, -0.029547, -0.186192, -0.002952, 0.035836, 0.077377, -0.064705, -0.055933, 0.069451, -0.083406, 0.004946, 0.136397, 0.002593, 0.028307, 0.195368, 0.119071, 0.145004, 0.091560, 0.094819, 0.372203, 0.309718, 0.297616, 0.286242, 0.306834, 0.248850, 0.378679, 0.080152, 0.160835, 0.169702, 0.236233, 0.010363, -0.053677, -0.005895, -0.056559},
    {0.085311, -0.009588, 0.072344, -0.020690, -0.082556, -0.053595, 0.009975, -0.033619, 0.031618, -0.039201, 0.032364, -0.024095, -0.131196, -0.048661, -0.096833, 0.024387, 0.002433, -0.060436, 0.050372, 0.081752, -0.080370, 0.019967, 0.070143, -0.066266, 0.060094, 0.058941, -0.019920, -0.027599, -0.005584, 0.039134, -0.054337, -0.006939, 0.039201, -0.110268, 0.048214, -0.082949, -0.127919, 0.021378, -0.224360, -0.147827, -0.156388, -0.145684, -0.115921, -0.072718, -0.323228, -0.162266, -0.135955, -0.181753, -0.087647, -0.093864, -0.079643, 0.003732, 0.053151, 0.059451, 0.025668, 0.023052, 0.052254, -0.038813, 0.064786, -0.023581, -0.067186, -0.071990, -0.016589, -0.194474, -0.120177, -0.316670, -0.539909, -0.542167, -0.538915, -0.458535, -0.433692, -0.503017, -0.514568, -0.398118, -0.122665, -0.521380, -0.354329, -0.284769, -0.263094, -0.329126, -0.159513, -0.122903, -0.071060, -0.031659, -0.047416, -0.051573, -0.025450, -0.212201, -0.184034, -0.184826, -0.281071, -0.386646, -0.167920, -0.156389, -0.276986, -0.189671, -0.320986, -0.307183, -0.364974, -0.173004, -0.297985, -0.148426, -0.127410, -0.258334, -0.137668, -0.004223, 0.050663, 0.123775, -0.279269, -0.293667, -0.114352, -0.013679, 0.007408, -0.076432, 0.062079, -0.126846, -0.250717, -0.397690, -0.295137, -0.195076, -0.046539, -0.095702, -0.103653, 0.015294, 0.065877, 0.109543, 0.127012, 0.146703, 0.081231, 0.065665, -0.041418, 0.034242, -0.002397, 0.016413, -0.229167, -0.202971, 0.005352, 0.086425, 0.093807, 0.012429, 0.004415, 0.056462, -0.071012, -0.077238, -0.413578, -0.259875, -0.257096, -0.104259, -0.143311, -0.046533, -0.151155, 0.055369, 0.157150, 0.087425, 0.161722, 0.179590, 0.085379, 0.213649, 0.004628, 0.103242, 0.056848, -0.014858, -0.061470, -0.235368, -0.198413, 0.156208, -0.046437, -0.155041, -0.001498, -0.128653, -0.326840, -0.299461, -0.331077, -0.227202, -0.151723, -0.118923, -0.102556, -0.068529, 0.003009, -0.032935, 0.142491, 0.062533, 0.057165, 0.093216, 0.117761, 0.115584, -0.001624, 0.145698, 0.062017, 0.043451, 0.000290, -0.035721, -0.112247, 0.232375, -0.023860, -0.067082, -0.038955, -0.283278, -0.408804, -0.173391, -0.129252, -0.078736, -0.053847, -0.094072, 0.095266, 0.028144, 0.000469, -0.093596, -0.028730, 0.042832, -0.147734, 0.111658, 0.068457, -0.037192, 0.072956, -0.022015, -0.046453, 0.114483, 0.069431, 0.175891, 0.058967, 0.023316, 0.112551, -0.068437, -0.008355, -0.290911, -0.299301, 0.022087, 0.038230, -0.038863, 0.034287, 0.179434, 0.025014, 0.081538, 0.126280, -0.068318, 0.066394, -0.006467, -0.073940, -0.085223, 0.053404, 0.018553, 0.047098, 0.096879, 0.123154, 0.103086, 0.077611, 0.132884, 0.131630, -0.035318, 0.159109, 0.286754, 0.016798, -0.132536, -0.353413, -0.064524, -0.054601, 0.080379, 0.112841, 0.066762, 0.153737, 0.073503, 0.176459, 0.144703, 0.039684, 0.013077, -0.117205, -0.339188, -0.156373, -0.033375, -0.010665, 0.105801, 0.147807, 0.161999, 0.169887, 0.122284, 0.047645, -0.023750, 0.056465, -0.229135, 0.038621, -0.179425, -0.209625, -0.216657, 0.026439, 0.045526, 0.047913, 0.224210, 0.176395, 0.266229, 0.139768, 0.106671, 0.119260, -0.043889, -0.177488, -0.256712, -0.231818, -0.158166, 0.048669, 0.125109, 0.028918, 0.118603, 0.066548, 0.071841, -0.115161, -0.344828, -0.115114, 0.036075, -0.017310, -0.169479, -0.175683, -0.278975, 0.126236, 0.150940, 0.206049, 0.260658, 0.189934, 0.261852, 0.202058, 0.100382, 0.229774, 0.303062, 0.156839, -0.069382, -0.198878, -0.089167, -0.106236, 0.042875, 0.030772, 0.077051, 0.199843, 0.309538, 0.243718, -0.012091, 0.236728, 0.050514, 0.005113, -0.025822, -0.180713, 0.071626, 0.059911, 0.218558, 0.119683, 0.164002, 0.110647, 0.021271, -0.072434, -0.075076, 0.105237, 0.240830, 0.071576, 0.056192, 0.001955, -0.059557, 0.008903, 0.088399, 0.171261, 0.230729, 0.227963, 0.354358, 0.515609, 0.093431, 0.163467, -0.170481, -0.105099, -0.069991, -0.134499, -0.116726, -0.175741, -0.033959, -0.058275, -0.118173, -0.115289, -0.021021, -0.207129, 0.026154, 0.196194, 0.226448, 0.108725, 0.125157, 0.033709, -0.074961, 0.002806, -0.034800, 0.090522, -0.129408, 0.031077, 0.119180, 0.042973, 0.064817, -0.116195, -0.057618, -0.104017, -0.136233, -0.223614, -0.296696, -0.490782, -0.247953, -0.277212, -0.264276, -0.302193, -0.243570, -0.143251, 0.140886, 0.236944, 0.276863, 0.150562, 0.173182, 0.052978, -0.069765, -0.076791, -0.099109, -0.196708, -0.157262, -0.270782, -0.284252, -0.231917, 0.092891, -0.332808, -0.243141, -0.188673, -0.094917, -0.086960, -0.405423, -0.396077, -0.349471, -0.374607, -0.322992, -0.161532, -0.177022, -0.142127, 0.102797, 0.205288, 0.216965, 0.189711, 0.089088, -0.056501, -0.122344, -0.104520, -0.166529, -0.300650, -0.349440, -0.255226, -0.280765, -0.302917, -0.147582, -0.499722, -0.236437, -0.076638, -0.065014, -0.161876, -0.424483, -0.539705, -0.360499, -0.151517, -0.079315, 0.044379, 0.011170, 0.047616, 0.085670, 0.270457, 0.121938, 0.116233, 0.041182, 0.006127, -0.107164, -0.243376, -0.317065, -0.292117, -0.257988, -0.285848, -0.163264, -0.228709, -0.285033, -0.487508, -0.095635, -0.009187, -0.143710, -0.182410, -0.336553, -0.334067, -0.280784, -0.207606, -0.063670, 0.120492, 0.149891, 0.066762, 0.215551, 0.203738, 0.188751, -0.087586, -0.018501, -0.011542, -0.126094, -0.186287, -0.174396, -0.082871, -0.133817, -0.174270, -0.066303, 0.002000, -0.756726, -0.405303, -0.140343, -0.094014, -0.159346, -0.152740, -0.628369, -0.400261, -0.104628, -0.121869, 0.007552, 0.075933, 0.215340, 0.177344, 0.205683, 0.125144, -0.053139, -0.116372, -0.155454, -0.032188, -0.147573, -0.112254, -0.070772, -0.072616, -0.126415, -0.028659, 0.049111, -0.119509, -0.636484, -0.305750, -0.289941, -0.067805, -0.120662, -0.218590, -0.460245, -0.203898, -0.016714, -0.078722, -0.071108, 0.058137, 0.026090, 0.070058, -0.048047, -0.040360, -0.161696, -0.184005, -0.062679, -0.072254, -0.038050, -0.038380, 0.048535, -0.067908, -0.054118, 0.048174, 0.096097, -0.049085, -0.597904, -0.288118, -0.289605, -0.074791, -0.215865, -0.346816, -0.376810, -0.285634, -0.014060, -0.003574, 0.150426, 0.006083, -0.003610, 0.009028, -0.228372, -0.072581, -0.110396, -0.067530, -0.044343, -0.197874, -0.023914, 0.025340, -0.027846, 0.080881, 0.095719, 0.161499, 0.123009, -0.110627, -0.484397, -0.304865, -0.121276, -0.138374, -0.024320, -0.237808, -0.485328, -0.312882, -0.178707, 0.165451, 0.048463, -0.035568, 0.021151, -0.009194, -0.028967, -0.061224, 0.060761, -0.015184, 0.008002, -0.015663, 0.019600, 0.021614, 0.022037, 0.068263, 0.036681, 0.004250, -0.012729, -0.260836, -0.372146, -0.318132, -0.093533, -0.191827, -0.063416, -0.188542, -0.192496, -0.242049, -0.218834, 0.010843, 0.047665, 0.025535, -0.109386, 0.021385, 0.028058, 0.119347, 0.239005, 0.151460, 0.099392, 0.000314, -0.005217, -0.037413, 0.015264, -0.091357, -0.007658, 0.060525, -0.152108, -0.107617, -0.249397, -0.331184, 0.003765, 0.075737, -0.001172, -0.221971, -0.238272, -0.280217, -0.321242, -0.351867, -0.162508, 0.035096, -0.002952, 0.068275, 0.079516, 0.239082, 0.190376, 0.181460, 0.202117, 0.136530, 0.096800, 0.102066, 0.038515, 0.051888, 0.079786, -0.017310, 0.004658, -0.261588, -0.237153, -0.182673, 0.021436, 0.072456, 0.037641, -0.115773, -0.300115, -0.589845, -0.511837, -0.427957, -0.301207, 0.063261, -0.049965, -0.008568, 0.151042, 0.104215, 0.134291, 0.102420, 0.126539, 0.212880, 0.074713, 0.101420, 0.321077, 0.056564, -0.135005, -0.207444, -0.329586, -0.558361, -0.445051, -0.184678, 0.081964, 0.070690, 0.025094, -0.216616, -0.263291, -0.447634, -0.507102, -0.347419, -0.414507, -0.349700, -0.308684, -0.170309, -0.169868, -0.154426, -0.206364, -0.017895, 0.087085, -0.012386, -0.073495, -0.059044, -0.123045, -0.157869, -0.296778, -0.460196, -0.340765, -0.415977, -0.192696, -0.114821, 0.046863, 0.045242, 0.001446, -0.054153, -0.016397, -0.124062, -0.262970, -0.331804, -0.411789, -0.379522, -0.469373, -0.448564, -0.340388, -0.334723, -0.334002, -0.393331, -0.775751, -0.749098, -0.404772, -0.283342, -0.533427, -0.552095, -0.458437, -0.294820, 0.089317, -0.010381, -0.011617, -0.063630, -0.038596, -0.081785, -0.003245, -0.031451, -0.065799, -0.049843, -0.059362, 0.018379, -0.087117, -0.031436, -0.097339, -0.246597, -0.127207, -0.298923, -0.174280, -0.252500, -0.211686, -0.137534, -0.210743, -0.252019, -0.328585, -0.184561, -0.280436, -0.198798, -0.202913, 0.012245, 0.063482, -0.057691, -0.057813},
    {0.075850, -0.044931, 0.078212, -0.005438, -0.076930, 0.016192, -0.054005, 0.060893, 0.075976, 0.073524, 0.043122, 0.065182, -0.200948, -0.094262, -0.037606, -0.093549, 0.045839, 0.069326, -0.080582, -0.046109, -0.039837, -0.059677, 0.048261, -0.009336, 0.002296, -0.002988, 0.044559, 0.068532, -0.015001, 0.013910, 0.006178, 0.033304, -0.033550, -0.062100, -0.039491, -0.039496, 0.009084, -0.073891, -0.244488, -0.167062, -0.341173, -0.312684, -0.155223, -0.249125, -0.320382, -0.150093, -0.180294, -0.180421, -0.114638, -0.152345, -0.071441, -0.193118, -0.020262, 0.039637, -0.067019, -0.023304, -0.083280, 0.050338, -0.055705, -0.096102, -0.034841, -0.090742, -0.000333, -0.053404, -0.151611, -0.158520, -0.250916, -0.268599, -0.349734, -0.408555, -0.378213, -0.349223, -0.393647, -0.316047, -0.316561, -0.319954, -0.057686, -0.135507, -0.023416, -0.016332, 0.040567, 0.022000, 0.030224, 0.078528, 0.085205, 0.032650, -0.094201, -0.177542, -0.179285, -0.062807, -0.178686, -0.092521, -0.306159, -0.235996, -0.450061, -0.415541, -0.537722, -0.555377, -0.522060, -0.552430, -0.446503, -0.353423, -0.257881, -0.392961, -0.383606, -0.271008, -0.077488, -0.071419, -0.015523, -0.014868, 0.020566, 0.011857, 0.038243, -0.019942, -0.092424, -0.045243, -0.126765, -0.152609, -0.180559, -0.256525, -0.359921, -0.463703, -0.407981, -0.265176, -0.334185, -0.319696, -0.342192, -0.412311, -0.553450, -0.468860, -0.420841, -0.319409, -0.290846, -0.574175, -0.513059, -0.336583, -0.284762, -0.133571, -0.151327, -0.060348, -0.052628, -0.017972, -0.073400, -0.101847, -0.162922, -0.258306, -0.400715, -0.383591, -0.371482, -0.255877, -0.089203, 0.088266, 0.006206, -0.037934, -0.075146, -0.258964, -0.311879, -0.251196, -0.337052, -0.297431, -0.240184, -0.313870, -0.440276, -0.681651, -0.483817, -0.433370, -0.134529, -0.006855, -0.029446, -0.100249, -0.220420, -0.237134, -0.398333, -0.577206, -0.346908, -0.350988, -0.230410, -0.021247, -0.056096, 0.079012, 0.043869, 0.231254, 0.256689, 0.232867, 0.226998, 0.198041, 0.132898, 0.073021, -0.037108, -0.125147, -0.344540, -0.543760, -0.550785, -0.427437, -0.414438, -0.087716, 0.075993, -0.165796, -0.355726, -0.469657, -0.636107, -0.589680, -0.339830, -0.231290, -0.146798, -0.062130, 0.017480, 0.013079, 0.187606, 0.224655, 0.372831, 0.375531, 0.304514, 0.212492, 0.136624, 0.066608, -0.038663, -0.103661, -0.289851, -0.356928, -0.546069, -0.625076, -0.495016, -0.237657, -0.034926, -0.163967, -0.492755, -0.492588, -0.321884, -0.279144, -0.228307, -0.258728, -0.035200, -0.133128, -0.068384, -0.093147, -0.030939, 0.055977, 0.214895, 0.282656, 0.170434, 0.098374, -0.031563, -0.132726, 0.009177, -0.049035, -0.130846, -0.351480, -0.517598, -0.386739, -0.514967, -0.199084, -0.016067, -0.163957, -0.310086, -0.353201, -0.394620, -0.206290, 0.021016, -0.067620, -0.004970, -0.044722, 0.046342, 0.000445, 0.072604, 0.054317, 0.017546, 0.090224, -0.077030, -0.058371, 0.031260, 0.027050, -0.016302, -0.123210, -0.165939, -0.378531, -0.396051, -0.572609, -0.499148, -0.260728, -0.062953, -0.152217, -0.357908, -0.209370, -0.245580, 0.069853, 0.108355, 0.080710, 0.094469, 0.100034, 0.173241, 0.194081, 0.028182, -0.140951, -0.009611, -0.062241, -0.091161, -0.053537, 0.013681, 0.008131, 0.042485, 0.011452, -0.065467, -0.246675, -0.436534, -0.433603, -0.565977, -0.208841, -0.055588, -0.276603, -0.458328, -0.317113, -0.047238, 0.144272, 0.233495, 0.216346, 0.212236, 0.075559, 0.130816, 0.151472, -0.023208, -0.063021, -0.125547, 0.058511, 0.107094, 0.237070, 0.205924, 0.141073, 0.326457, 0.211617, 0.038740, -0.104998, -0.352732, -0.418924, -0.452186, -0.064072, 0.003280, -0.308609, -0.420875, -0.130843, 0.222627, 0.201966, 0.199748, 0.219119, 0.093581, 0.219179, 0.178156, 0.043084, -0.173252, -0.104675, 0.193847, 0.117699, 0.324292, 0.342562, 0.297238, 0.254947, 0.292269, 0.277959, 0.174800, 0.172143, -0.357474, -0.843108, -0.487024, -0.106588, -0.111583, -0.266467, -0.307159, 0.003004, 0.342849, 0.243488, 0.073480, 0.163288, 0.177321, 0.099698, 0.094434, -0.087633, -0.096047, 0.071714, 0.210508, 0.157956, 0.249672, 0.333191, 0.247592, 0.284529, 0.182412, 0.279238, 0.118910, -0.206698, -0.578636, -0.695206, -0.424756, -0.168522, -0.186833, -0.130114, -0.292549, 0.133241, 0.207386, 0.124722, 0.136340, 0.123393, 0.034198, -0.063422, -0.068141, -0.070323, -0.040065, -0.045911, 0.039109, 0.188319, 0.351726, 0.220189, 0.101129, 0.129387, 0.066911, -0.029291, -0.009790, -0.305953, -0.799667, -0.661783, -0.163784, -0.102766, -0.228436, -0.071861, -0.364575, -0.024873, 0.173913, 0.110823, -0.057723, -0.057625, 0.066419, -0.005226, -0.061637, 0.037184, -0.078780, -0.115688, -0.178532, 0.072104, 0.252513, 0.228148, 0.129988, 0.023676, -0.016028, -0.098541, -0.191623, -0.326071, -0.726439, -0.506208, -0.199351, -0.165692, -0.045517, -0.077870, -0.288257, -0.000067, -0.008102, -0.005751, -0.104222, -0.080531, 0.067778, -0.097152, 0.159013, 0.082862, -0.029401, -0.198965, -0.179115, 0.022422, 0.177317, 0.090726, -0.059346, -0.153520, -0.128411, -0.204254, -0.227476, -0.445276, -0.606385, -0.537707, -0.301748, -0.183310, -0.027548, -0.094419, -0.284246, -0.147715, -0.274217, -0.050849, -0.082535, -0.037879, -0.023351, -0.016226, 0.137433, -0.009440, -0.034616, -0.081491, -0.001136, 0.203951, 0.038366, 0.073895, -0.111165, -0.102823, -0.095953, -0.171850, -0.249296, -0.577705, -0.610201, -0.490833, -0.382453, -0.233577, 0.051326, -0.031733, -0.182439, -0.241817, -0.467080, -0.383076, -0.169787, -0.023200, -0.008496, -0.024505, 0.009324, 0.074098, -0.205914, -0.168363, 0.001555, 0.097308, -0.054485, -0.052256, -0.138838, -0.037259, -0.066952, -0.223611, -0.444122, -0.373573, -0.438938, -0.320378, -0.231655, -0.231258, 0.026771, -0.155962, -0.305964, -0.241319, -0.400077, -0.365812, -0.253678, -0.083148, -0.212705, -0.296695, -0.210366, -0.310379, -0.267747, -0.164703, -0.154872, -0.172234, -0.165430, -0.134111, -0.170685, -0.097687, -0.013147, -0.354720, -0.305702, -0.304615, -0.230150, -0.126957, -0.278114, -0.175792, 0.057504, -0.283781, -0.362349, -0.425404, -0.309359, -0.111582, -0.223660, -0.293754, -0.292214, -0.260993, -0.398843, -0.389444, -0.318747, -0.189790, -0.206271, -0.201897, -0.060985, -0.187566, -0.171509, -0.027888, -0.173109, -0.249798, -0.339430, -0.051548, 0.117407, 0.139722, -0.224596, -0.002569, -0.030204, -0.030556, -0.272445, -0.404426, -0.166751, -0.164663, -0.251203, -0.252469, -0.243361, -0.184560, -0.242658, -0.275794, -0.271839, -0.124082, -0.121956, -0.096699, -0.086439, -0.213862, -0.218582, -0.171809, -0.157793, -0.179560, -0.158480, -0.009406, 0.233359, -0.032616, -0.301841, 0.014901, -0.064923, -0.088083, -0.113044, -0.082546, -0.192791, -0.345225, -0.222549, -0.229934, 0.013603, -0.112996, -0.110479, 0.005870, -0.034020, -0.120051, -0.014483, -0.213124, -0.194562, -0.191721, -0.169441, -0.308540, -0.221051, -0.047292, 0.096671, 0.177690, 0.283195, 0.054260, -0.310070, -0.089868, -0.002161, -0.040566, -0.304482, -0.044893, -0.381732, -0.202952, -0.251552, -0.111699, 0.012053, -0.047070, -0.118165, -0.138169, -0.095087, -0.099545, -0.166647, -0.102036, -0.147115, -0.068231, -0.174872, -0.053187, 0.084475, 0.076251, 0.241392, 0.328129, 0.082670, -0.158191, -0.181715, 0.065120, -0.078708, 0.076515, -0.342392, -0.370449, 0.021898, -0.105158, -0.019485, 0.111225, 0.087531, -0.035468, 0.077221, -0.071949, -0.119786, -0.202156, -0.168099, -0.112755, -0.053413, 0.028352, 0.058363, 0.173386, 0.235906, 0.271409, 0.369110, 0.303022, -0.116112, -0.185797, -0.149737, -0.075429, 0.007088, -0.066519, 0.098519, -0.239689, 0.008155, 0.255992, 0.109870, 0.175689, 0.190145, 0.123350, 0.194708, 0.137347, 0.083335, 0.129478, 0.180291, 0.108758, 0.178186, 0.272742, 0.200221, 0.295294, 0.372104, 0.440888, 0.212505, 0.171722, -0.136310, -0.122879, -0.189845, -0.011628, -0.073028, 0.070316, -0.011621, 0.176866, 0.156848, 0.307519, 0.286879, 0.403784, 0.230244, 0.245479, 0.275579, 0.293806, 0.387455, 0.319506, 0.418465, 0.271771, 0.234159, 0.241431, 0.207940, 0.184976, 0.254100, 0.087100, 0.005854, 0.101931, -0.110228, -0.044771, -0.066256, -0.085906, 0.030010, -0.081481, -0.079692, -0.044094, -0.120481, -0.195352, 0.092939, 0.089650, -0.005965, -0.001123, 0.002602, 0.114318, 0.104560, -0.373164, -0.037394, -0.074197, -0.181458, -0.318960, -0.103722, -0.040729, 0.007494, -0.033836, -0.050392, -0.342178, 0.061064, 0.004774, 0.013993, 0.024801},
};

float biases[OUTPUT_SIZE] = {-0.277271, 0.454196, 0.033049, -0.264791, 0.101956, 0.706202, -0.089275, 0.395564, -0.874446, -0.184642};


void predict(float input[INPUT_SIZE], float output[OUTPUT_SIZE]) {
    for (int i = 0; i < OUTPUT_SIZE; i++) {
        output[i] = biases[i];
        for (int j = 0; j < INPUT_SIZE; j++) {
            output[i] += input[j] * weights[i][j];
        }
    }
}
