#include <stdint.h>

const float weights[10][784] = {
    {1.107652, 1.300599, -0.870779, 0.760282, -0.107091, 1.671623, 0.453100, 0.405605, 0.228633, 0.000311, 1.173356, -0.632705, -0.287389, -0.057617, 0.753707, -0.114780, 0.975352, -0.548681, -0.640703, -0.764256, -0.380575, -0.482994, -0.396859, -0.509322, 0.174593, 0.353235, -0.006771, -0.430412, -0.080345, -0.028445, 1.511381, 0.682256, 1.081932, -0.853261, 0.532585, -0.562002, 0.196318, -0.764862, 2.768680, -0.169599, 1.449828, 0.355277, 0.096844, 0.684858, 0.939460, -0.777388, 0.742307, 0.008754, 1.322291, 1.539880, -0.352806, 1.167222, 0.951986, 0.611868, -0.746559, 1.206876, 1.239129, 1.755831, -0.700295, -1.047691, -0.198451, -1.125502, -0.548174, 0.226808, -0.148633, 0.518329, 1.101428, 0.300702, -0.657837, -1.749128, -0.363291, 0.798524, 0.620786, 1.988284, 0.470363, -0.685249, -1.957332, 0.142545, -0.871496, -0.953444, 0.435325, 0.268902, -0.762570, 2.210966, -0.992312, -1.058303, 0.032260, 0.803075, 0.766684, 1.237880, 0.762723, -0.001882, 0.321287, -0.991885, -0.437180, 0.527289, 0.497898, -0.269971, 0.965142, 0.818328, 1.231308, 1.714913, 1.633795, -0.030121, -0.272122, 1.101858, -0.031501, 1.233529, -1.382736, -0.953983, -0.958484, 0.237639, -0.002208, 0.556135, 1.064676, -0.678179, -1.666954, 0.348817, 0.631821, 1.045755, 0.814365, -1.465466, -0.158587, -0.353922, -0.800305, 1.341882, -1.509811, 1.123082, 0.487553, 0.456840, 1.700884, -1.189281, 0.352776, 0.448922, -0.486468, 0.582577, -0.485348, 0.265532, 0.813207, -0.518011, 0.651412, -1.042671, -2.449212, 0.866907, -0.546351, -1.963970, 1.012485, -2.220758, -1.536019, 0.392645, 0.246885, -0.685072, -2.185348, 0.116364, -0.620047, -0.113586, 2.196648, -1.126068, -0.566446, -1.504786, -0.130219, -0.371533, -0.505447, -0.371066, -1.022252, -0.605094, 0.350203, -1.324127, 0.719860, -0.120223, -1.013065, -0.198726, 0.718407, 0.409561, 0.323141, -0.983386, 0.773937, -0.466587, 1.853661, 0.068091, 0.064536, 0.819902, -2.020804, -0.015269, -0.634199, -0.150910, 0.129579, -0.248904, 0.278440, 0.367741, -1.986749, -0.328381, -0.184868, -0.404908, -0.859567, -0.021593, -0.244008, 1.019920, -1.078048, 0.385743, -0.501230, -0.054391, 1.897005, -0.349389, 1.631535, 1.014807, 1.211783, 0.688509, -0.109880, -0.826420, -1.607133, 0.015282, 0.591667, -0.339295, -2.311643, -0.943723, 0.852553, 0.505602, 0.609353, 0.071176, -2.277929, 1.999293, 1.248494, -0.488503, -0.423255, 0.564280, 1.312673, -0.263028, -1.495690, 0.431259, 0.284473, 0.022824, 1.107408, -0.321074, 2.046261, 1.091121, 0.587293, -0.173418, -0.677393, -1.880569, 0.132223, -1.109860, 0.125224, 1.445219, -0.497790, -0.767131, -0.070816, -0.866030, -0.194742, 0.430738, 0.185538, -1.206186, 0.130011, -1.134055, -0.879217, 0.279953, -0.185087, -1.002354, 1.183385, 0.865465, -0.552760, -1.009683, -0.234142, 0.533863, 0.803617, 0.869160, 0.387514, -0.302846, -0.862477, 0.988425, -0.338855, -0.371196, 0.041579, 2.450729, -1.812503, 0.205493, 2.029539, -0.688516, 0.274460, -2.018125, -0.144496, 0.032118, 1.312427, 0.331410, 0.974554, 0.017030, 0.454696, -0.515642, 0.319591, 0.687950, 0.153324, -1.726874, -2.017029, -0.862654, -0.628312, -1.079155, -0.224580, -0.795993, 0.449844, -0.462949, -0.606464, 0.128251, -0.574149, -1.068529, -1.210663, 0.846909, -0.457158, 2.820929, 0.967226, -0.350995, 0.241556, 1.275139, 0.985904, -0.114531, 0.102081, 0.609626, 1.200337, -0.964396, 1.698667, -1.345043, 1.417567, 0.176701, 0.293170, 0.105814, -1.114819, -0.347917, -1.222503, 0.153965, 0.398804, -1.626125, -0.199077, 0.960544, 0.946306, 2.383015, 0.556355, -0.279049, -1.405585, -1.201568, -0.418708, 0.902015, 0.239772, -0.177680, -0.702381, 0.123467, -0.738039, -0.438899, 0.114044, 0.653820, 0.194134, -0.487651, -0.288406, -0.764490, 0.713629, 1.009211, -0.402386, 0.096563, 1.037898, 1.795788, -0.522362, -0.770185, 1.246891, -1.366092, 1.236668, -1.844792, -1.278550, -1.158258, -0.572479, -2.120655, 0.129913, 0.442088, -0.658015, -0.713420, -2.300307, -0.373813, 0.108699, 2.314454, -0.068712, 0.027860, -0.135137, -0.905842, -1.397681, 1.243302, -0.486127, -1.764714, -0.963280, -0.013586, -0.087308, -1.788111, 1.461707, 0.108727, 0.730128, 1.684137, -0.477801, 0.808414, -0.670577, -0.868116, 0.459429, -0.242899, -0.286250, 0.556608, 1.395813, 1.837872, -0.135636, 0.867253, 0.286665, 0.637908, -0.300786, 0.174431, -0.780026, 0.316542, -0.374424, 0.224410, -1.644671, -0.002578, 0.418531, 1.469450, 0.399701, -1.143529, -0.959059, -0.418646, 0.523607, -0.072684, 1.398018, -0.436760, -3.690246, -0.378010, -1.241245, 0.062899, 1.690093, 0.304279, -0.490852, 1.772062, -1.036245, 0.303430, 1.021368, -1.109126, -0.325031, -0.735742, 1.271758, 1.077542, -1.109599, -1.431122, 0.360219, -0.692459, -0.766201, -1.476564, 2.467721, 1.131977, 1.098280, 1.116896, 0.454891, -0.784790, -1.447097, -0.796342, 0.577128, 0.626453, -1.065107, 1.576114, -0.063682, -0.359930, 0.560834, 0.343070, -0.252858, -1.729517, -0.716528, -0.473025, -0.574697, 1.117281, 0.489343, -0.069794, 0.233436, 0.922607, -0.274085, 0.222897, -0.033002, 0.446797, 1.386482, 0.244833, 0.033657, -0.199416, 0.819984, 0.079168, 0.435988, -0.156248, 0.409487, -1.355322, -0.211090, -0.254565, -1.384208, 0.937561, 0.373151, -0.929777, 1.460068, 0.974440, 1.717004, -0.771697, -2.406627, -0.013885, -1.157766, -0.059834, -0.222189, -0.259823, 0.284408, 0.278705, -0.166506, -0.592954, -1.372807, 0.845858, -1.231337, 1.582532, -1.082781, -0.368078, 0.411167, 1.647474, -0.266352, -0.474163, 0.860219, 1.307743, -0.799895, -1.113075, 2.137315, 0.184762, 0.623118, -1.254476, 1.510310, 1.802473, 0.561611, -0.439597, 0.462520, -1.783795, -0.145873, -0.852291, 0.598221, 0.036759, -0.665558, 1.490090, -0.025194, 0.220497, -0.174942, -0.139229, -0.205893, 1.069036, -0.647640, -0.352651, -0.581979, -0.293865, 0.756761, -0.796939, -0.183718, -1.385528, 0.994074, 0.396370, 0.656882, -0.122461, 2.150893, -1.408790, -1.260298, 0.198718, 0.123768, 0.085122, -0.746483, -0.865449, 1.796874, -1.162978, -0.346750, 0.320490, -0.691764, 1.044795, 0.674083, -1.289165, 0.628028, 0.032432, -0.528729, -0.462933, -0.225238, -0.341688, -1.440794, -1.833296, 0.344878, -0.677791, -0.701770, 0.490307, -1.035139, 0.666992, 0.328612, 0.934352, 0.680616, -0.159132, 0.099742, 0.943253, -0.183546, 0.249103, -2.198343, 0.606845, -0.415647, 0.053645, -1.157397, -0.420566, -1.096724, 0.216557, -0.419436, 0.994939, -1.225825, -1.893582, -0.187131, 1.513545, -1.522388, 0.523763, 0.593391, -0.227351, -1.811464, -0.311877, 0.906718, -0.818191, 0.201665, -0.733064, -1.379031, -0.019727, -0.933354, 1.401322, -1.625363, 0.050572, -1.759889, -1.750837, 0.387074, -0.205212, -0.140547, -0.620249, -0.421111, 0.464536, -0.190770, 1.869595, -0.231510, -0.282960, 0.946678, -2.072993, -0.280305, 0.108522, 1.015164, -0.628571, 1.087068, -1.505585, 0.617507, -1.113452, 0.922159, -0.858946, 0.331828, -0.265321, -0.201599, -0.353782, 1.621829, 0.894914, -0.229565, -0.011197, 1.162179, 0.232580, -0.809598, 1.613539, -1.129603, -0.407508, -0.139824, 0.298851, -0.832607, -1.504918, -0.433320, 0.979633, -0.109794, -1.050631, 0.447932, -0.911668, -0.778461, -0.463797, -1.524277, -0.390621, 0.622720, 1.584816, -1.212506, -0.746678, -0.080301, -0.322047, -1.162114, -0.926424, 2.363174, 0.569281, -0.260078, 0.402654, 0.199650, 0.179920, 2.696117, 0.326544, -1.073557, 1.683135, -0.250814, 1.211247, 0.299823, -0.010356, 1.083980, -0.938166, -1.732371, 0.516970, -1.417336, -0.978245, -0.564066, -0.323761, 0.868830, -1.037436, 0.580456, 0.351490, -0.004575, -3.022381, -0.402181, 1.279073, -0.479484, -0.714208, -1.231839, 1.900836, -0.408488, -1.442202, -1.512974, 0.011799, 1.921132, 0.113458, -0.495591, 0.690431, 0.063863, -0.154279, 0.678568, -0.654521, 0.020850, -0.039833, -0.342586, 0.339036, 0.291494, 0.915752, -1.529781, -0.845693, -0.329648, 1.037146, 0.134235, 0.246823, 0.496352, -0.311062, -0.482376, -0.288016, 1.624964, 1.063616, 0.374190, -0.333709, 0.158924, -1.977282, -1.377068, -1.158424, -0.244017, 1.025042, -0.978661, -1.839461, 1.150756, 0.260378, -0.395669, 0.268670, 0.149885, 1.501070, -0.916782, 0.866459, -1.813260, 0.788747, -0.309363, 0.746523, 1.289901, -0.774686, -0.877425, 0.135722, -0.210548, -1.890409, 1.267533, 0.092032, -1.724024, 0.844729, -0.349199, -0.089956, 0.741433, 0.429633, 0.093069, -1.692269},
    {-0.473866, -0.024160, -0.944473, -1.215294, -2.027655, 0.606266, 0.464665, 0.113607, -1.656081, -1.544282, -0.028029, -1.103583, 0.490988, 0.094041, 0.031768, 0.113952, 0.454174, -0.829343, 0.434982, 0.348783, -0.929525, 0.822544, 1.162028, 0.293370, 1.201323, 0.274751, 0.921441, -0.068344, 0.454610, 0.329639, -0.231161, 0.089186, 0.229479, -0.241814, -1.254847, -0.160244, 1.637581, 0.102933, -0.476484, -0.291153, -0.886719, -1.562959, -1.770330, -0.376264, 0.564572, -0.557516, -0.671695, 0.493083, -0.230749, 1.637842, -0.798284, -0.447739, -1.375102, 0.952621, 0.034740, 0.836959, -1.392944, -1.075540, 1.151928, -1.407698, -1.245339, -0.726201, -0.756155, 1.000905, -0.147284, -2.402776, -1.279306, -0.876475, -0.992493, 0.886516, 1.363417, -0.387345, 0.888259, -0.600853, -1.225388, 0.478116, -0.060723, 0.476777, -0.329783, 1.467817, -1.764589, 0.332861, 0.781599, 0.463251, 0.761915, -1.390143, -0.210157, 0.214660, 0.789437, 0.483705, 1.154592, -0.609129, 0.254220, -0.054496, -0.445852, 1.942611, 0.578442, 0.226374, -0.688985, 0.702892, 0.780990, -0.049131, 0.258440, 0.788242, -1.049087, -1.879213, -0.883156, -0.365599, 0.914381, -1.047756, 1.741448, 0.494794, 0.556887, -0.377479, -0.846942, 0.785607, -0.078291, -0.229714, -0.027702, -0.907853, 1.118149, -0.477415, -0.152291, -1.151771, -0.229611, -0.384821, 0.490035, 0.493054, 0.497854, 0.423742, -1.554136, 0.255325, 1.391691, 0.929480, -0.614030, 0.536394, -0.824966, 1.548517, -0.262504, -0.265036, -0.681929, -0.822793, 0.098678, 0.685431, 0.284087, 1.408332, 1.072070, 0.173628, 1.643803, 1.292756, 0.610359, -0.900778, 0.746259, -0.391671, 1.703056, -0.923431, 1.989724, -1.042226, -0.341262, -2.257501, 1.171253, -1.950083, 0.624744, 0.407161, 0.826243, 1.124536, -2.338233, 0.294088, 0.340010, 0.144624, 0.808358, -1.326531, 1.254314, 2.045183, 0.484736, -0.789717, 2.015862, -1.260146, 0.699087, 0.148623, -0.453051, -2.007442, 1.045871, 0.629767, -2.934743, 0.391012, -0.268412, -0.237036, -0.067643, 0.161095, 0.244225, 0.787717, -0.879576, -0.609385, 0.902558, -1.476320, 0.822966, -0.071530, -0.003915, 2.310735, -0.415784, 0.233151, -0.008637, 0.623782, -0.804250, 2.317011, -1.955124, -0.429612, 0.440588, 1.307546, -0.002046, 0.877907, -0.101568, -1.280011, 0.860995, -1.307836, -0.384960, -0.313310, 0.426715, -2.139526, 2.286388, 0.832952, -1.877341, 1.041408, 0.245573, 0.602113, -1.431835, 0.717359, -0.797630, 1.646746, 0.202810, -0.048960, 0.521462, 0.790418, 0.371238, -0.702159, -0.836401, -0.387319, 0.102050, 0.042279, 0.680415, 0.590083, 1.211484, 1.197500, 0.668335, 1.005594, -0.198070, 0.649994, 0.142733, -0.780320, 0.462149, -0.103533, 0.095175, -0.977706, -0.390784, 1.287751, -0.262443, 0.541551, -1.561205, 0.788503, -0.104117, -0.116821, 0.391935, -0.560756, 0.394149, 0.002863, 0.266777, -0.948906, -0.263989, 0.786082, 0.070470, 1.894719, 1.350412, 1.099869, -0.993918, 1.414590, 0.573419, 2.932836, -0.016200, 0.691190, -0.100618, -1.847517, 0.148742, 1.711149, 1.344696, 0.528612, 0.240685, 0.056179, -1.057796, 0.224391, 1.576352, 0.431725, -0.882278, -0.414146, 0.457552, 0.115228, 0.130289, -1.614006, -0.223021, -0.206695, -0.514814, 1.277581, -0.285408, 0.212759, 0.310641, 0.816631, -0.963366, 1.096609, -1.606960, -2.197240, 0.533688, 0.246146, 0.756828, -0.011778, -0.966283, 0.330602, 0.339213, -2.833889, 0.981150, 0.401649, 1.608680, -0.149028, -1.184632, -1.120780, 2.554785, -0.103904, -0.590322, -0.283587, -0.306560, 1.833481, 1.619629, 0.211605, -0.855365, 1.472379, -0.536808, 0.583507, -2.497387, 0.973580, -0.157328, -1.544685, -0.971840, -0.076906, -0.734143, 1.048273, -0.618202, 1.066276, -1.391232, -2.017163, 1.315817, 0.052725, -0.305364, 0.560728, 0.061801, -0.334106, -1.487299, 0.300490, -1.391574, 0.150850, 2.409557, -0.785812, 1.871326, -0.689655, -1.123547, -0.181523, 0.679675, 1.465403, -0.414365, -0.573622, 0.655910, -0.536994, -0.952197, 0.344626, -0.775310, -1.624268, 0.440370, 1.361848, 0.907110, 1.580106, -1.843565, -2.277341, 0.223075, 1.363717, -0.181681, -1.194740, 1.800969, 0.745480, -0.022662, 0.753384, -0.202818, 0.450608, -0.202665, 0.015551, 0.848263, -1.332502, -1.610753, -0.440217, -0.013902, 0.331831, 0.076969, -0.432007, 0.004285, 0.844261, 0.021520, -1.436764, -1.040345, 1.413915, -2.295185, -1.504336, 0.516062, -0.690990, 0.174442, -1.010930, -0.640563, 0.912199, -0.445570, 0.309442, 0.295108, 0.065307, -0.944036, 1.177341, -2.579061, 0.224461, -0.692597, -0.807598, 1.119077, -0.799513, -1.597313, -0.486598, -0.942711, 1.599133, -0.477514, -0.243264, -1.401661, 2.590568, -0.850183, -0.726237, 0.808298, 0.701974, 1.182504, -2.503388, 0.563365, -0.700096, 1.013726, -1.093055, -1.353508, -2.050322, -0.395432, -1.106166, 0.442008, 0.126735, 0.146241, 1.105834, -0.582651, -1.003392, 1.670487, -0.505278, 0.681395, -0.831672, 1.696720, -1.635841, -0.029340, 0.626222, -0.133568, -0.252423, -0.032456, -0.188895, -1.867173, 0.389565, -0.064804, -1.097485, -1.037388, 0.980732, 0.006252, 0.324799, 0.215653, -0.845706, -0.879958, -0.188449, 0.435036, -0.420798, 1.060125, -0.782730, 0.436548, 0.622283, -2.159028, -0.065711, -0.461755, -0.474489, -0.237337, 2.101768, -0.102596, 1.204424, -0.398999, 0.417247, -1.147279, -0.041210, -0.690293, 0.940710, 0.369132, 0.152205, -0.453747, 0.521802, 0.522020, -1.176257, -1.312602, 0.883596, -1.310921, 0.201306, 0.736911, -0.035096, 0.262262, 1.005876, -1.095837, -0.221436, -0.731409, 1.921631, 1.093958, -0.996529, 2.531799, 0.339551, 0.164544, -1.234846, 0.115341, 1.718389, 0.592166, -0.957037, 0.375323, -0.752938, 0.339998, 1.772868, 0.308762, -0.332778, 1.099014, -0.352587, 1.112800, 1.817775, 1.346195, 0.363108, 0.572155, -0.537148, -0.524231, 0.574929, -1.931772, -0.121058, 0.231916, -0.417285, 0.856178, -2.307453, -0.681542, -0.428241, 2.015118, 1.222568, -1.189097, 0.320776, -1.586086, -0.803611, -0.631086, -0.787811, -0.763455, 1.332323, -1.744979, -0.513420, 0.009968, -0.233562, -0.414958, 1.687855, -1.816096, -0.197809, -0.120512, -0.749333, -0.599856, -0.853907, -0.549308, -0.746824, 0.193030, 0.842770, -0.630714, -0.087920, 1.549089, 0.063435, 0.156443, -1.096698, -0.092505, 0.436376, 1.023474, 1.945389, 1.060387, -0.047346, -0.491574, -3.107158, -0.162199, -0.654434, -0.839902, -1.611216, 0.655551, -1.993571, 0.501641, 0.060401, 0.579875, -0.318467, -0.479131, -0.503904, -1.786214, -0.632906, -0.898245, 0.810476, -0.291970, 0.781052, -0.354128, -0.137852, 0.020861, -2.980033, -2.467308, 3.248988, 0.769333, -1.277803, 0.195233, -0.629824, -2.110365, -0.771585, 0.665294, -0.114479, -0.126156, 1.197691, -1.178257, -1.025301, 1.316922, 0.576820, 0.873429, 1.232653, 1.086190, -0.502308, 1.276919, 1.594745, 0.069099, -1.640265, -0.507401, -0.457820, -0.378698, -0.801550, -0.340641, 1.061987, -1.005059, -1.359442, -0.296423, -0.440606, 1.343948, 3.601963, -0.471028, -0.431254, -1.854352, 0.492221, -1.802688, -0.541839, 0.817351, 0.424584, 0.343729, -0.282624, -1.374837, 0.669363, 0.256170, 0.114702, -0.334808, 0.657935, 0.415879, -1.349547, 1.132646, -0.691232, 0.453704, 0.460107, -1.868068, 0.499664, 0.181180, -1.355696, -1.138416, -0.381197, 2.001418, 1.708960, 0.044123, -0.466129, 0.068088, -1.015682, 0.048115, 0.766242, 0.571629, 0.261429, -2.017072, -0.389690, -0.248452, 0.503475, 1.178972, 0.796413, -2.019134, -0.038661, -2.024781, -0.449754, -0.462462, -0.845293, 0.281609, -1.287524, -0.643044, -0.974084, -0.487627, -0.061769, 0.005352, -1.191404, 0.191261, 1.872713, 1.647781, 0.541221, 0.865159, 0.832549, -0.396948, 0.888545, -0.301831, -0.634035, -0.976573, -0.401235, 0.288665, -1.112158, 0.702702, 0.344124, 0.958150, 1.000932, -0.752015, -0.169528, -0.922914, -0.195354, 0.605455, -0.606762, 1.264344, -0.698644, -1.206924, -0.252085, -0.430854, 0.753019, 0.059876, 1.032917, -1.255816, -0.920785, 0.341915, 0.261305, 0.801605, 0.201012, -1.098300, -2.277757, 0.221435, 0.922482, 0.475740, 0.139282, -0.824001, -1.003964, -1.318819, 0.764163, -0.379532, 0.055431, 0.864374, -0.404923, 1.428192, 0.398141, -0.999472, -0.761646, -0.270459, -0.666218, -1.169136, 0.503402, 0.442895, -1.635198, -1.324296, -0.007931, -0.651689, -0.277081, -0.171389, -0.679336, 0.737968, -0.962461, -2.280588, 0.106312, -1.750325, 1.167918, 1.221264, -0.250264, 0.833922, -0.819252},
    {0.114305, 0.782820, -0.511199, -1.299537, 0.721580, -0.297203, -0.737400, 0.135082, 1.110920, 0.499974, 0.181067, -0.097156, -0.780121, -0.627972, 0.435640, 1.343149, 0.448159, 1.742962, -0.616001, -0.480569, 0.691422, -0.011326, 0.911284, 0.913596, 1.077745, -0.298397, 0.108493, -1.534913, 0.477257, 0.599880, 1.089449, 0.450366, 0.133039, 0.256512, 0.965653, 0.617620, -1.732956, -1.324328, -0.240924, -0.855260, 1.150216, 0.455867, -2.597806, 0.458366, 0.570211, -0.664398, -0.696565, 0.223240, 1.198226, -0.972849, -1.327834, 2.204117, -1.724689, 0.823349, 0.440358, -0.238982, 0.090282, 0.218679, -0.522100, -0.339315, 0.342894, -0.680131, -0.354894, -0.029712, 0.356783, 0.311284, 2.683992, 0.799544, -0.045339, 1.200930, 0.220896, 0.777019, 1.287754, -1.908089, -0.327144, -1.464652, 1.295759, 0.108615, -1.175049, 2.498562, 0.500035, -0.405089, -0.804038, 1.908922, 0.571017, 0.292750, -0.648124, 1.169664, 0.185647, -1.240725, -0.423929, -1.154899, 1.045349, -0.091756, 1.587447, 1.680305, -1.192420, 0.734133, -1.212184, 0.865501, 0.153736, -0.825582, 0.118175, 0.499213, 0.744480, 0.194956, -0.266888, 0.951412, 0.582971, 0.599415, 0.099550, -0.585851, 0.509302, 1.748034, -1.371269, -1.598741, 0.872138, 1.950970, 0.051085, -0.472679, -0.481572, 0.881464, -0.383242, 0.712797, -0.188064, -0.761375, -0.544826, 0.417440, 0.247071, -0.526953, 1.392689, -0.701186, -1.466884, -1.027316, -0.540245, -1.292539, 0.264370, -0.322122, 0.981917, -0.675928, -1.499623, -0.060361, 0.876975, -1.163889, -0.857809, 1.461184, 0.404381, -1.791853, -0.306365, -1.327533, -1.074328, 0.873639, 0.279146, 1.818206, -0.043811, -0.999724, -0.513259, -1.127708, 0.381107, -0.100213, -0.543189, -1.748690, 0.330552, 1.426339, -0.462144, -1.309434, 0.239220, -0.964825, 0.198861, 0.346021, 1.269911, -2.944658, 1.180969, -1.005826, -0.692655, -0.337046, -0.019290, 0.603181, 1.176781, -1.339028, 0.146103, 0.365700, 0.569817, -1.077517, -0.533468, -0.694176, -0.459420, 0.714408, 0.606150, 0.125542, 0.342152, 1.373240, 1.263600, -1.248319, -0.082745, 0.684817, 0.748945, -1.208164, 1.270374, 0.341011, -0.184822, 1.470687, 1.681858, 0.627006, 0.123307, 0.555441, -0.168087, 0.437066, -0.306828, -0.177100, 0.181785, 0.527847, -0.852752, 0.398081, -0.276849, -0.689390, 0.431603, 0.922748, -1.470763, -0.854753, -1.062082, 0.144885, 0.474391, -0.800308, 1.360769, -1.795580, -0.678905, 0.048144, 1.475817, -1.332131, -2.084723, 0.515163, 0.175317, 0.087500, 0.816334, 0.240205, -1.229079, 0.569136, 0.239468, 0.299144, -1.245220, 1.676064, 1.247518, 1.843727, 0.997901, 0.296933, -1.554067, 0.190140, -1.204062, -1.171731, 0.298582, 1.227821, -0.024812, -0.537708, -0.011608, 0.337636, 0.364139, -0.029974, 1.108298, 0.424513, 1.263783, 0.149703, -1.390564, -0.022167, 0.184468, -0.831267, 0.207911, 1.350048, 0.647577, 1.747729, -0.729011, -0.304171, 1.079003, 1.099272, 1.794294, 1.590708, -1.064231, -2.103896, 0.278659, 0.872833, 0.831320, -0.424769, 0.874190, 0.370714, 0.572152, 0.622989, 0.794322, 0.908394, -0.435894, 0.484032, 1.934812, 0.940844, 0.109076, -0.422699, 0.185026, -0.108298, 0.790621, 1.247103, -0.447310, 0.191248, 1.615509, 0.803644, -0.469009, -0.850184, 1.029930, -0.005389, 0.007994, 1.225058, -0.301262, 0.350152, 1.546886, 1.820227, -1.082639, 0.674483, 0.574633, 0.194664, 0.159717, 0.591873, -1.283342, 0.158645, -0.438809, -0.434637, 0.388436, -0.571205, -0.239970, -0.048247, -0.105748, -0.167969, -0.224124, 0.513258, -0.163003, -1.030005, -0.085393, -0.570010, 0.791928, -0.823869, 1.566651, 0.539159, -1.752171, 0.018636, -2.136044, -0.657116, 0.288276, -0.195157, 0.975679, 1.373174, 0.513063, 0.000812, 0.021883, -0.192433, 0.137688, 0.860142, 1.933985, 0.263780, 1.584138, -0.235033, -0.335351, 0.844041, -1.452379, 1.195610, 0.500717, -0.193168, -0.783116, -0.143114, -0.785251, -0.399549, 0.162389, -2.651927, 0.675585, -0.183819, -1.006195, -0.488799, 0.119303, -1.503324, -0.513155, -0.123568, 1.422792, -0.305077, 1.476751, -0.900573, 1.208584, -1.389044, 2.142129, -1.201572, 0.595223, 1.746593, -1.045187, 0.919503, -0.790214, -1.608480, -1.475536, 0.913066, 0.461367, -0.647169, -1.189408, -0.732509, 0.933640, 0.798021, -0.563177, -0.926131, -2.249031, 0.058382, -0.583463, -1.015486, -0.043432, -0.345392, 2.195113, -0.841117, -1.531760, 0.128081, -1.650795, 1.193099, 1.020101, 1.639730, -1.364457, -0.374632, -0.644267, -0.714824, -1.432895, -0.157428, 0.282403, -0.600462, -0.002546, 0.653442, 1.214708, 0.301883, 0.360582, -0.657992, 0.804614, -0.012758, -0.809062, 3.103279, 0.196177, 1.168754, -0.971216, -1.267155, 0.770227, -0.635016, -0.745959, -0.247769, -0.273220, 0.138957, -0.357729, 0.063055, 0.757566, 0.396712, -0.115856, 0.615548, 0.808214, -1.130871, -1.659632, 1.384782, -1.857725, -0.062985, 0.201558, 1.660089, 0.387610, 1.086319, 0.072739, 1.072662, 1.188276, 0.566714, -0.964577, -1.811056, 0.976686, -0.294127, -1.728300, 0.711508, 0.593577, -0.632815, -1.072152, -0.460511, -1.290043, -0.323731, 0.028006, 1.121076, -0.096229, -0.341590, 1.461523, 0.911795, 0.062373, -0.491514, -0.198881, -0.620667, -1.585218, 0.036897, 0.004620, 1.237785, -0.616491, -0.633638, 1.494181, 0.494695, -0.113992, -0.037653, -1.265154, 0.014675, 0.309886, -1.269053, -0.056857, 2.206272, -0.109221, 0.399095, -0.456234, -2.187224, 0.211500, 0.919289, -0.227945, -0.123460, -0.647333, -2.347874, 0.969156, 0.044779, 0.609033, -1.295296, 0.010758, -0.843946, 0.983615, -1.343822, 0.627426, -0.506366, -1.199306, 0.268389, -1.667828, -1.080956, 1.001278, 0.448674, -0.342433, 0.011042, -0.147585, -0.328194, -0.088040, 1.611157, -0.192295, 1.436867, -0.834881, -0.721604, 0.155552, 0.544020, -1.259291, 0.011720, 1.059618, 0.259348, -0.861020, -1.726479, 1.560093, 1.597699, 1.687353, -0.655306, -0.712148, -0.360228, 0.661347, 0.988433, 0.322547, 1.282054, 1.819618, -0.386734, -0.868564, -0.028131, -1.891726, 0.698353, 1.100876, 1.615296, -1.634603, -0.233595, -0.052907, 0.672512, -2.199063, -0.828250, -0.325982, 2.061398, -0.594231, 0.206866, -0.097380, -0.034535, 0.308784, 0.144936, 0.493022, -0.016074, 1.796130, 0.232576, 1.666523, 0.217370, -0.195178, -1.272947, -1.261007, 1.041000, -0.253801, -0.352576, -1.468570, -0.241373, -0.376167, 0.295326, -1.042211, -0.647382, -0.713863, -0.428345, -0.259076, 0.891245, -1.797464, 0.419830, -0.095839, -0.047835, -0.488042, 1.212056, -0.503563, -2.898718, 0.132697, -0.039773, -1.190846, -1.604168, -0.033143, -0.763370, 1.033003, 0.499212, -1.221688, 0.546764, 0.470553, -4.023607, -0.306711, 0.301176, 0.410268, 0.210940, 0.880498, 0.821291, -0.565384, 1.325124, 1.114899, 1.591820, 0.203559, 0.511237, -0.178130, -0.880904, -0.060351, -0.604996, -1.682529, -1.224538, -0.912130, -1.081596, 0.928146, -1.129536, 1.290985, -1.022153, -0.441895, -0.905181, 0.112354, 0.283415, -0.102623, -0.206262, 1.128102, 0.773709, -1.620097, -0.896579, -1.138811, 2.163988, -1.219168, -0.249396, -1.270387, -0.411683, -0.221087, 0.427704, -0.297810, 1.035585, -1.153361, -0.581683, -0.526003, -1.383400, -0.950037, -0.880018, 0.943866, -0.434658, -0.037371, -1.687602, -0.119934, 0.335480, -0.737127, -0.005434, 0.392094, 0.779734, 1.304159, 2.109439, -1.489635, 0.199267, -0.411352, 0.684267, 1.536575, 0.319978, 0.958062, -0.326348, 1.404466, 1.511561, 0.812725, -0.026804, 0.838976, 1.555532, 1.728930, 0.207870, 0.626480, 0.003616, -1.013967, 0.788547, 0.231721, -0.959127, 0.361901, 0.140459, -1.117802, 1.451193, 1.580810, -1.576348, -0.167928, 0.282553, 0.387636, 0.273806, -1.080395, -0.819376, 1.019034, 1.095654, 0.030828, 0.102033, 2.023464, 1.763727, -0.468838, 0.333451, -1.758163, -2.170319, 0.220665, -1.226895, 1.093110, -0.422364, -0.325760, -0.840629, 0.219466, -3.557926, 1.062174, 0.478990, 2.606587, -0.011605, -1.047838, 0.230124, 0.878168, -0.717289, 1.296338, -0.418895, 2.097060, -0.317697, 0.024715, 1.501301, 2.794117, -1.092377, -1.509505, -2.212686, -1.076094, -0.052596, -0.341696, 1.424125, -0.870865, -0.178013, 0.380015, -1.778530, -1.243619, -1.347617, -0.080938, -0.476150, 0.883000, -1.802536, 0.619845, -1.917863, -0.427298, 0.363011, -1.686056, 1.244994, 0.175947, -1.628397, 1.536042, -0.525846, 0.074855, -1.090441, 0.225880, 1.676145, 0.004014, 1.901705, 1.136999, 1.388880, 1.404953, -1.323384},
    {-0.103810, 1.510880, -0.382823, 0.979775, 0.037042, 1.632220, 1.307626, -1.032684, 0.944685, -0.451746, 0.916858, 0.514385, 0.919517, -0.932345, 0.326320, 0.605822, 1.628237, -0.458830, -1.584575, 1.143747, -0.000125, -0.428197, 0.882158, -0.678668, -0.646267, -0.324825, -1.338907, -1.388226, 0.488761, -0.323743, -1.095410, 0.418298, 1.057082, 1.381385, -0.469046, -0.391194, 1.402577, 0.842002, 0.023838, 1.279178, 1.838564, -0.459714, -0.137435, -0.051303, 1.648068, -0.099968, 0.226974, -1.112893, -0.217968, -0.712431, 0.308252, 0.743852, 0.464636, -1.290640, 0.558842, -1.378597, -0.095832, -0.238904, 1.340614, 1.110901, 0.152177, -1.601898, 0.481163, 0.969301, 0.031247, 0.373208, 1.105647, -0.135285, 0.609053, 0.839162, 0.854725, 0.016198, 1.731516, 0.276905, -0.728999, -1.150380, -2.254098, 0.932146, -0.028175, 0.293004, -0.222500, -0.460230, -1.437523, -1.244564, -0.549789, -1.145862, 0.091092, -0.224763, 0.341345, 0.463361, 0.034302, 0.775526, -0.959801, 0.333324, 0.509862, -0.454475, 1.306304, 0.616670, -0.017322, 0.602786, -1.059084, 2.345569, 1.683636, -0.888436, -0.535350, 0.408971, 1.253429, 0.540757, -1.856551, 0.746655, 0.515750, -1.265420, 0.300814, 0.692276, -0.380049, -0.281335, -0.325453, 0.512716, 1.294954, -0.936018, 1.032569, -0.165538, 0.154060, 0.365525, -0.047775, 0.424909, 0.796479, -0.176715, -0.568272, 0.478048, 0.558063, -0.516311, -0.853668, 0.228295, 1.759836, -0.668213, 1.240930, -0.671407, 0.226821, -1.066500, 2.879770, 0.749246, 1.881729, -0.155982, 1.720417, -1.644048, -0.594345, 1.096696, -0.263280, -3.028427, -0.321832, -0.961566, 0.575960, -0.009323, 1.287690, 0.402010, -0.602208, 2.519600, -1.697040, -0.531297, 0.758135, 0.673685, 0.480970, -0.364401, -2.787130, -0.818146, 0.653398, -0.399412, -0.657258, 0.248740, -0.766714, -1.671180, -2.596055, -0.032175, -0.395536, -0.895877, -0.746640, 1.086736, -1.494761, 0.818854, 0.988255, 0.978310, -0.932601, 1.281042, -1.519736, 0.038398, -1.705575, 0.294161, -0.150188, 0.286072, 0.828642, -0.039162, 0.161398, 1.499778, 0.979244, 0.054822, 0.349351, -0.825419, 1.073836, -0.906764, -1.609311, -0.261596, -0.387558, -1.082927, -1.784663, -0.614017, 0.303081, -0.569305, -3.036059, -0.459592, 1.519957, 0.381739, 0.328070, -0.309965, -0.059213, 0.801138, -0.178914, -1.168284, -0.805464, 0.404380, 1.302301, 2.174269, -0.062057, 0.995942, -0.013819, -1.889218, 0.679442, 1.572846, 0.395852, -0.612222, 1.041463, 1.229485, 0.405819, -0.180826, -0.236561, -0.952348, -0.254359, -0.440348, -0.567569, -0.193836, 0.426075, -1.042534, 0.489934, 0.324116, -0.088082, 0.332294, -0.020737, 1.724316, -0.710526, 0.309884, -0.271412, 1.221231, 0.829928, -0.261811, 0.284750, 0.573939, -0.642821, 0.713622, 1.475160, -0.614879, -1.770739, -0.282413, -1.483607, 0.856841, 1.706729, -0.605058, -0.145256, -0.184595, 0.341660, -0.406140, 1.118396, 1.166563, 0.063637, -1.361650, -0.515853, -0.808682, -1.160374, -1.078666, -0.956811, -1.293689, -0.841236, 0.760476, 0.683070, 0.529526, 0.010970, 0.059381, 0.571236, -0.224635, 0.575150, 1.540070, -0.999899, 1.948261, 0.199467, -0.233405, -2.777118, 0.568757, -1.260376, 0.515837, -0.475206, -0.071108, 0.582796, 0.799147, 0.012170, 0.042944, 0.389328, -0.277169, -0.463455, -0.680862, 0.403635, 0.023879, 0.253996, 1.668340, -0.629568, 0.257261, -0.920750, 1.565751, -0.103573, 0.110139, 0.404305, -0.266921, -2.269684, -1.618983, -0.273700, -0.554729, -0.061648, 1.142211, 0.190890, 2.185176, -0.188074, 0.406812, 1.016274, -0.656864, -0.137605, 0.971930, 0.376162, -0.248904, -1.359359, 0.237884, -1.557255, -1.204488, 1.316950, 0.464297, 0.464586, -0.162272, 0.620185, -1.769701, -1.497331, -1.389525, -0.233507, -2.081960, 0.695517, -0.288382, 0.037317, 0.802497, -1.949863, -0.130908, 0.403192, 0.885738, 1.235054, 0.258545, -2.279097, -0.738296, 0.048932, 2.697160, -0.778089, -0.967444, 0.269259, 1.296405, -1.228861, 0.772608, 0.322415, -0.745852, 0.356660, -1.718381, 0.711915, 0.014389, 0.319881, -0.087284, -2.085123, 0.059437, 0.213763, -0.843566, 0.829926, -0.309304, 0.778003, 0.211009, 0.327534, 2.450770, -1.090308, 0.975650, -1.281945, 0.063032, 0.338103, -0.886127, 1.035413, 0.976171, 0.152413, -0.912742, 0.065073, 2.333816, 1.002259, 0.127452, -1.191720, -0.466985, -0.787842, -0.967568, 0.297037, -0.243200, -0.189444, -0.163228, -0.518213, 0.307538, 1.251759, 0.905120, -0.041662, -0.668114, 2.102671, 0.445311, -0.427732, 0.581573, 1.814572, 0.850023, 0.575118, 0.780507, 0.209501, 2.092992, 0.203634, 1.048354, 0.275975, -1.827608, 1.719267, -0.332959, 0.585164, 0.473012, 0.137584, 0.726884, 0.191198, 0.612685, 1.235905, -1.110080, -0.146089, -0.190902, 0.179705, 0.416002, -0.319475, 0.248654, 0.705541, -2.603761, 1.481851, -0.981759, -1.546936, -1.592528, -0.629317, -0.707934, 1.422635, -1.352501, 0.784638, 0.088059, 0.426471, 0.565086, 1.540799, 0.124438, 0.336020, 0.412506, 1.548174, 0.324450, -0.349275, 0.925033, 1.333400, -0.424016, 0.078484, 0.353663, 0.366358, -1.504536, 0.291314, -0.706702, -0.459084, 0.982591, -0.904068, 0.187028, -0.232503, 0.102540, 0.497610, -0.905008, -0.265875, -0.280297, 1.240940, -0.305285, 0.731037, -0.940673, -2.012113, -1.287573, 1.446401, -0.370597, -0.271362, 1.599819, 0.911808, 0.414803, 0.237371, -0.434164, 0.035691, -0.030071, 0.122481, -1.337905, 0.306926, 0.126890, -1.467392, -1.063921, 0.176362, -1.353231, 0.820924, -0.473485, 0.218866, -1.781899, 2.123079, 1.838405, 0.264743, -0.339810, -0.072925, 0.313764, -0.236742, 0.054576, 1.070018, 0.076352, 1.032819, 1.571608, -0.191651, -0.567292, 0.307671, -1.241490, -2.585965, -0.654059, 0.976451, -0.285665, -0.612697, 0.595560, 1.281139, -0.296508, 1.400370, -1.994418, 0.071503, -1.338231, -1.463104, -2.290161, 0.894315, -0.156768, 0.203966, 0.740742, -0.794550, 0.823125, -1.256665, -1.773996, -1.144430, 0.256127, -0.099375, 0.132074, -1.213785, 0.813823, -0.277658, -1.126126, 0.471595, 0.280225, 1.198609, 1.424273, 0.061170, -0.048149, -0.365291, -1.383471, 1.436924, -0.074364, -1.925295, 0.067332, 0.275303, -1.045939, -0.203988, -0.159221, 0.863791, -0.314482, 0.665507, 1.036733, -1.588708, 0.668969, -1.416359, 0.009669, 0.107595, -0.221890, 1.214240, -1.418507, 0.510617, 1.776967, 0.826005, -1.084251, -0.799302, -0.680701, -0.907247, 1.268836, 1.967188, 0.362907, -0.027103, 0.535338, 0.277375, -0.154080, -0.696927, -1.152509, -0.855934, 1.487191, 0.374636, -1.371015, 1.611115, -0.167000, -0.483864, -1.653640, 1.526106, 0.965847, -1.559874, 1.494142, -2.603078, -1.112123, -0.651130, -2.129810, 0.151772, -1.224154, 0.884421, 0.698852, 1.053710, -1.664225, -1.915151, -0.995708, 1.947115, 1.708183, 0.370688, 0.690859, -0.016649, 1.187770, -0.802834, -0.433441, -0.454277, -0.368346, 0.089872, 1.156666, 0.519885, -0.233790, -0.013797, 2.015190, -0.203542, 1.333115, 0.008658, -0.364912, -0.170805, 0.685379, -0.754433, 0.979832, -0.537716, 0.130642, 0.314683, -0.410156, 0.222054, 0.035688, 0.100528, 0.390450, -0.177022, 0.096597, 0.927035, 0.488132, -0.213524, 0.689505, 0.613424, 0.098749, -1.049891, -1.843612, 0.625927, -0.258545, -2.111615, 0.487521, 1.199787, -0.948068, -1.211799, -1.289113, 0.318702, 0.042481, 1.668057, -0.445659, -1.105497, -0.198208, 1.954736, 0.306382, -1.190851, 0.768535, -0.659397, 1.837622, 1.040342, 0.688249, 0.481194, -0.297337, -1.213061, 0.781228, 0.105311, 1.234563, -1.501203, -0.401210, 0.837590, 0.387048, -2.415879, 0.163078, -0.226724, 0.788095, -0.986577, 2.001586, -0.002251, -1.170096, -0.460728, 0.226663, -1.074367, -1.625186, 0.641458, 0.375582, -1.348829, 0.099154, 0.515011, 2.163099, -0.178524, 1.143611, -0.697026, 0.478548, -0.201443, 1.014276, 0.485602, -1.209676, -0.525614, -2.113555, -1.656984, -0.954295, -0.081744, -0.317664, -0.063416, -0.984586, -1.043776, 1.283606, 1.106223, 0.163914, 0.141840, 0.964600, 0.411832, -0.927810, -0.639829, -0.323649, -0.249804, 1.070503, -0.557025, -0.322579, -0.653240, 0.485438, -0.351823, 0.240874, 1.570660, -1.670330, -1.204025, -0.395703, 0.331517, 0.081962, 0.102501, 1.172467, -0.272501, 1.457941, -0.693044, 0.478489, -0.054282, -1.725342, -0.424189, 0.721067, 0.181438, 2.945567, 1.244003, -0.906642, 0.238883, 0.081142, -1.242794, 1.037239, -1.482653, 0.439145, -0.860765, -1.987181, -0.227464, -0.249997},
    {-0.036329, 1.127495, 1.036442, 2.173525, 1.177571, 0.396244, -0.300865, 0.346848, -0.454083, 1.362766, -0.428923, 0.081575, 1.433541, -1.384281, 0.070256, 0.756538, -0.755697, 0.471259, -1.038239, 2.566196, 0.497344, -0.952132, -1.292954, -0.520602, -0.643798, -0.827724, -0.063546, 1.952006, 0.621607, -0.472302, 0.154078, 0.316015, -0.546175, -0.496171, 1.491498, -0.887208, -0.197206, 0.624317, -0.531669, 0.563790, 1.111292, 0.895260, -0.577199, 1.124955, -0.368439, 1.046989, -0.742098, 0.590471, -0.902376, 0.451571, 2.014869, 0.669501, -0.694040, -0.434685, 0.785697, 0.999518, 1.326783, -1.468069, -0.398854, 0.903699, 0.371020, -0.682262, -0.355110, 0.437460, 0.256203, -1.415346, -0.328293, -2.097762, -1.276405, 0.117860, 0.816403, 0.633413, 0.412681, 1.300717, -0.362855, 0.359429, -1.289302, -0.442030, 0.010201, -1.466424, -2.018082, -1.082830, -0.354148, 1.363207, -0.139086, -0.915737, 0.283134, -1.340255, 0.359421, 1.405441, -0.190627, 0.506235, 1.291353, -0.251058, -0.033838, 0.615835, -1.364988, 0.625526, -1.004927, 0.601139, 0.576044, -1.119436, 1.214215, 0.783387, 1.583885, -0.023018, 2.162226, 0.061990, 0.777090, 0.217615, -2.424816, 1.467558, 0.551955, 0.413329, -1.103047, -0.158036, 0.587683, 0.397134, -1.213468, -0.242971, -1.449382, 1.039493, 0.068337, 0.357802, 0.958976, 0.781010, -0.071130, -0.448049, -1.148848, -1.741041, 0.136216, 1.761200, -1.321659, -0.833335, 1.088431, 0.274224, -0.200432, 0.708541, -0.986548, -1.154176, -1.640050, -0.253223, -1.686935, 0.521986, -0.267707, 0.460018, 0.681149, -0.101398, 0.445712, -1.017839, 0.262061, -0.337663, 1.341014, -0.765929, -2.361774, -1.017970, -0.689694, -1.528251, -0.524265, 0.916168, 0.903172, -0.170866, -1.109421, 0.673866, -0.175075, -0.788672, -0.276005, 0.309755, -1.577199, 0.410711, -0.427653, -0.001184, -0.851044, -0.316002, -1.448710, 1.283392, 0.998359, -0.391162, 0.922976, -1.681010, -0.666123, -0.664089, -1.126285, -0.060103, -0.212402, -0.497511, 0.527781, -0.855237, 1.701154, -1.507949, 0.219863, -0.564128, -0.647052, -0.776287, 1.657483, 0.675416, 0.367692, -0.096056, 0.958694, 0.590125, -0.257098, -0.713663, -1.254013, -1.358505, -0.016374, -0.819515, -0.109044, -1.546701, -0.624562, -0.618457, -0.292797, -0.008335, -1.282071, 0.944098, -0.756736, 0.874532, -0.912305, -0.562207, -0.487825, 0.202092, 1.029514, -0.214916, 0.521753, -0.450178, -0.571070, -0.735111, -0.308897, 0.899750, 0.579165, 0.852479, -0.823306, -1.484001, -0.759036, 1.133754, -1.073686, 0.977185, 0.387058, -0.139578, -0.471905, -0.289070, 0.092226, -0.473270, 0.929394, 0.333682, 0.851296, 0.963438, 0.888050, -0.999057, -0.641737, 0.627466, -1.678713, -2.022671, 0.431118, 0.496233, -1.693230, 0.075106, -1.088844, 1.955233, 0.947587, -1.754742, -0.380689, 1.295512, 0.491815, 0.280892, 1.773347, -0.109049, -1.597653, 1.332415, 1.259035, -0.807287, -1.002804, -0.800824, 0.180215, 0.732754, 0.392077, -1.451952, 0.186459, 0.105842, -2.217625, 2.628297, -3.590568, 0.935897, -1.248057, -0.300215, 0.328240, 0.757768, -0.677424, -0.232043, 0.771489, -0.978212, -1.151436, -1.084580, 0.511054, -0.725072, 0.075925, -0.185071, 1.487892, -0.006158, 0.443132, 0.851838, 0.140573, -0.252350, 1.198948, -0.071079, -0.118494, -0.225062, 0.752093, 1.687766, -0.288369, 1.819726, 0.034523, -0.977608, -0.758104, -0.568479, 0.367536, -0.631498, 0.247437, 0.339119, -0.299944, -1.210898, -1.288809, -0.412022, -0.097280, 0.709366, -0.189558, -0.354938, -0.385793, 0.951443, -0.353322, -0.540889, -0.453102, 0.196516, 0.129341, -0.880793, -1.285193, -1.403734, -0.676793, 1.483432, -1.133579, 0.184830, -0.143667, -0.259762, -1.266957, -1.576529, -2.960360, 0.376208, -0.388514, 0.673564, -0.660034, -0.212840, 0.897843, 0.346136, 0.747069, 0.232463, 0.345931, -0.274454, 0.419595, 0.369551, 1.894645, -1.114399, -0.535565, 0.601282, 0.705919, 0.404891, -0.116383, 1.410667, 0.340965, -0.601677, -2.290463, -0.790969, 0.113705, 0.569369, 0.350184, 0.391841, -0.003145, -1.277180, 1.222309, 1.463374, -0.326156, 0.199901, -0.430119, -0.721425, -0.736299, 2.122999, 0.017923, -0.955327, -0.627296, -1.310895, 0.619059, 0.559827, -0.959019, -0.420130, 1.501619, -0.702540, 0.486378, 1.391421, -0.457311, -0.689041, -0.167597, 0.385100, 0.815654, -0.749841, 0.070379, -0.561894, -0.671110, -0.656781, -0.832125, 0.726400, -1.066282, -0.730365, 0.451512, -0.581033, -1.127005, -1.352480, 0.443077, -0.107795, 0.756225, -0.237300, -0.373219, 0.105287, 0.296123, 1.380316, 0.153071, 0.583105, -0.601584, -1.285476, -2.627552, 0.022793, -0.566139, -0.693243, -0.416455, 0.289261, -0.472056, -0.412120, 0.168603, 0.349634, -2.040005, 0.113937, 2.177519, 0.144180, -0.521181, 0.876384, -0.274852, 0.347532, -0.514633, 0.367130, 0.805602, 1.488491, -0.105793, -0.242271, -1.936995, 0.284850, 0.120786, -1.750213, 0.523144, -1.817979, 1.907464, 1.198361, 0.417183, 0.655673, 2.471453, 2.515424, 0.859892, 1.173806, -0.950643, 0.933314, -0.822677, -1.508363, 0.027561, -0.179231, 1.505694, 0.344386, 0.525961, -1.486225, 1.211645, -0.024859, -0.557491, 0.849143, 0.238518, -0.269670, 1.447301, -0.458799, 0.247019, 0.171110, -0.934105, -0.185919, 1.230477, 0.655338, -0.460486, 1.239030, 0.845776, -2.502876, -0.390627, 1.530994, 0.145887, -0.679902, 0.587409, 0.442662, -0.261549, 0.020294, 0.909828, 1.095118, 0.916222, 0.430795, -0.161650, 0.460153, 0.275925, 0.224921, -0.725526, -1.082114, -0.379779, 1.175179, -0.586634, -3.188076, 1.149723, 0.927694, -0.307308, 0.370278, -0.802013, 0.602172, 0.686272, -1.343235, 0.370701, 1.225052, 0.380194, -1.500944, -1.111502, 2.588731, -1.639160, -0.840424, -1.341097, -0.282775, 0.117501, 2.264246, 0.363878, 0.820846, 2.693430, -1.262877, -1.576712, -0.852147, 1.161357, -1.586859, -0.870385, -0.306346, 1.184911, -0.967990, -0.129899, -0.154461, -0.032605, -0.548414, 2.053015, 1.824422, 0.531084, -2.890078, 0.207657, 0.837536, -0.644256, 0.091508, -0.440268, 0.075553, 0.536015, 1.577807, 0.671364, -0.029418, -1.504346, -0.916109, 2.139387, -0.148601, 0.949714, -1.446868, -0.467463, -0.646124, 0.461404, -1.925758, 0.889332, -0.227503, 0.017297, -0.684153, 1.308565, -0.225690, 0.938821, 1.323414, 0.597123, -1.104343, -0.693731, -0.449152, 0.856091, -0.012102, 0.592856, -0.004005, -0.392968, -0.931250, 0.985640, 1.227234, 0.649084, 0.632351, -0.200090, 0.514736, -0.476338, -0.678688, -0.456348, 1.946130, -0.731540, 1.065631, -0.712870, -1.129354, -0.426056, -0.789346, 0.169899, -0.066707, 0.133726, 0.351247, 0.957511, 1.063770, 0.309763, 0.370374, 0.056361, -0.218871, 0.157292, 0.845006, 0.465170, -0.196283, 0.109963, 1.071885, -1.052967, 1.054121, 1.081053, 0.572216, -0.324657, 0.693010, -0.460446, -1.293318, 0.033575, -1.227901, -1.493367, 1.535065, -1.912154, 0.394727, 0.837598, -0.371270, 0.134801, -1.543180, 0.439904, -0.446604, -0.727409, 0.215583, 0.293557, -1.776123, -0.742431, -0.241658, -0.030278, -1.567419, -0.541370, 0.104557, -0.481992, 0.114678, 0.440328, -2.343819, 1.592762, -2.422439, -1.415842, -0.218540, -1.045120, 0.114040, -1.513465, -0.666775, 0.717964, 1.694966, -0.693309, -0.140413, -0.702486, -0.872531, 0.345970, -0.335604, 0.741047, -0.056387, 0.043234, 2.478861, -0.826064, 0.955980, -0.232779, 0.407289, 1.480624, -1.229098, -0.015355, 0.385092, -0.246801, 0.319676, -0.550830, 2.526741, -0.556975, -0.019138, 0.113088, 0.950229, -0.388673, 1.236142, 0.600657, 1.050845, -0.421701, 1.197905, -0.521578, 0.178681, 0.177645, -0.868278, -0.817482, -1.855125, 1.257096, 0.062264, 0.888232, 1.569475, 0.858629, -0.828551, -0.235992, 0.619727, -0.249029, -0.241782, -0.382569, 0.211292, 2.172654, -0.337491, -0.292557, -0.421531, 1.004727, -0.308124, 0.807760, -3.147145, -0.801124, 1.530534, -0.643064, -0.548568, 1.258335, -0.976317, 0.887921, 0.763394, -1.859288, 0.732973, -1.247601, 0.434198, 0.401757, -0.837536, 0.387555, -0.701625, -1.385437, -1.529747, -1.403171, -0.846829, -0.309293, -1.002339, 1.853486, -0.193859, -0.700566, 1.489667, 0.721525, 1.955546, 0.202213, -0.077543, -1.075770, 0.320319, 0.580399, 0.102681, -0.778639, 0.525167, -0.521882, -0.924714, -0.846258, 0.650274, -1.349320, 0.285210, -0.871455, -1.009865, 0.313163, -0.734363, 1.126511, 0.543512, 0.534313, -0.378427, -1.272004, 0.930503, 0.400875, 0.408537, -0.215853, 0.882642, 1.102358, -0.646232},
    {0.823453, -0.610978, -0.480171, 0.193405, -1.297176, 0.060996, 0.046919, -0.686127, 0.861325, 1.456917, 0.522917, -0.327494, -1.586740, -0.544231, 0.332869, 1.126673, -0.219513, -1.237238, 0.113983, 1.075846, 0.798011, -0.083455, -0.341863, 1.028066, -0.781753, 1.693027, 0.204253, -1.115675, -1.420352, -0.708274, -0.210089, -0.714762, -0.958618, 0.113508, -1.460371, -0.074657, -1.150672, 0.189187, 1.201154, -1.135059, 0.911210, -0.622132, 0.808149, -0.009506, 0.639821, -1.444172, 1.125984, -0.738260, -0.963016, 0.259079, -0.531304, 0.674128, -0.827926, 1.231381, 0.909929, -1.316273, 0.951439, -1.490325, -1.580194, -0.275851, 0.031222, -1.021427, 0.709174, 0.089557, -0.285464, 0.205490, 0.738982, 0.042000, -1.234304, -0.019560, 0.162124, 0.709115, -0.898610, 0.777152, 1.898134, 1.371199, -1.151915, -0.291311, -0.549937, -1.299607, 0.500236, -0.077996, -0.126739, -0.200613, -1.672442, 2.047724, -0.724961, -0.321319, 0.623220, 0.638551, 1.465492, -0.741487, 0.239801, -0.773911, 1.517909, -0.096817, 1.115895, -0.572691, 0.154104, -0.515796, -1.803708, 0.898037, -0.581524, -1.433503, -2.728205, 0.298730, 0.602515, 0.722014, 0.380314, 1.676853, -0.395389, 0.035690, 0.374818, -0.283580, -0.262638, -0.388789, -0.025715, -0.577546, -1.440676, 0.518826, -0.118653, 1.382157, 0.420458, -0.201179, 0.061569, 1.020403, 0.628796, 1.339853, 1.224330, -0.606108, 1.266357, 0.737299, -2.720233, 0.197729, -0.532061, 0.175011, -2.034693, -1.754685, -0.982328, -1.034083, -1.356012, 0.076726, 0.407653, 2.291590, 1.798682, 0.501242, -1.621858, -0.474624, 0.738474, -0.056702, 0.355096, 1.518943, -1.250632, -0.349501, -0.019492, -1.801749, 0.832342, 1.038912, 0.704683, -0.220915, 0.554415, -1.026967, -0.803166, -2.370494, -1.749817, 0.152108, 0.122625, -1.516735, -0.275392, -0.290574, -0.958544, 0.581137, -0.383126, -0.266132, -0.494560, 0.976480, -0.279103, 1.035044, -0.840749, 0.275018, -1.307409, 0.753800, 0.316171, 1.361309, -0.667979, -1.355709, -0.083150, 0.763248, 0.270450, -0.276233, 1.924542, 0.676277, -0.631722, 0.148487, 1.493201, 2.270223, 1.312964, -1.429685, -0.815141, -0.178396, -0.251404, -1.152968, -0.593372, 0.352730, -0.587385, -0.370020, 0.269018, 0.041231, -0.261825, -0.830716, -0.151561, 1.213193, 0.771364, -1.759014, -0.066154, 0.004671, 0.180340, -0.329659, -0.619416, -0.607037, 0.888718, -0.800591, 0.062301, -1.052734, -0.742575, 0.507875, -1.072748, 1.166229, -1.531125, -0.183790, 1.633928, 0.226485, -0.003452, -0.649563, 0.059045, 0.756814, 0.531231, 0.614963, -0.776113, -0.952226, -1.049976, -0.283830, -1.133995, 2.417967, 1.869810, 1.095939, 0.649579, 0.479476, -0.970543, -1.900624, -1.169706, -1.109261, 0.857900, 0.269193, 0.053124, -0.457962, -1.164033, 0.719176, -0.774260, 0.539040, 0.761869, 2.139738, -0.107025, 0.034341, -1.236721, -0.154190, -0.654664, 1.383062, 0.413633, 0.786846, 0.522213, 0.277096, 0.194654, -1.022563, -0.159895, 1.229638, 0.741301, -0.632243, -0.216530, 0.131481, 0.319217, -1.883401, -0.662702, 0.200940, -0.720588, -0.239825, -1.779691, 1.153799, 0.353298, 0.782635, -1.543623, -0.303974, 0.401196, 0.681712, -0.350431, -0.995327, 0.218547, -1.940467, -0.690849, 1.317366, 1.358964, 1.218134, -0.107403, 0.355338, 0.150357, -0.944478, -0.322307, 0.542862, 0.555638, -0.758864, -1.242447, 0.516448, 0.109988, -0.336535, 0.523859, 0.920968, 2.340835, -0.530459, 0.343525, -0.203652, -1.079000, -0.711461, -0.056675, -1.738919, -1.300323, 1.954369, -0.905835, -0.072538, -0.072122, -0.453421, 1.292579, 1.542650, -0.154049, 0.383430, -2.288254, -0.558810, -0.185526, -0.814739, 0.663633, 1.841334, -1.171458, 0.752224, -0.174196, 0.609827, -0.918940, -1.399747, 1.893541, 0.182147, -0.643019, -0.036103, 1.331636, 0.081540, -0.112579, 0.699996, -0.439122, -1.976980, 0.459284, -1.088519, -1.977031, -0.458064, 1.217180, 0.147820, 0.583050, 1.025428, 0.187021, 1.078206, 0.124067, -0.005522, 0.544272, -0.187708, 1.318813, 0.035519, 1.619496, -0.305410, 0.472486, 1.597009, 0.298806, 0.029525, 1.220830, 0.113669, 0.229911, 0.969422, 1.779883, 0.232969, 0.110871, 0.052143, 0.116882, 0.554430, 0.014113, -0.198735, 0.293701, 0.336801, 0.442397, -0.732695, -0.592061, 0.291566, -0.315132, 0.270849, -1.554140, 0.580221, 0.369408, 0.088640, 0.681315, 0.068259, -0.910431, -0.169308, 1.290861, 0.918057, 0.157513, 0.576600, 0.637539, 2.094133, 0.582849, 0.624605, -0.335526, 0.905604, -0.637977, 0.477435, 0.082013, -0.269130, -1.615323, -0.327309, -0.206054, 0.859723, 0.535707, 0.486117, 0.606319, 0.593482, -0.995294, 0.558938, 2.019190, 2.214489, 1.768228, -0.025639, -1.778965, 0.023679, 1.841343, 1.316979, 1.157527, 0.944372, -2.789270, 0.773126, 1.585658, 0.743400, -1.281215, -0.821272, 0.751009, -0.457255, -0.985580, -0.113501, -0.208603, -0.136553, 0.325615, 0.778362, -0.589888, -0.402487, 1.232505, -1.599453, -1.460440, -0.139548, 1.000552, 1.999486, -0.151472, 0.071754, -2.545343, 0.723590, 0.578640, 1.482101, 0.350534, 0.645840, 0.640423, 0.035285, 0.084737, -0.295363, 1.500230, -2.303962, -1.894103, -0.941584, -1.257543, 0.023124, 1.429702, 2.044856, -0.038538, -0.579583, -0.654243, 1.691985, 1.088053, -0.737167, -0.649192, 1.295806, 2.566739, -0.192040, -1.163071, 0.274649, 1.216127, -0.535136, 0.040380, -0.721452, -0.337214, -0.680194, -0.702199, -0.588108, -0.337279, -0.182171, 0.200560, -1.035134, 0.412448, 0.241041, -0.517676, -0.928218, 0.165204, 0.149837, 0.005686, 0.110040, -0.393378, -0.602872, -0.676172, -1.529438, -0.974805, 0.834008, -0.284435, -1.242707, -0.858897, -0.523568, 0.312670, -0.070118, -0.516523, -0.940304, 0.610525, 1.330888, -1.132339, -1.463954, 0.650597, -0.399185, -0.668927, 2.292744, 0.140628, 1.127124, -0.022504, 0.937556, -1.605228, -1.302876, -0.182933, -0.070197, 0.301115, -0.185705, -0.640163, 0.203306, -2.582024, 0.979231, -0.470093, 1.200653, 1.482778, 0.730311, -0.797028, -1.488517, -0.073697, -1.523522, -0.767049, -1.667557, 0.009231, -0.079014, 0.129243, -0.446710, 1.033151, 2.119286, -0.030173, -1.071304, 0.373707, -0.078331, 0.606578, -0.539042, 0.498363, -0.802021, 0.321453, 0.569175, -0.299923, -0.031889, 0.438990, 0.293973, 1.644396, -0.489287, 0.929125, 1.112488, -0.602472, -1.225943, 0.948959, -1.882644, -0.721447, -0.294240, 0.133780, -0.845823, -1.669896, -0.241292, 1.593593, -0.230800, -1.605275, 0.801811, -1.904086, 0.539731, 1.221626, 0.330753, 0.202926, 0.707765, 1.029674, 0.804138, 0.517553, 1.609563, 1.551729, -1.232386, 0.956010, -1.146453, -0.655036, 0.088230, 1.717968, -1.004193, 0.036763, -2.065331, 0.950536, -1.633161, -2.631819, 0.926546, 1.791444, 0.405308, -1.303163, -0.056717, 0.817554, -1.980528, -1.118354, 0.185880, -1.261902, -0.564218, 2.053713, 2.197936, -0.442822, -1.303367, -0.913109, -0.398188, -1.244157, 1.435644, 0.200047, 0.799165, 0.286893, 0.106789, -0.465522, 0.240914, -0.652578, -0.745903, -0.841881, -0.009261, 1.007896, 0.427157, 0.222578, -0.760756, -0.890867, 1.482069, 1.055542, 1.732758, 0.381877, 0.651342, 0.651553, 0.503170, -0.242479, -0.763963, 1.066169, 0.442333, -1.673280, -0.269857, -0.699585, 1.075310, -0.386170, -0.552551, 0.478838, 0.464599, -0.855852, -0.264156, 0.495208, -0.850044, 0.865059, -0.284115, -1.139223, -0.384650, -0.436771, 0.842269, -1.945784, 1.263874, 0.681234, -0.970000, -0.398111, -0.309525, -0.387961, -0.510592, -1.855973, -1.736679, 1.287172, 0.817156, -0.441781, 0.212431, -0.372122, -0.356749, -0.647769, 0.619076, 0.566609, -0.357139, -1.162202, -0.945942, -0.180392, 0.610449, -0.017235, 0.163488, -0.154931, -1.317159, 0.346517, 1.483204, -0.643026, 0.528404, 1.160905, 0.355201, 0.096599, -0.698632, 1.017671, -0.637894, -0.183216, -1.232371, 0.407613, 0.328111, 0.888321, 0.270940, 0.316175, -0.460489, 0.845911, -1.268133, 1.029888, 1.475182, 1.115739, -0.201198, -1.485687, -0.595738, 0.188173, 0.862307, -0.523100, -0.833261, -0.388524, -0.499477, 0.961068, 0.216476, 2.568931, -0.660591, 0.833833, -0.146116, -0.647519, -1.278505, -0.341018, -0.189298, -0.574789, 0.528277, 0.086105, -0.172488, -0.916057, -0.134516, 2.606578, 1.597456, -0.448086, -1.498513, -1.763188, -0.093986, 0.738622, -0.238505, 1.479397, 1.593891, 1.332367, -0.146452, -0.327606, -0.256520, -0.625814, 0.030859, -0.321761, -1.021009, 0.165941, 0.340817, 0.211505, 0.195031, -0.368398, 0.383257},
    {0.106875, -0.132760, 2.080100, 0.158498, -1.178764, 0.799785, 0.484064, 0.201795, -0.199433, 0.216244, -0.115519, -0.001439, -1.873554, -0.263721, 1.517602, -1.472601, -0.101876, -0.466209, -1.314912, 0.386126, -1.302842, -0.390786, -2.147355, 0.695638, 1.365256, -0.934911, -0.494787, 1.065562, -0.306766, -0.609952, 0.663646, 0.267292, -0.574173, 1.842717, -1.861168, 0.383436, 0.200677, -1.513904, 0.752044, 0.439530, -0.814001, -0.389592, -1.348882, 0.369202, -1.042171, -0.526476, 0.338739, -0.153411, -1.159576, -0.181417, 0.829486, -1.051116, 0.049200, 1.586073, -1.005644, 0.456001, 0.663425, 1.207435, -0.891410, 0.359936, 1.320378, -0.624859, 1.077045, 1.494140, -0.370981, -0.294789, -0.564767, 0.034258, -0.218177, 0.496603, 0.853096, -1.960495, 2.135306, 0.961173, -0.713887, 0.698477, 0.605075, 1.123854, 0.482619, 0.014572, 0.783104, 0.860670, 1.417211, -0.492713, 0.633471, 0.116354, -1.214876, -0.757328, 0.417848, -1.532536, -0.856066, 0.780790, -0.880344, -0.125362, 1.472591, -0.575592, -1.137881, 0.275803, 0.707322, -0.680485, -1.783531, 0.181293, -0.208313, 0.872622, -0.369345, -0.751544, -0.561533, -0.882302, 0.955952, 0.237598, 1.794886, -2.423440, -0.298974, 0.541354, 0.280747, -1.344318, -0.587850, 1.333971, -1.543305, 0.043675, 0.195025, -0.436617, -1.511055, -0.959375, 0.581756, 0.030811, 0.691657, 0.324722, 0.402562, 1.413312, -2.539358, -0.311349, -0.290056, 1.097724, -1.200011, -0.297977, -0.465026, -0.195040, 0.196519, -1.232630, -0.613187, -0.518477, 1.024669, 2.202388, -1.417129, 0.022291, 0.356808, -1.680988, 0.664181, 0.699323, 0.661567, -0.029601, 1.360824, -0.126170, -0.220169, -1.084109, -1.839141, 1.234566, 0.445543, -0.108336, 0.069279, 3.104780, 1.294049, 0.589880, -0.407382, -0.825309, 1.268600, 1.171715, -0.127217, -0.156662, 1.622703, -1.957101, -0.856449, -0.530987, -0.269565, -0.552539, -1.130241, -0.545385, -1.029905, -1.414868, 0.098716, 2.554621, 0.016016, 0.843535, -0.356937, -1.229969, -1.563193, -0.555322, -0.189676, 0.471207, 0.445020, 1.315606, -0.554244, 0.307010, -0.514048, -0.634499, 0.727468, 1.120665, 0.003070, -0.756803, -1.031761, -1.880307, -1.971591, -1.689148, -0.865741, 0.018080, 0.245075, -0.365027, -0.303372, -0.486000, 0.070736, -0.766047, 1.709932, 0.591416, 0.665162, -0.863246, 1.360112, -2.331343, 0.510971, 0.057582, 0.862941, 0.234455, -0.755547, 0.488469, 1.613933, -1.367369, 0.468996, -1.262554, -0.522932, 0.245897, -1.471340, -1.022636, 0.256973, 0.639828, 1.285353, 0.662958, -0.144978, 0.807535, -0.165406, 0.020946, -0.495604, 0.515493, -0.584108, 1.886564, 0.199259, 1.145407, 0.542928, 0.128150, 0.821214, 0.438665, -0.329141, 0.159169, -0.338224, 1.332104, 0.074723, -0.299945, -0.359769, 0.197922, -0.481811, -0.126344, -0.144119, 1.646649, -0.271875, -2.235785, 1.174979, -2.750867, 1.552874, -1.494743, -0.273872, 0.794863, 1.024015, 1.117827, 0.328972, 0.626208, 0.527729, -0.321711, -0.744337, 0.655630, 0.507166, -0.590173, 0.412396, -0.684987, -1.005314, 0.837656, -0.303205, -0.510280, 0.017031, 1.113237, -1.238983, 0.969518, 0.037422, -1.091676, -1.113230, -0.952701, -1.406820, 0.174550, -0.108127, 0.486316, -0.447531, 0.618320, -0.135562, 1.915846, 1.433473, 0.983596, 1.619720, -0.314496, -1.091221, 0.836507, -0.183605, 1.561303, -0.247327, -2.425112, -0.242335, 0.805375, 0.437308, 0.803516, 0.481162, -0.166828, 0.045686, 1.443040, 0.135409, -1.667342, 0.364722, 0.928334, 0.457981, -0.404842, 1.061393, 0.809723, -0.293498, 1.350109, 0.763840, 1.039189, 2.399717, -0.806436, 0.257748, 0.192637, -1.395204, 0.781488, -0.753143, 1.753555, 2.705102, -0.596377, 1.111017, 2.014668, -0.479718, -2.235016, -0.301920, -0.845992, 0.182292, -0.859877, -1.139709, -0.072368, 0.911878, 0.061184, 0.340286, -0.232615, -0.574949, -1.891753, -0.207121, -0.946633, -0.853140, -0.971175, -0.820796, -0.477596, 0.417797, -0.413801, -0.565801, -0.824190, 0.296306, -2.085468, 0.615265, -1.545226, 1.310714, -1.332798, 0.651126, 0.071147, 0.222512, -0.545228, 1.232650, -0.938630, -1.169711, 1.147563, -1.402708, 2.267409, 0.669409, 0.082565, -0.406610, 0.906595, -0.808887, 0.083863, 0.384697, -1.228223, 0.426376, -1.896889, -0.656655, -0.354594, 0.275704, -1.057604, 0.079884, 0.462222, -0.650049, -0.854236, 1.478892, -1.288700, -1.942891, 0.722713, -0.079865, -1.969498, 1.038985, -0.204498, 0.870098, 0.939251, -0.463927, 2.655492, -0.107593, -1.824217, 0.090691, 0.407920, 1.242061, 0.144289, 0.064515, -0.396646, -1.135850, -0.081622, -1.001902, 0.496334, 0.138976, -0.020623, -1.107551, -1.080374, -0.191999, 0.129357, -0.176461, 1.474666, 1.061438, 1.289636, -0.414821, 2.964134, -2.095223, 0.097173, 1.002853, -0.721258, -1.235485, 0.905991, -0.541517, 1.356984, -0.364575, 0.111057, 1.380137, -0.015837, 0.437674, 1.684436, 2.022293, 0.991613, -2.238297, -0.392425, 2.284446, -0.492370, 1.189438, 1.241020, -1.055531, 0.428279, -0.946312, 0.238543, -1.197352, -1.877440, -0.698851, -0.308632, -0.812615, -0.711228, -0.073020, 1.194458, 1.088664, -0.381153, 0.651413, 0.526428, 0.285679, 0.642570, 1.428481, 0.337572, -0.249529, 0.139174, -0.014179, -0.644061, -0.573041, -0.451588, 0.909295, 0.433930, -0.039755, -0.071764, -0.995825, 0.335302, -0.007779, 0.158495, 0.394190, -0.683313, -1.083216, -2.842898, -0.473198, 0.313020, -0.193330, -1.233906, 0.509121, -1.845224, -0.639678, 1.711441, -0.829352, 1.004009, -0.080347, -0.324712, -1.033890, 1.426052, 0.776941, -0.473108, 0.034865, 0.758592, -0.125657, 0.436747, 0.356174, -0.756936, 1.476043, -0.516713, -1.028357, -0.637547, -0.255379, -1.220411, -1.265543, 2.451449, -0.732692, -1.654953, -1.815309, 1.013555, -0.025669, -1.543721, 2.506335, -0.577714, 1.507768, 0.385448, -0.277095, -2.131497, 1.349465, -0.791462, -0.696259, -0.121207, 1.396925, 1.064511, -0.807984, -0.113707, 0.849319, -0.334016, -1.270590, 0.578373, 0.916317, -0.329543, 1.784934, -1.116569, -0.617628, 0.328251, 0.082123, -1.321333, 1.620624, 1.498147, 0.640320, 0.549767, 0.023727, -1.440827, 0.532410, -0.336991, 1.475297, -0.334436, 1.037132, 0.099002, 1.110881, -0.108320, 1.027647, -0.588291, -0.426551, -0.007825, 1.129321, -2.155826, 0.943347, -1.291575, -0.862506, -0.323833, 0.395060, -2.145458, -0.595606, 0.021199, 0.228030, 0.099694, 0.833705, -0.853521, 1.454252, 0.355063, -0.706610, 1.035869, -0.417011, 0.761770, 0.128255, 1.461974, -0.184835, -0.048315, -0.722896, 0.484958, -0.195568, -1.781532, -1.314427, -1.043322, 0.912492, 1.142520, 1.055182, -0.286492, -1.110673, -1.151218, 1.335561, 0.463696, -1.525422, -1.683106, 0.484159, 0.987403, -0.561549, 0.812016, -0.097164, -0.083360, -0.168517, -1.377871, 0.837948, -0.322165, -1.216845, 0.086692, 0.937870, 0.372641, -0.106424, -0.382993, 0.462097, -1.403322, 0.469220, 0.715922, 1.264510, 2.288106, 0.844385, 0.948685, -0.951552, 0.019029, 0.165322, -0.028915, 1.885474, -2.359123, 0.193460, -0.680246, -0.170909, -2.111752, 0.852068, -1.529843, 0.511788, -0.456416, -0.077885, 1.279943, 0.797654, 0.819434, 0.736304, 1.552179, 0.932896, 2.419797, 0.572911, -1.224575, -1.532940, 0.232903, -0.239503, -0.049380, 0.544532, 0.010048, -1.165252, 0.893140, -1.775783, -0.529385, 0.535436, -0.877678, -1.170956, -0.793770, -2.259563, -1.531747, -0.114743, 1.015288, 0.573063, -0.333520, -0.804238, 1.017108, 0.824371, 1.053007, 0.704596, 0.177324, 0.462224, -0.712672, -0.787129, 1.746857, 0.288378, -0.586405, -2.448369, 1.673210, -0.035360, -1.164986, 0.149451, -0.346783, 0.713382, -0.636586, -0.972266, -0.048625, 0.263385, -1.096797, 1.119589, -1.070481, -0.218550, -1.313647, 0.591297, -0.624359, -0.190578, -0.508419, 1.037267, 0.962123, -0.126452, 0.852298, 0.833647, 0.785550, 0.166233, -1.755855, -0.073532, 1.588046, 0.670097, -0.573790, -0.870968, 0.939521, -0.518437, 1.599456, -0.189640, -0.076815, -0.456613, -0.606082, 0.167984, 0.785532, -0.897874, 0.368485, 0.314621, 1.030718, -0.353107, -0.838856, 1.841689, 1.911319, -0.253580, -1.520981, -0.845514, 1.257352, 0.517529, -1.678927, 1.563199, 0.034368, 0.499400, 1.125835, 0.237286, -0.846582, 0.030402, -0.101022, 1.563147, 0.222410, -0.954466, -0.003821, 0.624254, -0.934532, -0.763879, 0.307421, -0.109165, 0.652311, 0.055529, 0.024024, -1.415308, -0.608179, -1.829404, -0.374324, 0.022561, -0.036736, 0.484477, 0.663277, 1.152236, 2.408176},
    {0.149519, -0.690214, -0.806655, 1.092775, -0.217169, 0.587300, 0.521358, 1.186485, 0.428323, 0.403096, -1.359265, 0.949634, 0.804467, 0.932145, 0.158588, -0.131692, 1.985689, -1.665188, -0.050078, 1.068230, 0.080874, 0.844292, -0.355150, 0.995526, 0.073825, 1.237163, -2.401638, 0.897549, 2.491379, -0.701445, 0.601547, 2.749090, 2.052096, 1.173549, 1.728678, -0.020753, -0.445128, -0.039061, 0.177083, 0.733013, -0.571306, 1.138438, -1.360528, 0.232563, -1.993716, -1.819125, 0.507825, 0.983593, 0.530886, 0.599576, -0.304235, 1.222031, 0.011193, -1.419894, -0.638007, 0.843367, 1.656238, 0.204708, -1.660559, 0.394667, -0.704049, 1.054865, 0.465498, 0.863689, -1.331518, 0.428348, 1.125235, 0.796189, 0.376798, -0.672800, -0.097695, 0.733495, 1.177996, -0.828724, -0.901390, -1.157294, -0.618710, -1.135442, 0.360627, 0.539043, 0.074510, 0.318346, 2.659970, -0.623601, 1.184957, 0.660137, -0.622392, -1.271017, -0.169202, -2.635485, 1.858151, -0.774258, -0.584529, -0.653985, -1.670979, -0.812393, 0.627988, -0.356714, -1.348511, -0.622418, 0.421116, -1.031409, 0.616826, 0.622709, 1.068344, 0.368395, 1.512885, -0.523949, -1.776838, 0.689869, 0.379097, 0.512329, 0.445237, -0.503010, -0.602210, -1.685181, -0.408487, -1.353105, 0.258375, 1.959257, -0.866762, 0.265308, -1.104696, -0.408402, -0.381309, 0.723777, -1.324147, 1.729274, -0.564665, 0.310840, 0.537567, -0.198951, -0.303546, -0.545133, 0.992436, -0.908500, -0.355998, 0.312336, -0.385754, -2.217296, -0.479020, -0.018585, 1.198954, 1.193523, -0.346183, -0.671261, -0.414163, -0.707587, 1.471652, 0.431776, 0.562567, -0.128267, 0.173600, -0.440158, -1.511107, -0.906840, 1.941199, -0.630132, -1.919885, -1.151967, -0.056974, -0.731788, -0.557929, -1.272475, -0.255456, 0.359492, 2.047769, 0.443611, -0.102786, -0.636222, -2.186144, -0.160554, -0.203264, -0.629365, 0.753759, -1.583259, 0.331965, 0.030752, 1.995935, -0.028883, -0.263136, 1.698081, 0.471474, -2.412043, -0.542058, -1.079452, 0.489114, -0.658687, -0.238377, 0.729331, 1.609495, 1.029609, -0.751490, 0.860118, -0.269163, 0.230315, -0.954834, 0.797438, 0.401171, -1.795879, -0.156159, -0.927495, -0.131741, 0.318214, 2.147221, -2.824419, 0.226315, -1.879231, -0.697272, -0.367460, -0.979780, 0.488763, 0.896341, 0.565303, -1.347885, -1.392904, -0.277183, 0.804032, 1.086560, -1.113428, 0.251580, -0.362768, 0.198066, 0.165770, 0.888861, -1.657590, 1.066015, 0.083083, -0.444766, 0.585572, -0.185477, 0.309986, 1.841290, -1.202734, -0.283488, -0.911183, 0.754976, -0.083843, -2.549698, 2.564928, -0.850043, 1.215431, 0.331761, -0.768072, 1.053518, -0.009260, -0.195909, -0.672353, -0.725165, 0.745445, -2.116551, -0.290104, 1.402926, -0.204089, 0.034287, 0.375727, 0.651438, -2.412254, -1.367973, -1.699148, 1.326857, -1.484592, 0.007769, 1.727970, -1.638447, -1.830201, -1.118184, 1.785552, 1.274143, -0.204450, 0.288662, -0.319642, -0.662683, 0.747247, -0.740084, 0.007547, -0.908732, 0.485945, -0.877306, -0.649574, -1.393314, -1.055020, -0.132899, -0.081921, -0.641635, 0.490975, -0.319046, 1.243922, -0.831428, 1.839321, 0.063793, -1.479746, -0.004850, -1.017149, -0.608279, 0.733140, 0.655377, -1.905894, -0.603449, -1.411920, 0.828921, 2.025069, 1.053507, -1.176482, 2.009942, 1.536288, -0.091115, 1.432286, 0.546712, -0.082554, 0.781409, -2.342551, 0.186378, -0.111027, 1.119713, 0.561056, 0.282978, -0.183686, -1.430599, 0.534929, -1.545788, 0.005772, 1.473961, 0.391608, 0.379596, -0.399545, 1.481622, -0.993466, 0.184356, -0.244625, -1.002832, 2.729871, 0.063198, -0.448787, 0.216094, 1.352757, -0.039883, 0.330343, -0.696726, -0.275384, -0.326231, 0.427938, 1.269904, -0.262238, -0.190990, -0.397838, 0.363233, -0.650847, -1.139069, 0.243184, -1.890888, -2.405370, -1.340290, -0.836979, -1.185803, -0.070664, -0.567616, -0.699801, -0.667454, 0.508325, -1.007509, -0.109698, -0.740761, -0.716219, 0.669863, 1.134397, -0.488241, 0.145490, 1.042887, 0.112064, -0.605135, -0.925612, -0.546399, 0.979352, 1.169800, 0.878448, 0.579019, 0.238039, -1.121802, -0.879760, 1.314625, 0.280805, 0.485631, -1.345521, 0.380345, -0.306898, -2.296164, 0.036916, -1.463391, -0.013895, -1.493349, -0.402903, -0.378718, 1.356453, 0.684193, -2.818831, -0.339204, -1.219736, -1.281459, 0.823821, -0.223568, 0.765082, -1.991204, -0.305763, -0.440887, 0.843486, -0.114660, 0.425252, 0.884959, 0.955624, -1.014400, 1.205076, 0.319117, 0.841982, 0.317273, -0.176371, -0.762294, 1.199778, 0.666182, -1.308191, -1.698119, -0.807749, -0.076435, -0.488037, 0.134153, -0.796669, -0.025176, -0.032328, 1.278092, -0.255353, 0.453428, 0.477698, 1.296708, 1.145815, -0.549268, 0.223822, -0.526295, -0.831852, 0.658017, 0.278530, 0.134609, -0.658557, 0.083357, -0.731917, 1.498501, 0.268520, 0.385931, -0.543691, 1.300884, -1.241024, -0.732403, 1.691656, 0.485664, -0.536327, 2.086169, 0.847915, -0.185682, -0.564492, 2.362108, -0.206183, 0.064683, 0.441596, 0.718711, -1.460658, 0.779080, 1.735237, -0.091424, 2.091332, -0.815944, 0.970163, 1.555416, 2.536859, -0.331475, -0.527739, 0.514155, 0.241081, -2.238274, -0.038981, 2.618730, 1.352787, -0.982470, 0.185671, 1.099791, -1.034908, 0.947733, -0.544584, 1.266022, -0.374689, 0.726716, -1.071972, -1.650204, 0.393904, -0.206287, 1.290660, 0.835574, 0.201243, 1.039074, -0.379663, -0.413005, 0.217215, 2.309402, -0.720029, -0.608783, 0.239167, 0.114838, 0.127231, 0.974094, 0.493618, 0.503722, -0.138808, 0.360621, -1.191237, -0.233450, -0.605329, -2.027252, 0.466985, -0.245066, -1.522857, 2.037019, -2.064537, 1.042462, 0.709786, 1.421285, -0.788771, 0.545493, 0.091974, 1.049937, -0.171811, 0.570101, -0.902597, 0.529728, 0.133968, -0.602195, 1.322240, 0.507363, -0.070663, -0.199098, -0.502510, -0.681551, 0.648077, -0.791538, -1.956638, 3.056223, 0.790345, -0.882194, 0.477471, 0.872757, -1.787446, 1.469880, -0.948593, -0.332263, 0.377664, -0.043589, 0.326961, -1.634113, -1.008777, 0.321970, 0.914891, 1.675889, 1.532753, -1.085152, 1.075786, 0.060196, -0.514091, 0.177129, 0.126064, -0.268288, -1.267214, 2.018657, -0.160667, 0.715889, -0.839193, -1.438366, -0.533743, -0.645495, -0.382399, -0.421525, 1.229348, 0.366109, -1.458802, -1.589023, 0.443204, -1.803492, -0.884582, -0.517579, -0.021467, -0.063822, -1.127806, -0.375384, -0.776916, 0.441484, 0.508004, 1.733909, -0.122382, -0.836861, 0.081516, -0.416760, -0.636593, 1.891566, -1.418885, 1.590900, -0.281828, 0.076113, 0.166603, 1.264885, -0.320374, -0.085863, -0.280987, 0.629287, -0.414366, -0.742905, -1.209654, -1.017081, -0.195618, -0.599167, -0.320604, -0.737187, -1.229617, 0.609142, 1.406555, -0.278587, 1.857251, -0.946856, -0.616537, -0.091781, 0.697788, 0.644416, -0.032793, -0.072469, -0.032912, 0.430297, -0.410807, -1.349011, 0.022319, 0.220698, -0.198975, -0.215208, 0.517057, -0.269671, 0.060462, 0.214251, 0.064694, -0.262365, 0.677097, -0.872778, -1.093707, -0.263479, 0.968986, -1.505070, -0.031927, -0.242395, -0.522253, 0.502560, 0.897020, 1.229900, 1.997412, -1.149527, 0.554806, -0.847490, -0.282300, -1.261131, -2.368218, -0.074349, -0.369824, 0.090041, 1.547742, -0.558655, 1.614615, -0.681243, 0.763026, 0.322585, 1.254436, -1.675869, 0.752413, -0.418914, 1.473658, 0.759579, 0.567937, -0.851837, -0.795641, 0.838300, -0.762775, -2.091127, -0.920955, -0.868776, -2.138044, -0.190596, -1.666197, 0.699836, -0.077940, 1.069414, 0.868475, 0.587787, 1.084480, -0.493027, -2.104739, 0.739384, 1.543560, -0.262517, 0.849218, -0.777931, -0.928540, -0.734429, 1.473599, -0.388029, -0.896902, 1.792407, -0.241106, -0.352835, 0.652722, -0.656659, -2.333468, 0.486978, -0.581467, -0.192844, -0.470267, -1.903546, -0.050011, -0.172927, -0.471771, -0.226158, -0.386775, 2.138423, 0.248012, 1.569995, -0.060108, 0.658661, -1.401741, -0.175689, -0.403060, 1.026990, 1.271409, 0.061738, -0.546736, 0.670344, 0.018473, -1.173635, 1.048217, -1.074733, -1.458502, 0.001316, -2.211803, 0.297801, 0.826021, 0.751437, 0.142740, -0.845752, -2.146790, 1.133717, 1.421714, 0.770565, 1.618177, 0.411551, -0.031953, 1.378993, -1.851787, -0.069734, -0.971338, -0.020396, -0.219686, -0.300990, 2.013278, -1.567437, -0.427013, -1.026239, -1.344852, 0.121602, -0.893799, -0.525365, 1.540211, -2.086274, 1.751003, 1.840056, 0.545089, 0.121404, 0.829487, 0.267408, 0.804282, 0.952251, -0.561535, 2.182799, 0.442223, -1.631578, -0.713394},
    {-1.168946, -0.496236, 0.814809, -1.986467, -0.767071, -2.113631, -0.248265, 0.406361, 0.139237, -0.355268, -0.887810, -1.522576, -0.850581, -0.201530, 0.419115, -0.734385, 1.713078, 0.879251, 1.565812, 0.173317, 0.596406, 0.474023, 0.222910, 0.361277, 0.971049, -1.106854, 1.041204, 0.942020, -2.112986, 0.536418, -0.380463, 0.230693, -1.018036, -0.127703, -0.634907, -0.676399, 0.552545, -1.717030, -2.221519, 0.209718, -0.823407, -0.881118, 0.786064, 0.109056, 1.793891, -0.629595, 0.755823, -1.747234, -0.458293, 0.073791, 1.006293, 0.178541, -0.092587, -1.350048, -1.616644, -0.215214, 1.462417, -0.717999, -1.331039, -0.316864, 1.060949, 1.535667, -1.485816, -1.051250, 0.862596, 0.397893, -1.537008, 0.769612, 2.524786, 2.125967, -0.724243, -0.360039, -1.135172, -0.420681, 0.432002, 0.763682, -0.567207, -2.174744, -0.243338, 1.270523, 0.343217, -1.471824, -0.770432, -0.310382, -0.110698, 1.337281, -0.492239, 0.222977, -1.318149, 0.843214, -0.541151, -0.423788, 2.062067, -0.203959, 0.660265, 1.199203, -1.547699, -0.101356, 0.230599, 0.048113, -0.158188, 0.632740, 0.290345, 0.028454, -1.424548, 0.189376, 0.400702, -0.118524, 0.418963, -0.567163, 0.729105, -0.050562, -0.240823, 1.753914, -0.083723, -0.325089, 0.088182, -1.014547, -1.309559, -0.547739, 0.700032, -2.753042, -0.125337, 0.027522, 2.178126, 0.531188, 1.202327, -1.481361, -1.706244, 0.096860, 0.610771, 0.240480, -0.708377, 0.339309, -2.071131, 1.116823, 0.745472, -0.216944, 0.960270, -1.303178, 1.405768, 0.772465, 0.345744, -2.489571, 0.927126, -0.918553, 1.346157, -0.988061, -0.174690, -0.696787, -0.734995, 1.479680, -1.177428, 0.339216, 0.726485, -0.220068, -0.318008, -2.367361, -0.103949, -1.278490, -0.381602, 0.295266, 1.661763, 1.226553, 1.791130, 2.588338, 1.132653, 0.478411, 0.136983, -0.128944, -0.903911, -0.774648, 0.037231, 1.005738, 0.757057, 0.023011, 0.123612, 0.911723, 1.201023, -0.730963, 0.555228, 0.188054, 0.414533, -1.132129, -0.021825, -0.866216, -2.724073, 1.321804, -0.934833, 0.677431, 1.458396, -0.460684, -0.918327, -0.070236, 0.151183, -0.012637, 0.758819, 0.357261, -0.180653, 1.458602, 1.352886, 1.286021, -2.017138, -0.590608, -1.412449, -0.215485, 0.781380, -1.755854, 0.180878, -0.786333, -0.768182, -0.386786, 0.447008, 1.091117, -0.833884, -0.713881, -0.478004, 0.911416, -0.326927, -0.524743, 0.527081, 0.960372, -1.192871, 0.861326, 0.902884, 0.547965, -1.702483, 0.030257, -0.863682, 1.209002, 1.093552, 0.016116, -0.023555, 0.314426, -0.834271, -0.521506, -0.677793, -1.019225, -1.320641, -0.012601, -0.380100, -0.817329, 0.222742, -2.667603, 0.652462, 0.013185, -1.051660, -1.518298, 0.071245, -1.628705, 0.315528, 0.109897, 0.188835, 0.001464, -0.197233, 1.036393, 1.146250, -1.557171, 0.395273, 0.791187, 0.494692, 0.384003, 0.417878, -1.464886, 0.534647, -1.297548, -1.327281, -2.141237, 0.463118, -0.084406, -1.271970, -1.350343, 0.341796, 0.102578, -1.686431, -0.338155, 0.854256, -0.417643, -0.570866, -0.962022, 0.375375, -0.223125, -1.648741, 0.315209, 0.063815, 0.699902, -0.250937, -0.094717, 1.959531, -0.313603, 1.786096, -0.124890, -0.776071, 0.885798, -0.090610, -0.706917, -1.341498, -0.124229, 0.632627, -0.454067, 2.477869, 0.279749, -0.835875, 0.512744, 0.071487, 0.855719, 0.845638, -0.715788, 0.385468, 0.396694, 1.154842, -0.826330, 0.479790, -0.233252, -0.610437, -1.145799, 2.056963, -2.237959, -1.781377, 0.494004, 0.881163, 0.886643, -1.344173, -0.015517, 1.366672, 1.099987, -0.048144, -0.201132, 0.154854, 0.295428, 0.348310, -1.103004, 0.226339, -0.964614, -0.675630, 1.076761, -2.309237, 0.417781, -0.313313, 0.473905, -0.370475, -0.086802, -0.131483, 0.099273, -0.837591, 1.233067, -1.035351, 1.147278, -0.284568, -0.721505, -1.190584, 1.223218, -0.390323, -1.023429, -1.359080, 1.097183, 0.729483, -0.131038, 1.112603, 1.337746, 0.320079, -1.022265, 0.495646, -0.020929, 0.357497, 0.278517, -0.840848, -1.147633, -1.424315, 1.112704, -0.200823, -0.136418, 0.180707, -0.028779, 0.256130, 0.118725, 0.739975, -1.090642, 0.065719, -0.123697, -0.773455, -0.671208, -0.436326, -0.145176, 0.351142, 0.531892, 0.634708, -0.859199, 0.103022, 1.297740, 0.463376, -1.147081, -0.299054, -0.972322, -1.238116, 0.557468, -0.111310, 0.726591, 0.461392, 1.171376, -0.337710, 1.681152, -0.180673, 0.343280, 0.388292, 0.150353, 0.953116, 1.509256, 1.731139, -0.139268, -1.208326, -0.370231, 0.596255, -0.017352, 0.053487, -1.845839, 0.829507, 0.080883, 0.450302, 2.326298, 0.304649, -0.035266, 0.788099, -0.417831, -0.553397, -0.236097, -0.373881, -0.708714, 1.632941, 0.178663, -0.789753, 0.116697, 0.372903, -0.845945, 0.639941, -2.707606, -0.259592, 0.138807, 0.166517, 0.548926, 2.073069, 0.625109, -1.024848, 0.522503, -0.540418, -1.515841, 1.080687, 0.715598, 0.791291, -0.957786, 0.713115, 0.228793, -1.936192, -1.320331, 0.855237, 1.233362, -0.365703, 0.236180, -0.308564, -0.566594, -0.523270, -0.267910, 0.905595, 0.079958, -0.241413, 1.156247, -0.045425, 0.405004, 0.775762, -0.082448, 0.584468, -0.138518, 0.162509, -0.421715, 1.741086, -0.759462, -2.005709, 0.192740, -0.957638, 1.225466, 0.882399, -0.241607, -1.501387, 1.488531, 2.741799, -0.245992, -0.549250, -0.250869, -0.071521, -0.137122, -0.086044, 0.492464, -1.164525, 0.706408, -0.794009, 0.763669, 0.738404, -1.076979, -0.904293, 1.272863, -0.794039, 0.820162, 1.881001, 0.913610, 0.727143, -0.069566, 0.752777, 0.571180, -0.340686, -0.273553, 0.030743, -0.245682, -1.748279, -0.637836, -0.357493, -0.795535, -1.423734, 0.278195, -1.134254, 0.002326, -1.237767, 0.031180, -0.903298, 0.054998, 1.312854, 0.852474, -0.103524, 0.394721, 0.087076, 0.204834, -0.029518, 1.052639, 1.654177, 1.754711, 0.208372, -0.061271, 0.101240, 1.096478, -0.567932, -0.344429, 0.934565, -1.365534, 0.320007, 0.664901, 0.735452, -0.408116, -0.741236, 0.353223, 0.102543, 1.060986, -1.592995, -1.238405, 0.539310, 0.843486, 1.225728, 1.259272, 0.385801, -0.135972, -0.920593, -0.001932, -0.674378, -1.080850, 1.587459, -0.951308, -1.481575, -0.834443, 1.275016, -0.958118, -0.103321, -1.087943, -2.181243, -0.812476, 0.264072, 1.166086, 0.450968, 0.111169, -0.982148, 1.373763, 0.432904, -1.399238, -0.220593, -0.067499, 1.669778, -0.471837, -0.840724, -1.866033, -0.350825, 0.303384, 1.483533, 0.285926, -0.028028, 0.315027, 1.745354, -1.371876, 0.731531, 0.776100, -0.382587, 0.827753, 0.393675, -0.140380, -1.721063, -1.440356, -0.280805, 0.005262, 0.588475, -0.602755, -0.941886, -0.249891, 0.627219, -0.255160, 0.553163, -1.886299, 0.349359, -0.157151, -0.837912, -1.232601, 0.278551, 0.724746, 0.362180, 0.231223, 1.319510, -2.151226, -0.000900, 2.927340, 1.659614, -0.798722, 0.208439, 0.575081, -0.552284, -0.626989, 0.526134, 0.014858, -0.215863, -0.519006, 0.246073, 0.995157, -0.549848, 0.324272, -0.324156, -0.862774, 0.202936, 0.570716, -2.084471, -0.912208, -0.980581, 0.710597, 0.760732, -0.813998, -0.968583, -2.160957, -0.198572, 0.378741, -0.305978, -0.236098, -0.549178, 1.847492, -0.243804, -0.072318, 0.752027, -0.093759, 0.602978, -1.557215, 2.223291, 0.688136, -0.794116, 0.583331, 0.820896, 0.356802, 0.430518, 1.202941, 0.231377, 1.498900, 0.010125, -0.446905, 0.210343, 0.027909, 1.150308, -1.660597, -0.954107, 1.211944, -0.254124, 0.575474, 0.292582, 1.600788, 0.867800, -0.085853, -0.237792, -1.929466, 1.880289, -1.267443, 0.054409, 0.605128, -0.775768, 1.308511, -0.071117, -1.011555, -0.444111, 0.499725, -1.616014, 0.196336, 0.476574, 1.447773, -0.028400, 0.233205, 0.187230, 1.274841, -1.038346, -2.047066, -0.552329, -0.908253, 0.246230, 1.850208, 1.617793, -0.706698, -1.031660, -0.064045, -0.656401, -0.455742, 0.493459, 1.307327, 0.571571, -0.905536, 0.025042, -0.009451, -0.947990, -0.125468, 0.085970, 1.092835, -1.012341, -0.525762, -0.129094, 1.161446, 0.675254, 0.334176, 0.893166, 0.064679, 0.284228, 0.389766, -2.296131, -0.441682, 0.022827, -1.403615, 0.234070, 1.936242, 0.385400, -0.016287, 1.221734, 1.032046, -0.363989, 0.378367, 0.563868, 0.670508, -1.181428, 1.709339, 1.659968, -0.711129, 0.349070, 0.097342, 1.885100, 0.697751, -0.581437, -0.077927, -0.819499, 0.404238, 1.255074, -0.572470, 1.208689, -1.451507, -0.867904, -0.587351, -0.439650, 0.682066, -0.357131, 1.167673, 0.875942, -0.041446, 0.181582, -0.731162, -0.182489, 0.412070, 0.449123, -0.421203, -0.110457, -0.541426},
    {-0.012718, -0.626408, -0.398993, 0.724219, -0.124641, 0.538760, -0.628468, 0.610702, 0.282283, 0.208820, -0.777941, 0.780835, -0.304692, 0.893340, 0.013332, 0.914039, 1.272780, 0.266006, 2.412739, 1.170308, -1.004818, 1.715593, -0.854075, 0.033794, -2.000906, 0.432409, 2.563252, -0.503448, 1.308934, 2.016006, 0.685095, 0.875384, 1.216268, 0.071978, -0.745363, -0.329220, 1.375024, 1.305719, -1.109400, 0.625722, -1.276445, -0.177842, -0.028658, -0.221987, -0.855650, -0.656476, -0.117931, 2.000581, -0.216284, 0.361326, 1.233928, -0.712551, 1.263159, -0.030573, -0.202008, 0.589152, 1.057177, 0.233421, 0.380688, -0.229245, -0.713924, 0.300336, 0.272881, -0.251066, -0.548966, -0.452119, 2.201939, -0.492697, -0.590723, 0.860432, -0.376397, 0.995803, 1.503138, -0.067806, -0.131722, -1.032301, -0.700918, 1.291726, -0.028466, 1.022796, 1.622092, -0.049707, -2.076593, 0.790037, -2.097081, -0.403327, -0.903191, -0.115256, -1.171413, 0.021028, 1.682698, 0.216028, 1.034416, -0.255187, 0.665120, 0.253914, -0.311865, -1.324288, -1.493468, -1.062369, 0.279722, -0.665977, 0.808917, 0.256644, 1.395793, -0.467136, -1.872566, -0.522488, -0.441285, 1.017418, -0.673525, 1.147094, -2.075672, -0.875288, -0.718889, 0.346073, -1.019529, -0.836896, -1.344410, -0.373262, 0.531482, 0.596725, -0.501014, 0.137948, 0.291693, 1.278143, 1.026887, -0.513547, 1.193448, 2.141765, 0.227892, -0.812422, -0.156670, 0.026350, 0.192018, -0.340930, 0.387768, -0.210367, -0.575779, -0.185132, -1.805129, 0.330809, -0.172572, 3.112190, 0.289932, 0.845069, -0.585321, 1.183089, 1.986858, -1.224527, -0.216616, 0.070828, 0.000772, -0.213453, 0.044253, -1.118777, -1.036473, 1.441449, 0.554168, 0.049929, 0.826802, 2.398792, -1.355367, -0.599269, 0.640406, -0.595580, 0.449407, 0.761425, 0.697226, 0.512737, 0.728558, -0.200526, -1.992589, -0.879798, 1.987397, -0.389732, -2.367035, 0.644954, -1.136404, -0.885487, -1.594583, 0.830685, -1.739461, -0.706812, 0.802819, -0.988631, 0.038461, -0.264555, -0.257275, -0.327948, -0.952461, -0.377123, -1.541682, 0.749602, 0.470502, -0.187898, -0.034722, -0.383839, 0.774154, 1.083267, 0.847712, 0.293660, 0.270842, 0.226791, -0.562829, 0.529349, 1.568529, -0.602854, 0.181518, -0.054233, -0.234371, 0.093321, 1.158239, 1.577197, -0.065588, -0.713976, -1.139937, 0.381345, 0.989893, 0.546509, 0.339083, -0.004799, -0.707149, 0.340070, -0.398806, 1.628773, -0.791780, 0.357756, 0.472810, -0.982343, 1.929982, -0.789548, -0.379091, 0.659743, -0.390917, 0.306727, 0.322829, -2.450713, -0.960207, 0.279259, 0.310232, 1.472122, -0.975089, -0.354796, -0.853973, 1.281692, 1.245143, -1.323352, -0.946515, 0.297400, 0.344209, -0.386665, 0.665014, -0.835316, 0.306914, 1.030249, 0.128512, -1.901375, -0.290402, -1.675197, 0.174346, 1.975737, -0.085574, 2.350960, 1.176229, -1.534929, 0.488387, 0.185448, 2.141146, 0.118807, -1.126992, 0.558053, 0.690447, -1.412089, 0.229021, 0.172323, 0.635100, -1.285982, -0.179809, 0.332948, -1.604870, 0.715006, -0.653191, 0.141676, -0.599181, -0.079087, 0.774509, 0.083117, -0.175986, -0.910178, -0.978565, -0.150277, -0.759668, 0.887351, 0.795276, 0.664410, -0.250636, 1.414229, 0.750868, -0.774979, -0.545364, -0.085166, 1.460156, 0.321966, 0.881939, -1.434879, 1.301818, 0.880378, -0.973214, -0.671631, -0.981094, 0.459191, 1.480817, 0.202665, 2.155947, 0.241119, 0.732307, -0.744940, -0.092607, -1.204602, -1.344889, 1.498165, 0.636176, -0.971394, 1.350375, -0.486169, -0.069100, -1.430527, 0.130419, -1.963944, -1.286943, -0.393840, 0.469473, 0.315449, 0.267926, -0.869436, -0.977076, -0.551458, 0.463434, 1.612534, 0.748268, 0.982845, -0.555938, -1.672196, 1.424622, 0.035937, 0.961568, -1.025632, 0.827300, 0.746973, 0.214320, -0.086629, -0.224171, -1.116768, 0.735912, 0.172748, -1.827981, 0.628554, -0.749366, 0.371822, -0.295079, -0.426430, 0.751528, 0.643218, -0.645406, 0.484819, 0.591318, 0.224651, 1.163467, -0.143464, -0.735820, 0.265640, -0.503676, 0.183967, -1.369024, -0.859211, 0.302463, -0.165192, -0.613957, -0.780527, 0.204769, 0.818728, -1.052015, 0.456741, 1.643351, -1.437113, 1.250141, 2.480490, -0.210935, 0.995141, -0.333495, 0.725822, 0.293993, -1.293898, 0.523359, -1.755942, 0.568080, 0.118294, -0.286751, -1.829490, 2.462790, -1.445948, 0.259169, -0.367300, -0.765640, -0.378416, -0.072350, -0.614300, 1.761856, -0.198383, -0.748331, 0.982612, -0.804580, -1.279537, 0.381143, 1.287933, 0.365758, 0.100756, -1.084339, 0.459995, -1.102856, -0.991912, 1.855064, -0.175315, 2.340872, -0.963709, 1.515436, -1.418193, -0.544539, 1.143794, -0.319769, 0.505581, 0.720752, -0.046547, 0.086087, -1.228548, 1.291324, 0.314543, -0.268368, 1.489669, 0.919916, -1.259486, -0.092096, 0.161989, 0.436551, 0.311246, -1.245989, 0.515965, 0.732322, -0.115075, -1.327137, 0.793383, -0.005673, 0.937408, -2.198890, -0.895969, -1.370695, 0.520584, -0.183040, 0.281265, 0.561800, -2.137153, 1.186920, -0.325740, 0.742871, -0.583082, -0.592146, -1.428950, -0.020914, 0.167929, -0.701259, -0.526021, -0.822624, 0.149934, -0.768468, -0.262039, 0.869579, -1.291355, -0.704734, 1.383689, 0.584753, -1.251952, 1.436819, -0.055210, -1.240211, -0.037587, -0.767586, -0.889509, 1.066371, -1.337363, -0.484452, -0.287509, 0.098700, 1.982356, -0.421126, -0.384288, 1.315808, -0.518627, -0.355987, -0.481166, -1.619084, 0.625368, 1.748187, 1.673590, -0.826035, -0.357481, -0.172059, -1.656827, -2.119929, 1.265642, 0.986694, -0.524466, -0.175817, 0.852568, 0.063783, -1.580177, -0.909142, -0.005249, 0.416092, 0.725102, 1.723853, 0.428284, 1.509281, 1.206011, 1.237332, -0.244612, -0.332538, -0.744548, 1.092723, -1.230419, 0.524314, 0.849350, -0.452500, -1.293146, -0.652717, 0.235915, -0.720090, -1.008164, -1.339437, 0.314313, 0.729296, 1.325285, 1.322215, -1.189009, -0.209062, 0.027996, -0.486644, 1.360687, -0.089543, 1.701616, 0.326694, -1.459869, -1.071809, -0.627579, -0.868063, 0.028004, 0.073858, 0.085646, 1.068701, 0.212828, -0.005640, 2.209676, -1.021628, -1.904788, -1.668412, 1.399224, 0.657899, 0.640269, 2.340811, -0.467741, 0.372619, 0.824864, -0.500698, 0.051737, -0.950303, -2.007095, 0.430266, 0.957176, 1.026036, 0.502194, -1.130032, -1.779207, -1.080281, 0.559657, -0.846335, 1.698329, 2.196000, 0.964826, -0.191837, 0.946426, -1.118272, -1.707502, -2.225163, 0.277246, -1.945396, -2.341179, -0.501104, 0.094594, 0.511182, -0.405828, 1.975597, -1.076477, -0.079537, 0.252911, 0.909536, 1.440016, -0.211475, 0.692483, -0.880902, -1.150376, -0.880723, -0.706990, -0.115287, -2.325593, -0.123337, 0.568985, 1.233864, -0.645352, 0.721044, 2.627695, -0.445988, -0.095141, 0.293789, 0.321085, -0.747383, 0.866278, -2.201611, 0.726079, 0.563542, 1.895707, -1.071442, -0.924255, 2.222249, 1.749474, -1.475493, 0.373142, 0.780600, 0.574518, 0.420902, 0.412149, -1.240335, -1.425554, -1.152039, 0.185495, -0.375010, 0.824951, 2.849704, -0.120468, -0.960932, 0.238553, -0.369832, 0.090800, 0.808035, 0.066168, 0.112548, 0.773630, 0.339684, 0.695802, -2.130484, -0.957826, -1.819734, 1.126442, 1.612836, -0.194557, -0.077892, 0.770795, 0.659775, 0.715809, -0.048087, -1.937130, -0.302076, 0.527719, 0.162012, 0.697206, -0.058276, 0.073805, -2.319570, 0.245118, 0.165778, -1.423438, 0.224913, -1.056955, -0.309651, -0.143046, 0.533228, 1.691302, 0.180278, -0.641518, 0.859197, -0.159312, -1.922722, 1.767300, 0.133835, 0.502662, -1.133329, 1.614360, 0.522959, 0.674690, -0.772710, 1.126878, 1.954027, -3.760561, -1.233160, 0.036880, 0.276758, -0.665740, -0.706004, -0.736066, -0.674701, -0.460825, -1.149136, 0.495256, -1.469320, -0.720579, 1.136179, -0.759902, -0.404970, 0.572060, -1.276689, -0.103743, -0.209938, -0.839231, -1.815591, 0.162462, -0.715668, -2.025991, 2.074712, 2.176878, -0.556418, 0.129990, -0.545042, 0.658540, -0.522059, -0.003453, 0.624493, 0.883620, 0.500983, -1.294536, 0.285009, -0.706488, 1.306206, 0.177093, -1.624914, -0.176502, -1.249681, -1.087699, 0.183816, 0.016922, 0.172220, -0.276192, -0.032872, 1.003684, -0.268873, -1.461255, -0.769700, 0.173400, 0.399258, -0.715775, 1.632039, 0.544287, 0.931359, 1.616876, 0.213384, -0.629150, -1.097657, -0.404679, -0.677234, 0.427226, -0.638928, 0.465433, -2.450945, -2.073952, -0.491829, -0.207305, -0.831038, -0.105538, -0.471898, -1.268355, 0.477308, 1.598673, 0.228825, 0.199567, -0.531874, -0.248525},
};

const float biases[10] = {
2.663084, -1.187746, 0.255847, -2.197407, -0.372562, -0.396490, 0.703691, 0.371109, 1.782263, -0.406379};
