#include <stdio.h>

#include "mnist_params.h"

#include "ap_fixed.h"

// Define the fixed-point type
typedef ap_fixed<16, 8> fixed_point_t; // 16-bit fixed-point with 8 integer bits

// Convolutional Layer Weights and Biases
fixed_point_t conv_weights[3][3][1][32] = {
    {
        {{0.088207, 0.118803, 0.113989, 0.026323, 0.112763, -0.063344, -0.430365, 0.080362, 0.117473, -0.056756, -0.452278, 0.140471, 0.123116, -0.604446, 0.159105, -0.192442, -0.229976, 0.126741, 0.289784, -0.197936, 0.061598, 0.091219, 0.245514, 0.090538, 0.127680, -0.247889, -0.341349, 0.140713, 0.145742, -0.416903, 0.365265, -0.174674}},
        {{0.061727, -0.024318, 0.294811, -0.368875, -0.067867, 0.067592, 0.067096, 0.237099, -0.052103, -0.104541, -0.662153, 0.057995, 0.199854, -0.551140, 0.227350, 0.364032, 0.123114, 0.011617, 0.106776, -0.078105, 0.105352, -0.151987, 0.099477, -0.090500, 0.324575, -0.105970, 0.046486, 0.177397, 0.036753, -0.574706, 0.235322, 0.041424}},
        {{-0.114732, 0.083512, 0.447008, -0.493683, 0.053706, 0.080792, 0.392719, 0.495531, 0.046353, -0.072462, -0.424271, 0.173461, -0.353735, -0.146768, 0.157386, 0.294295, -0.014856, -0.005141, -0.452440, 0.117185, -0.111168, -0.143132, 0.099552, 0.094557, 0.277019, -0.038983, 0.115285, -0.043090, 0.032079, -0.528721, 0.030274, 0.222411}}
    },
    {
        {{-0.083850, 0.011735, -0.217678, 0.049776, 0.046032, 0.062593, -0.571850, -0.173912, -0.000774, -0.132709, -0.628127, -0.198742, 0.406977, -0.624341, -0.109936, -0.445245, 0.052304, 0.008813, 0.238518, 0.063756, 0.068010, 0.100620, -0.082881, 0.107710, 0.053770, -0.169057, 0.138153, -0.225618, -0.152938, 0.133976, 0.324596, -0.239601}},
        {{0.038051, -0.096365, 0.171592, 0.002859, -0.100069, 0.011300, 0.151638, 0.069894, 0.075822, -0.065915, -0.016765, 0.018022, 0.131903, -0.022662, -0.001928, 0.084596, 0.061975, -0.073326, 0.141200, 0.094230, -0.085156, 0.151540, 0.063547, 0.011679, 0.007930, -0.065177, 0.015137, -0.203751, 0.028864, 0.072601, 0.265244, 0.199427}},
        {{0.042449, -0.015530, 0.188438, -0.185337, 0.070696, -0.032770, 0.302661, 0.062677, -0.048328, -0.038455, 0.204370, 0.190801, -0.579022, 0.329136, 0.121989, 0.372286, 0.014430, -0.005020, -0.558960, 0.095252, 0.110998, -0.277625, 0.092228, -0.165437, 0.060163, 0.107032, 0.041130, 0.294923, -0.035864, -0.061608, -0.317186, 0.215944}}
    },
    {
        {{-0.084779, -0.067542, -0.499461, 0.391768, 0.009397, 0.012021, -0.388033, -0.630337, -0.009966, -0.000747, -0.230621, -0.282467, 0.275152, -0.315887, -0.152671, -0.706551, 0.003121, 0.009819, 0.326862, -0.173921, 0.029552, 0.197324, -0.340290, 0.068816, -0.427557, 0.022631, 0.040535, -0.002876, 0.086096, 0.304524, -0.177240, -0.690353}},
        {{0.206606, 0.164102, -0.622744, 0.294259, 0.019695, -0.005320, -0.047685, -0.382692, 0.044717, -0.068616, 0.369642, -0.230782, 0.074496, 0.348280, -0.352668, -0.136608, 0.013577, 0.082439, -0.017854, -0.087328, -0.053728, 0.063088, -0.273797, 0.066334, -0.483259, 0.149556, 0.123210, -0.294874, 0.022086, 0.433755, -0.451888, -0.254567}},
        {{-0.146001, 0.021162, -0.332595, 0.254222, 0.068896, 0.031576, 0.253035, -0.705260, 0.051636, -0.046489, 0.434463, -0.066935, -0.359900, 0.444914, -0.359715, -0.026346, -0.142334, 0.075994, -0.538814, 0.041603, 0.122935, -0.029168, 0.086931, -0.008598, -0.289952, 0.085629, -0.368753, 0.224001, 0.112439, 0.288661, -0.872901, -0.159661}}
    }
};

fixed_point_t conv_bias[32] = {
    -0.019604, -0.072326, -0.005608, -0.013049, -0.055496, -0.080222, -0.011555, 0.010465, 
    -0.080194, 0.000000, 0.010575, -0.036714, -0.011291, -0.005598, -0.010845, -0.003683, 
    -0.011706, -0.083533, -0.009973, -0.031987, -0.081257, -0.043165, -0.070216, -0.088103, 
    -0.006487, -0.048949, -0.016563, -0.086025, -0.097923, -0.001089, -0.002133, 0.082330
    
};

// Dense Layer Weights and Biases
fixed_point_t dense_weights[676][10] = {
    {-0.014832, -0.003822, -0.007052, 0.001360, -0.004740, -0.012590, -0.000689, 0.001969, 0.001371, -0.003505},
    {-0.010253, 0.001895, -0.007359, -0.006583, 0.012126, 0.009873, -0.025812, 0.021841, -0.001791, 0.005388},
    {0.035281, 0.084206, -0.043290, -0.018120, -0.006879, -0.041424, 0.032103, 0.042191, -0.033973, 0.003065},
    {-0.012873, 0.026208, -0.010960, 0.003534, -0.017381, -0.007202, -0.022610, 0.016987, -0.009760, -0.021988},
    {0.000376, 0.027907, -0.022486, 0.000904, 0.006686, 0.007287, 0.012638, -0.005017, -0.024351, 0.009292},
    {-0.010839, 0.018270, -0.016355, -0.012225, -0.009848, 0.007342, -0.005095, -0.004797, -0.005785, -0.016573},
    {0.000496, 0.031306, 0.019403, 0.008211, -0.014323, -0.000644, -0.004066, 0.000177, -0.024353, 0.001309},
    {0.010398, 0.024214, -0.002726, -0.009517, 0.002690, -0.004483, -0.006225, 0.012265, -0.015539, 0.003219},
    {-0.021009, 0.002142, -0.005070, 0.004522, 0.008525, 0.005872, -0.002877, 0.019761, -0.008240, -0.000552},
    {0.002441, -0.007485, 0.003347, 0.003188, -0.004228, 0.002420, -0.005221, -0.010411, 0.000910, -0.008563},
    {0.003101, 0.042581, 0.006384, -0.015407, -0.014886, -0.003125, -0.021808, 0.013873, -0.022220, -0.012870},
    {-0.004244, 0.038849, 0.011222, -0.036807, -0.008225, -0.024700, 0.007825, 0.027841, 0.018659, 0.003405},
    {0.007838, 0.010335, 0.005805, 0.008193, 0.001740, 0.020058, -0.017043, 0.012692, -0.029532, -0.003979},
    {0.009005, 0.014238, -0.016674, 0.007875, -0.026249, -0.002794, 0.001066, -0.018034, -0.012610, 0.010182},
    {0.003563, 0.008464, -0.018030, -0.002945, 0.004850, -0.017362, 0.022933, 0.039073, -0.003068, 0.000342},
    {0.005855, -0.004619, 0.008123, 0.008379, -0.021971, -0.014314, -0.010911, -0.006989, -0.023213, 0.011888},
    {0.055835, 0.001961, -0.044666, 0.042978, 0.018336, 0.031984, -0.012030, -0.007472, -0.063424, 0.036831},
    {-0.013001, 0.008708, -0.020789, 0.017795, 0.003557, -0.002573, -0.012088, 0.008807, -0.007650, 0.016585},
    {-0.007037, 0.000842, 0.008376, -0.013191, 0.000086, 0.008690, -0.015438, 0.004985, -0.014849, -0.015615},
    {0.014647, 0.014114, -0.010975, -0.009624, -0.000703, 0.011564, -0.010346, 0.004563, -0.013764, 0.024702},
    {0.003124, 0.023421, -0.015135, 0.014791, -0.018657, -0.000751, -0.017308, -0.009084, -0.010115, 0.027120},
    {-0.004593, 0.016998, -0.015285, -0.015113, 0.008688, -0.009746, -0.004047, 0.018135, -0.005420, -0.011970},
    {-0.021852, 0.018890, 0.011401, 0.012959, -0.012952, -0.001364, 0.005797, 0.011349, -0.002287, -0.011085},
    {-0.011094, 0.015546, 0.010373, -0.005375, 0.010198, 0.002263, 0.003033, 0.008809, -0.019999, -0.011582},
    {0.003926, 0.031381, 0.004714, -0.005109, -0.002461, 0.005896, -0.007213, 0.011117, -0.018146, 0.009302},
    {-0.007899, 0.010594, -0.008662, 0.010887, 0.017994, 0.007780, -0.009608, 0.002694, -0.006192, -0.000842},
    {-0.012724, 0.029409, -0.014552, -0.017973, -0.029768, 0.039789, 0.010411, 0.021237, -0.044980, 0.022047},
    {0.008672, -0.003554, -0.016749, 0.007715, 0.003802, -0.006241, -0.011518, 0.017247, -0.002090, 0.001086},
    {-0.011402, 0.001223, -0.003801, 0.007985, -0.011255, -0.002131, 0.013720, -0.002090, -0.010456, 0.013468},
    {0.016375, 0.067566, -0.041972, -0.034266, 0.025133, -0.014301, -0.014697, -0.022194, -0.013633, 0.014846},
    {0.011399, 0.007135, 0.004528, -0.009181, -0.023016, 0.006890, 0.001005, -0.027376, 0.012199, 0.020495},
    {0.002584, 0.065073, 0.015627, -0.006690, -0.020598, 0.030021, -0.007680, 0.037019, -0.047186, -0.023749},
    {-0.013556, -0.005228, 0.001118, -0.008408, 0.004073, 0.012881, -0.013254, -0.002278, -0.006187, -0.005633},
    {-0.018224, 0.025515, -0.013821, -0.015557, 0.002443, 0.013757, 0.002317, 0.002443, -0.021985, 0.010541},
    {0.038854, 0.086359, -0.038092, -0.015443, 0.021208, -0.048618, 0.006613, 0.025153, -0.021039, 0.020149},
    {0.011692, 0.035603, -0.027931, -0.012235, -0.017046, -0.002181, -0.002416, 0.003164, 0.010353, -0.000667},
    {-0.003455, 0.027942, 0.004120, -0.001440, -0.013522, 0.013618, 0.000136, -0.004518, -0.014627, 0.002085},
    {-0.001662, 0.008010, -0.001464, -0.014869, 0.010221, -0.010583, -0.007259, 0.002371, 0.009274, -0.019304},
    {0.006779, 0.001008, 0.013146, -0.010066, -0.021080, -0.001808, -0.002516, 0.003048, -0.012876, 0.008790},
    {-0.001943, 0.039393, -0.002885, -0.017968, -0.005023, 0.007469, 0.018593, 0.020179, -0.002917, -0.013873},
    {-0.007533, 0.008527, -0.023419, -0.006935, 0.012943, -0.003407, 0.004730, 0.011644, -0.017987, -0.012233},
    {-0.011944, 0.002655, 0.005277, 0.007122, -0.015269, 0.015431, -0.004884, -0.013283, 0.013812, 0.004187},
    {0.017790, 0.039110, 0.016348, -0.012035, -0.015572, 0.000927, 0.004059, 0.005334, 0.001394, -0.006916},
    {0.005168, 0.014143, 0.006038, -0.017936, -0.004468, -0.021777, 0.004646, 0.016887, 0.022969, -0.008368},
    {0.006129, 0.016261, 0.018421, -0.017923, -0.000080, 0.003902, 0.005439, 0.007577, -0.027839, -0.000985},
    {0.005271, 0.004727, -0.017570, 0.010191, -0.026738, 0.015970, -0.004688, -0.014350, 0.018905, 0.009367},
    {-0.004540, 0.014577, -0.023271, -0.028795, -0.003101, 0.000507, 0.018019, 0.042256, 0.008980, -0.010876},
    {-0.017600, 0.009753, 0.012159, 0.024319, -0.017554, -0.018576, -0.013888, -0.012108, -0.009542, -0.006135},
    {0.038606, 0.023776, -0.054981, 0.040416, 0.010718, 0.033374, -0.018817, -0.030228, -0.054804, 0.026847},
    {-0.007725, 0.025817, -0.014332, 0.011015, 0.007823, 0.014092, 0.005880, 0.021143, 0.000517, -0.008304},
    {-0.012053, 0.016072, 0.018527, -0.009210, 0.003357, 0.021071, -0.011751, -0.002372, -0.016299, -0.012343},
    {0.007877, 0.000530, -0.003114, 0.017169, -0.021050, 0.012794, -0.003859, 0.011627, -0.022395, 0.021082},
    {0.003754, 0.003848, -0.004256, -0.000527, 0.000597, 0.006630, -0.022089, 0.010860, -0.006298, 0.013796},
    {-0.009699, 0.015128, -0.017766, -0.002685, 0.000142, -0.008909, 0.013013, 0.019169, 0.009224, 0.010838},
    {0.002492, 0.013928, -0.003322, -0.010043, 0.013052, 0.002013, 0.002507, -0.003432, -0.026226, -0.004148},
    {0.006640, 0.011051, 0.008510, -0.012699, 0.003069, 0.016298, 0.007105, 0.022204, 0.007168, 0.010837},
    {0.015485, 0.010874, -0.021126, -0.019655, -0.008468, -0.016587, 0.012362, 0.001248, -0.013505, 0.000003},
    {-0.000912, 0.024722, -0.009799, 0.008914, -0.000290, -0.004296, -0.021486, -0.004745, 0.001051, -0.013321},
    {0.007380, 0.011884, 0.000857, -0.022089, -0.051343, 0.022939, 0.013965, 0.030900, -0.055798, 0.019401},
    {0.009810, -0.002168, 0.005880, -0.015410, 0.009944, -0.005953, -0.011287, 0.015185, 0.008343, 0.007559},
    {-0.002863, 0.005136, 0.000387, -0.004247, -0.014555, 0.013327, 0.013429, -0.015201, -0.034010, 0.020708},
    {0.059286, 0.066909, -0.039788, -0.016153, 0.004608, -0.024109, -0.011054, 0.001503, -0.014214, 0.016215},
    {-0.009383, 0.015966, -0.000211, 0.012042, -0.015273, -0.000513, -0.006772, -0.037375, 0.001729, 0.020785},
    {-0.004012, 0.046944, 0.021735, -0.018915, -0.022543, 0.024129, -0.006209, 0.038536, -0.049917, -0.025447},
    {-0.020468, 0.018195, 0.000170, 0.002944, 0.010045, -0.010304, -0.013545, 0.013107, -0.006495, 0.009491},
    {0.004842, 0.007801, -0.010555, -0.023187, 0.001610, -0.011083, -0.001274, 0.005349, -0.019746, -0.010159},
    {0.032804, 0.066724, -0.041024, 0.003249, -0.000271, -0.044897, 0.025044, 0.013562, -0.051160, 0.016603},
    {0.035649, 0.036226, -0.007046, -0.012052, -0.047209, -0.013335, -0.011025, 0.013650, 0.001280, 0.001984},
    {-0.003551, 0.006494, -0.023642, 0.005710, -0.017877, 0.013839, 0.001790, 0.018685, -0.000704, 0.023155},
    {-0.002413, 0.020962, -0.004809, 0.004659, -0.012898, -0.011333, -0.015797, 0.018473, 0.002364, -0.002256},
    {-0.015944, -0.000314, 0.022250, -0.009357, -0.009128, 0.013245, 0.000800, 0.018468, -0.011301, -0.005606},
    {-0.013556, 0.038191, -0.011722, -0.014448, 0.006639, 0.002005, 0.006063, 0.019198, -0.001792, -0.011286},
    {-0.020089, 0.024472, -0.009396, -0.008953, -0.007140, 0.012196, -0.008129, 0.019084, -0.014556, 0.018268},
    {-0.004620, 0.012567, 0.001248, -0.001596, 0.014334, 0.010975, -0.010388, 0.005650, 0.000712, -0.004460},
    {0.018015, 0.023924, -0.014238, -0.019853, -0.029220, 0.003510, -0.022590, 0.002012, -0.022745, 0.009372},
    {0.021046, 0.023456, 0.010489, -0.036447, -0.027955, -0.010862, -0.016401, 0.021015, -0.005610, 0.009398},
    {-0.017913, 0.005455, 0.021527, 0.005259, -0.019389, 0.014935, -0.020557, 0.000153, -0.000722, 0.000204},
    {0.011045, 0.004000, 0.001850, 0.011021, -0.016920, -0.003376, -0.010169, -0.033894, 0.018625, 0.018904},
    {0.006068, 0.039570, -0.018341, -0.004747, 0.016165, -0.013752, -0.003252, 0.046646, -0.001887, -0.018376},
    {-0.019376, 0.023697, 0.030828, 0.005969, -0.010271, -0.018196, 0.009593, 0.001340, -0.033488, 0.016966},
    {0.053796, 0.013235, -0.046258, 0.043247, 0.025296, 0.044874, -0.017331, -0.035290, -0.063509, 0.019323},
    {-0.024186, 0.011311, -0.003835, 0.008137, -0.009614, 0.015370, 0.001175, 0.015572, -0.017507, 0.018730},
    {-0.025694, 0.023660, -0.007031, 0.006800, -0.019293, 0.025753, -0.013534, 0.014293, -0.010840, -0.018008},
    {-0.000136, -0.011272, -0.012016, -0.004082, -0.014635, -0.008101, -0.012735, -0.012079, -0.008164, 0.007285},
    {-0.003766, 0.015035, -0.016155, 0.015144, -0.002388, 0.005046, -0.006900, 0.002285, -0.022426, 0.009693},
    {0.004471, 0.019078, -0.010224, -0.027922, -0.006240, 0.008366, -0.005164, 0.030087, 0.009875, -0.002691},
    {-0.013024, 0.028257, -0.016861, 0.014714, -0.009788, 0.021595, -0.000728, -0.000368, 0.003522, -0.005309},
    {-0.003201, 0.006790, -0.006499, 0.006412, 0.019891, 0.018459, 0.010821, 0.015205, -0.010391, -0.011542},
    {0.007706, 0.029578, -0.007508, -0.009716, -0.005722, -0.010750, -0.013982, 0.030494, -0.023438, -0.005903},
    {-0.002249, -0.000870, -0.020283, 0.011677, -0.015907, 0.005875, -0.016163, 0.012203, -0.003158, 0.001621},
    {0.011785, 0.014939, -0.004098, -0.023293, -0.044931, 0.037992, 0.020929, 0.031405, -0.055775, 0.021155},
    {-0.021902, 0.013646, -0.017722, 0.012582, -0.014242, -0.015023, 0.005283, 0.001870, -0.013506, 0.005232},
    {-0.016568, 0.014368, 0.002591, -0.002249, 0.002791, 0.003644, -0.007182, -0.008016, -0.018965, 0.021113},
    {0.070279, 0.051901, -0.042379, -0.020315, -0.022003, -0.016758, 0.008187, -0.019676, 0.003915, 0.032001},
    {0.018765, 0.034464, 0.003040, 0.004007, -0.002187, 0.009289, -0.010132, -0.037895, 0.004610, -0.004873},
    {0.010242, 0.065234, 0.025639, -0.004630, -0.037546, 0.009090, -0.013215, 0.026680, -0.059670, -0.020296},
    {-0.020045, -0.005003, -0.006348, -0.003429, 0.013304, 0.001441, -0.021242, 0.007433, -0.001757, -0.007724},
    {0.006803, 0.015242, 0.001790, -0.016027, -0.012610, 0.002491, -0.021678, 0.010763, -0.001487, -0.002426},
    {0.030067, 0.058893, -0.034830, -0.021541, -0.000709, -0.034581, 0.021110, 0.035241, -0.027157, 0.020333},
    {0.041863, 0.029760, -0.021700, 0.006949, -0.039506, 0.002669, -0.014684, 0.022227, -0.006149, 0.001235},
    {0.003065, 0.015009, -0.026533, 0.016147, -0.010200, 0.015732, -0.000470, 0.019710, 0.006669, 0.024978},
    {0.002390, 0.017382, -0.022696, -0.010132, -0.005529, 0.015791, 0.009959, 0.008715, -0.013323, 0.006191},
    {-0.025320, 0.002458, -0.000650, -0.000068, -0.022028, 0.005019, 0.000148, -0.004175, -0.035560, 0.007158},
    {0.007084, 0.052162, -0.018764, -0.016215, 0.008530, -0.003334, -0.000581, 0.034055, -0.012860, -0.021902},
    {-0.009425, 0.028921, -0.000246, -0.012317, -0.017233, 0.015679, -0.012960, 0.021632, -0.001655, -0.000437},
    {-0.009351, -0.015454, -0.011895, 0.000909, -0.008116, -0.015268, 0.009875, -0.010097, -0.003546, -0.011998},
    {0.011417, 0.036006, -0.012891, -0.003769, -0.027861, 0.015436, 0.005348, 0.002854, -0.025885, 0.010490},
    {0.003780, 0.042519, -0.004249, -0.050266, -0.010571, -0.029174, 0.012182, 0.016824, 0.016386, 0.011259},
    {0.009780, 0.013269, 0.014874, -0.016294, -0.009272, 0.009995, -0.010309, -0.010081, -0.008332, 0.021531},
    {0.005094, -0.010558, 0.010708, 0.003066, -0.016112, 0.021384, -0.025660, -0.041387, 0.008632, 0.015358},
    {-0.017670, 0.035324, -0.021358, -0.022681, 0.003340, -0.028694, -0.001093, 0.025115, 0.014132, -0.010811},
    {-0.010519, 0.002198, 0.005824, 0.011014, -0.002168, 0.011462, 0.002462, -0.010811, -0.018559, 0.016092},
    {0.067414, 0.011502, -0.032951, 0.034354, 0.023514, 0.050443, -0.013714, -0.032747, -0.043764, 0.049530},
    {-0.010463, -0.002447, -0.021841, 0.013660, 0.004239, -0.004679, 0.004539, 0.023350, -0.021631, 0.008504},
    {-0.015797, 0.019293, 0.010511, 0.011214, -0.002596, 0.028368, -0.002414, 0.023043, -0.004174, -0.006972},
    {-0.007875, 0.012418, -0.009835, -0.000432, -0.014356, -0.009332, -0.009236, -0.017681, 0.004493, 0.001646},
    {0.008416, -0.002851, -0.005799, -0.005231, 0.002007, 0.017516, -0.000766, 0.002511, -0.018962, 0.022246},
    {-0.007405, 0.004780, -0.024477, -0.010783, -0.008178, 0.014934, 0.000620, 0.008885, 0.022245, -0.012814},
    {-0.007292, 0.012805, 0.008294, -0.014327, 0.009370, -0.005984, -0.015486, 0.010583, -0.024583, 0.004367},
    {-0.014027, -0.002411, 0.008429, -0.000427, -0.005175, 0.013769, 0.004907, 0.011645, -0.004233, 0.000655},
    {0.010557, 0.017609, -0.016276, -0.007531, 0.012848, 0.003494, -0.003474, 0.015200, -0.024334, 0.008977},
    {0.002252, 0.017127, -0.006024, -0.009990, -0.005186, 0.016155, -0.006585, 0.002005, 0.006207, 0.009490},
    {-0.000571, 0.014195, 0.005424, -0.032831, -0.032695, 0.016503, 0.011245, 0.041565, -0.034444, 0.028861},
    {-0.004375, 0.018127, 0.004253, -0.007425, -0.010804, 0.001771, -0.010181, -0.000024, 0.007259, -0.004618},
    {-0.013100, 0.030229, -0.004729, -0.003454, -0.016462, 0.010700, -0.014644, -0.010040, -0.031888, 0.025076},
    {0.062049, 0.047387, -0.015650, -0.026347, -0.004692, -0.013035, -0.000850, -0.012378, 0.002841, 0.016508},
    {-0.010592, 0.018715, -0.020622, 0.005635, -0.026751, -0.004515, -0.026581, -0.020896, 0.002366, 0.002004},
    {-0.014136, 0.069135, 0.034381, -0.022721, -0.023586, 0.024445, 0.010868, 0.033620, -0.046921, -0.018069},
    {0.005723, -0.002677, -0.005328, -0.014987, 0.007901, -0.008949, 0.010414, -0.007247, -0.023592, -0.015214},
    {0.003825, 0.010148, -0.014151, -0.019075, -0.018725, 0.011437, 0.014383, -0.007594, 0.004311, 0.008726},
    {0.030280, 0.064696, -0.027785, -0.001677, -0.007566, -0.063586, 0.031254, 0.034679, -0.045310, 0.020158},
    {-0.008615, 0.018634, -0.018587, -0.012278, -0.031853, 0.006541, 0.044326, 0.016036, -0.005938, -0.017472},
    {-0.041892, 0.023973, -0.027085, 0.003439, -0.039767, -0.013025, 0.039960, -0.001542, -0.020131, 0.013400},
    {-0.019883, 0.020442, -0.013313, -0.014330, 0.008097, -0.007147, -0.014218, -0.005374, -0.001470, -0.005986},
    {-0.018414, 0.013092, -0.006154, -0.010014, -0.028123, 0.010860, 0.021619, -0.000903, -0.010662, -0.020014},
    {-0.003286, 0.028460, 0.006068, 0.000408, -0.006412, 0.002901, 0.000295, 0.017135, -0.005927, 0.004720},
    {-0.041154, 0.011623, -0.001058, 0.000244, -0.007709, 0.018336, 0.009560, 0.012652, 0.008776, -0.005551},
    {-0.008468, -0.011191, 0.009356, -0.001491, -0.013745, 0.010786, 0.011075, 0.005675, -0.003532, 0.004619},
    {-0.023861, 0.015538, 0.007765, -0.014094, -0.026919, 0.017258, 0.016078, -0.010515, -0.003952, 0.003006},
    {0.018666, 0.030977, -0.014529, -0.017467, -0.047248, -0.036988, 0.028851, 0.011621, 0.001848, -0.004005},
    {-0.002183, -0.005027, -0.005853, -0.011796, -0.020670, 0.007246, -0.021615, -0.008858, -0.021277, 0.016759},
    {0.014548, 0.021374, -0.004170, -0.005255, -0.039839, 0.008187, 0.032796, -0.021760, 0.016863, 0.025625},
    {-0.008249, 0.014946, -0.016450, -0.006513, 0.001236, -0.000673, 0.027150, 0.026431, -0.008852, 0.004861},
    {-0.008439, -0.002337, 0.013450, 0.024029, -0.018074, 0.003391, -0.003608, -0.006365, -0.006443, -0.007539},
    {0.038131, 0.001017, -0.057584, 0.021034, -0.002446, 0.052943, -0.023936, -0.037714, -0.051034, 0.051456},
    {-0.041934, 0.001581, -0.015059, 0.014010, -0.030056, 0.022029, 0.031734, 0.022978, -0.006118, -0.005519},
    {-0.010099, 0.002126, 0.004605, 0.009360, -0.005428, 0.001725, 0.006054, 0.017781, -0.003495, 0.004814},
    {-0.031111, 0.003816, -0.011779, -0.005428, -0.064869, -0.000280, 0.040888, -0.012185, 0.005484, 0.011326},
    {-0.024027, -0.005168, -0.022344, 0.011453, -0.033619, 0.001693, 0.037594, 0.007257, -0.024436, 0.014960},
    {-0.020406, -0.004255, -0.026824, -0.026748, -0.001109, 0.018024, 0.015309, 0.009068, 0.007302, 0.010685},
    {-0.012925, 0.009269, 0.007255, 0.011590, -0.008871, 0.009404, 0.002985, 0.022998, -0.018609, -0.014799},
    {-0.014716, 0.018543, -0.012537, 0.007827, 0.011447, 0.011813, -0.011409, 0.017917, 0.001953, -0.001101},
    {0.016032, 0.017934, -0.014024, -0.006063, -0.012311, -0.012866, 0.006644, 0.014145, -0.017579, -0.006027},
    {-0.019574, 0.008735, -0.004510, -0.007734, -0.008856, 0.013866, 0.012621, 0.022888, -0.004800, -0.009357},
    {-0.002094, 0.006344, -0.006372, -0.016669, -0.040611, 0.038075, 0.030979, 0.020551, -0.046613, 0.027940},
    {-0.013393, 0.005199, -0.009183, -0.003715, -0.073585, 0.002024, 0.078116, -0.015152, -0.024476, -0.013160},
    {-0.020161, 0.019920, -0.026771, -0.013259, -0.013046, 0.000488, 0.028554, -0.002832, -0.015030, 0.022581},
    {-0.008551, 0.055118, -0.044749, -0.021507, -0.039481, -0.019090, 0.054503, -0.005627, -0.025336, 0.022391},
    {0.009419, 0.018282, -0.012882, -0.006785, -0.015890, 0.000287, -0.001334, -0.026136, 0.024226, 0.004904},
    {0.011349, 0.048202, 0.011361, -0.014535, -0.038954, 0.023707, -0.014354, 0.035703, -0.048385, -0.030619},
    {0.011906, 0.010724, 0.000250, -0.017672, -0.002525, 0.011944, 0.004789, -0.005959, 0.000220, 0.013261},
    {-0.013347, -0.001618, 0.008714, -0.025694, -0.043047, -0.010366, 0.024016, 0.014475, -0.018915, 0.012839},
    {0.050966, 0.056406, -0.019306, -0.007540, -0.002523, -0.045608, 0.005935, 0.011479, -0.039110, 0.006991},
    {0.011012, 0.010194, -0.031302, -0.020742, -0.120201, -0.006444, 0.061842, -0.003395, 0.004090, -0.029109},
    {-0.032059, 0.018555, -0.031254, -0.004962, -0.051551, -0.029187, 0.042599, -0.020969, -0.012114, -0.022460},
    {-0.018510, 0.020226, -0.010656, -0.021772, -0.020910, -0.014175, 0.017239, 0.017760, 0.000177, -0.011184},
    {0.001023, 0.020346, 0.000390, 0.006836, -0.028934, 0.010157, 0.030662, 0.025177, -0.024012, 0.004502},
    {0.009920, 0.022901, -0.020424, -0.023935, -0.008034, 0.012414, 0.007390, 0.005910, -0.007520, -0.004802},
    {-0.024194, 0.021766, -0.005222, -0.012320, -0.052407, 0.006537, 0.034802, 0.022193, 0.003795, 0.006171},
    {-0.011938, -0.000462, -0.016523, 0.010210, 0.010375, 0.013563, 0.000008, -0.005262, -0.011466, 0.013206},
    {0.002649, 0.046834, 0.007463, -0.008374, -0.051571, 0.020198, 0.025417, 0.010001, 0.004019, 0.005952},
    {0.018340, 0.016549, 0.004431, -0.038555, -0.003189, -0.032752, -0.003086, 0.017250, 0.025754, -0.004606},
    {-0.011986, 0.005244, 0.007905, 0.010123, -0.007542, 0.019110, -0.022644, 0.011349, -0.004078, 0.008747},
    {0.006896, -0.007087, -0.005620, -0.003825, -0.083902, -0.005059, 0.040179, -0.043285, -0.009815, 0.028334},
    {0.009954, 0.026097, -0.031551, -0.021614, -0.007052, -0.002211, -0.002666, 0.044962, 0.016362, -0.007796},
    {-0.008913, -0.002026, -0.000281, 0.000193, -0.034515, -0.014923, 0.006299, -0.010204, -0.028546, -0.006521},
    {0.051636, 0.011459, -0.064802, 0.014474, 0.012512, 0.039753, -0.007892, -0.017059, -0.071339, 0.036771},
    {-0.018900, 0.004261, -0.026307, -0.005865, -0.037174, -0.001833, 0.035066, -0.000173, -0.026677, -0.019139},
    {-0.008497, 0.008047, -0.007061, -0.011754, -0.014576, -0.001059, -0.000624, 0.020466, -0.017336, -0.010951},
    {0.009815, 0.001383, -0.004325, 0.009991, -0.062667, -0.017593, 0.052042, -0.016450, -0.007139, 0.006523},
    {-0.007784, -0.000144, -0.025217, 0.009472, -0.052070, 0.000646, 0.061894, -0.013166, -0.015424, 0.003688},
    {-0.001551, 0.009719, -0.019350, -0.015394, -0.008302, 0.017442, 0.014246, 0.011392, -0.007599, -0.009711},
    {0.003317, 0.019264, -0.023101, -0.010481, -0.014266, 0.010896, 0.008799, 0.012028, -0.028270, -0.013430},
    {-0.017791, 0.025741, -0.014109, -0.001846, 0.013558, 0.000133, 0.001871, 0.016706, -0.017515, -0.007659},
    {0.008016, 0.009581, -0.020300, 0.002656, -0.000820, -0.010588, -0.008233, 0.015493, -0.024108, -0.021211},
    {-0.004070, 0.024857, -0.002725, -0.002249, -0.047000, 0.016450, 0.057128, 0.011810, -0.023924, -0.007453},
    {-0.002369, 0.004100, -0.007205, -0.006711, -0.030004, 0.041584, 0.023647, 0.019805, -0.051225, 0.006638},
    {0.048073, 0.010124, -0.014871, 0.007785, -0.082840, 0.001151, 0.064710, -0.000590, 0.003554, -0.012621},
    {-0.032736, 0.025030, -0.017143, 0.006001, -0.042149, -0.017084, 0.054127, 0.005614, -0.011358, 0.000543},
    {-0.003966, 0.055361, -0.047048, -0.014414, -0.097109, -0.018658, 0.079674, -0.021776, -0.004919, -0.003559},
    {0.018115, 0.004604, -0.004668, -0.011400, 0.001894, 0.003173, -0.018021, -0.035717, 0.019303, 0.015770},
    {-0.013886, 0.064602, 0.012091, -0.000990, -0.016067, 0.030597, -0.018989, 0.030424, -0.047991, -0.031803},
    {0.053857, -0.004629, -0.010666, 0.007358, -0.050426, -0.016725, 0.011872, 0.007363, -0.011779, -0.002976},
    {0.011850, 0.003853, -0.022612, -0.008784, -0.066365, 0.000574, 0.044662, -0.007228, -0.009732, -0.012236},
    {0.044753, 0.066072, -0.043361, -0.020351, -0.010477, -0.034752, 0.030890, 0.016331, -0.043240, 0.021480},
    {-0.008281, -0.074235, 0.048413, -0.025705, -0.145998, -0.007698, 0.110831, -0.002390, -0.018454, -0.035105},
    {-0.023717, -0.023256, -0.026672, -0.016154, -0.085678, -0.025041, 0.067803, 0.002297, -0.000306, 0.001027},
    {0.004713, 0.007649, -0.018359, -0.010319, -0.023302, -0.008708, 0.025139, -0.015501, 0.007376, -0.008760},
    {-0.000882, -0.003290, 0.029385, -0.000176, -0.033697, 0.014468, 0.019451, 0.020177, -0.036896, 0.000239},
    {0.015799, 0.031371, -0.017984, -0.015411, 0.004437, -0.019601, 0.005901, 0.021638, -0.006508, -0.006695},
    {-0.037489, 0.009329, -0.038377, -0.017997, -0.041839, -0.015453, 0.063586, -0.008778, -0.019350, -0.007500},
    {-0.004617, 0.002567, 0.007790, 0.005080, -0.002805, 0.003711, -0.007106, -0.007756, 0.010795, 0.001604},
    {0.011266, 0.015030, 0.009116, -0.000680, -0.070353, 0.003765, 0.052768, -0.013100, -0.024775, -0.007109},
    {-0.010290, 0.010462, 0.011381, -0.037683, -0.055325, -0.026340, 0.037677, 0.002857, 0.023440, -0.005519},
    {-0.031091, 0.002544, 0.021912, 0.008203, -0.041236, 0.008523, 0.048757, 0.013152, -0.007954, 0.018100},
    {0.012093, -0.017176, 0.010718, 0.006436, -0.074652, -0.004768, 0.063364, -0.026541, -0.011969, 0.025835},
    {-0.000533, 0.034079, -0.002578, -0.015166, 0.004192, -0.007732, 0.021122, 0.038168, 0.007376, -0.019621},
    {-0.018859, -0.001882, 0.002100, 0.016397, -0.038917, 0.001735, 0.015077, 0.010872, -0.014581, 0.003879},
    {0.053251, 0.014677, -0.058491, 0.040883, -0.049589, 0.021403, 0.027488, -0.028239, -0.069202, 0.018736},
    {-0.041356, 0.000139, -0.012652, -0.015237, -0.049189, -0.014874, 0.064285, -0.017054, -0.027811, -0.017520},
    {-0.022959, 0.027681, 0.013092, 0.009016, -0.012959, 0.013371, 0.010564, 0.001832, -0.024619, -0.011507},
    {-0.014822, 0.000051, -0.013704, 0.009120, -0.058172, -0.002961, 0.046888, -0.003956, -0.006657, 0.016884},
    {-0.054771, -0.034577, -0.021175, -0.004002, -0.077742, -0.007389, 0.080421, -0.020876, -0.018060, 0.011409},
    {-0.023491, 0.017714, -0.018465, -0.016914, -0.072289, 0.007650, 0.074492, 0.009117, 0.000292, -0.007220},
    {-0.013219, 0.021621, -0.010053, -0.005882, -0.027664, 0.019503, 0.018486, 0.002124, -0.001624, -0.018646},
    {-0.011549, 0.003766, -0.022947, -0.020520, -0.054041, -0.014325, 0.030558, -0.001823, -0.001015, -0.005376},
    {0.017507, 0.031476, -0.005002, -0.005716, -0.010223, 0.005270, 0.005391, 0.015714, -0.001510, -0.013838},
    {-0.005787, -0.011711, 0.007743, 0.004832, -0.060555, -0.001246, 0.072755, 0.015168, -0.012951, 0.000043},
    {0.025411, 0.006704, -0.002663, -0.029812, -0.065146, 0.008738, 0.025739, 0.032507, -0.059443, -0.008994},
    {-0.051506, -0.030922, -0.014946, 0.012024, -0.072664, 0.009338, 0.086369, 0.009586, -0.012200, 0.014067},
    {-0.043103, -0.034036, -0.021154, -0.001445, -0.047342, -0.009605, 0.068351, -0.023833, -0.022749, -0.009347},
    {-0.008529, -0.033721, 0.022517, -0.033592, -0.123822, -0.028271, 0.128586, -0.021018, -0.011479, 0.010638},
    {0.010722, 0.003413, -0.007865, 0.017886, 0.003180, -0.002008, -0.008556, -0.027140, 0.023609, 0.000252},
    {-0.011291, 0.074588, 0.016645, -0.014109, -0.019745, 0.034182, -0.008325, 0.038265, -0.044207, -0.030991},
    {-0.028925, 0.007878, -0.010743, 0.001526, -0.050513, -0.013041, 0.079444, 0.014907, -0.006716, -0.014857},
    {-0.076000, -0.070900, -0.009641, -0.031984, -0.062244, -0.018037, 0.050450, 0.000584, -0.014662, 0.010957},
    {0.051081, 0.079001, -0.026488, -0.024209, 0.007271, -0.063248, 0.028755, 0.041538, -0.024645, 0.007383},
    {-0.026090, -0.062509, 0.071711, -0.012809, -0.128832, -0.050851, 0.073574, 0.001029, -0.021551, -0.038705},
    {-0.072391, -0.043362, 0.009390, -0.025656, -0.063043, -0.038088, 0.029951, -0.010426, -0.004161, -0.003658},
    {-0.021449, 0.009418, -0.029851, -0.026155, -0.042752, 0.004212, 0.031273, -0.016955, -0.008170, -0.002061},
    {-0.000673, -0.026404, 0.046847, 0.008727, -0.042728, 0.010534, -0.002454, 0.009470, -0.016527, 0.011868},
    {0.011120, 0.056431, -0.009921, -0.019092, 0.011496, -0.005595, -0.013638, 0.014913, -0.027214, -0.023342},
    {-0.044058, -0.040790, 0.007381, -0.019170, -0.064197, -0.013788, 0.060717, -0.008501, 0.002157, -0.010812},
    {0.016615, 0.007294, 0.013552, -0.006303, -0.009814, 0.003032, 0.000330, 0.016594, -0.010784, 0.001951},
    {-0.014066, -0.031285, 0.054155, -0.015905, -0.053637, -0.000828, -0.000966, -0.014267, 0.000050, 0.010743},
    {-0.007775, 0.022508, 0.011312, -0.031965, 0.004325, -0.034525, -0.011528, 0.024691, 0.011110, -0.005901},
    {-0.004805, 0.013080, 0.009248, -0.004298, -0.092030, -0.006330, 0.090725, -0.014705, -0.020186, -0.002727},
    {-0.030254, -0.063700, 0.101097, -0.009877, -0.068756, 0.020436, 0.025405, -0.044148, 0.007816, 0.017024},
    {-0.009409, 0.012600, -0.024356, -0.032624, -0.010693, 0.000930, 0.019354, 0.024300, 0.004362, -0.019921},
    {-0.001654, -0.004060, 0.018023, 0.010540, -0.016357, -0.016607, -0.019790, -0.005356, -0.026717, 0.003700},
    {0.054637, 0.011891, -0.051255, 0.035884, -0.066331, 0.023566, 0.062910, -0.012326, -0.069172, 0.035682},
    {-0.051049, -0.070967, 0.003160, -0.021762, -0.069517, -0.033452, 0.046354, 0.001446, -0.016528, -0.012585},
    {-0.010604, 0.028749, 0.008285, 0.010991, -0.038135, 0.002865, 0.019453, 0.018266, -0.009645, -0.009799},
    {-0.010753, -0.006344, -0.007192, -0.000419, -0.061437, -0.014004, 0.027007, -0.014035, -0.014102, 0.006832},
    {-0.066223, -0.045180, 0.006754, -0.033906, -0.047826, -0.018072, 0.021667, -0.020189, -0.011760, 0.004372},
    {0.009639, -0.010272, -0.007608, -0.029767, -0.074078, -0.036875, 0.083563, -0.012217, -0.015198, -0.023026},
    {-0.015330, 0.024656, -0.005804, -0.016816, -0.013287, -0.000155, -0.000631, 0.000931, -0.019216, -0.004060},
    {-0.020732, 0.005602, -0.014553, -0.005901, -0.069145, -0.013867, 0.054169, 0.006634, -0.021836, -0.006824},
    {-0.009597, 0.017187, 0.006217, -0.002222, 0.021353, -0.020205, -0.006484, 0.013159, -0.020601, -0.019346},
    {-0.046651, -0.053693, 0.026786, -0.016919, -0.075907, 0.009585, 0.032706, 0.004027, -0.005285, -0.020703},
    {-0.015519, 0.023656, -0.019474, -0.022227, -0.086312, 0.011938, 0.073117, 0.026601, -0.066840, 0.002987},
    {-0.023862, -0.007883, 0.009410, -0.010622, -0.022864, -0.030382, 0.006546, -0.011218, 0.005658, 0.011722},
    {-0.063920, -0.069778, 0.000548, -0.027895, -0.074720, -0.040040, 0.049000, -0.010779, -0.046514, -0.015000},
    {-0.016538, -0.053258, 0.068487, -0.027943, -0.119996, -0.057190, 0.078210, -0.024306, -0.028679, 0.015890},
    {-0.007872, 0.011206, -0.021331, -0.006760, -0.013405, -0.011869, -0.006602, -0.021874, 0.023922, 0.017151},
    {-0.014754, 0.069703, 0.019635, 0.002250, -0.007197, 0.012636, -0.021358, 0.019739, -0.033588, -0.038388},
    {-0.011955, -0.049433, 0.058306, -0.024901, -0.004197, -0.003359, 0.007318, -0.002988, 0.000710, -0.016486},
    {-0.080103, -0.069647, 0.016318, -0.005221, -0.076619, -0.025086, 0.011289, -0.005892, -0.034796, -0.016622},
    {0.049061, 0.063349, -0.023376, 0.003341, 0.006612, -0.063598, 0.031791, 0.042650, -0.022218, 0.031593},
    {-0.166536, -0.112964, 0.124833, -0.015903, -0.191723, -0.045008, 0.066531, -0.010904, -0.068238, -0.025748},
    {-0.107022, -0.043001, 0.039074, -0.014437, -0.131143, -0.040887, 0.027050, -0.024304, -0.036831, -0.002061},
    {-0.035915, 0.015093, -0.005714, -0.004367, -0.059642, 0.001871, 0.029607, -0.013886, 0.003746, -0.010344},
    {-0.026657, 0.018500, 0.048965, -0.008457, -0.066564, 0.022662, 0.011350, 0.009350, -0.031610, -0.009515},
    {0.005456, 0.033659, -0.024402, 0.002658, 0.006123, -0.003015, -0.002105, 0.006912, -0.025544, -0.023533},
    {-0.040353, -0.010977, 0.013341, -0.002336, -0.082948, -0.003587, 0.044424, -0.010388, -0.032632, -0.007152},
    {0.006545, 0.010046, 0.014393, -0.012864, -0.009469, 0.006571, 0.008081, 0.015885, 0.016379, 0.008033},
    {-0.031644, -0.008089, 0.088112, -0.011286, -0.069870, 0.005650, 0.011321, 0.005587, -0.035930, -0.009542},
    {0.007368, 0.042537, -0.006964, -0.024015, -0.003676, -0.020277, -0.001407, 0.030950, 0.003160, -0.017298},
    {-0.044760, -0.044671, 0.049724, -0.014475, -0.090461, -0.001787, 0.071116, 0.015686, -0.010754, -0.003462},
    {-0.061169, -0.053799, 0.112892, 0.008114, -0.109502, -0.007277, 0.015474, -0.020351, 0.004858, -0.003640},
    {-0.008130, 0.013167, -0.031110, -0.002766, 0.004918, -0.006516, 0.007252, 0.031804, -0.000602, -0.019102},
    {0.007138, 0.012574, 0.007770, 0.017791, -0.000625, -0.012110, -0.011887, -0.010304, -0.029754, -0.006154},
    {0.015248, -0.028555, -0.031303, 0.003077, -0.054039, 0.031033, 0.046992, -0.013619, -0.049274, 0.021532},
    {-0.103375, -0.072641, 0.020806, -0.025735, -0.092495, -0.031679, 0.058751, -0.013442, -0.043173, -0.019618},
    {0.003678, 0.018357, -0.011291, 0.011724, -0.036475, -0.001365, 0.037785, 0.015571, -0.031115, -0.003758},
    {-0.058293, -0.012974, 0.024270, -0.014058, -0.073749, -0.007721, 0.047977, -0.027735, 0.001003, -0.012183},
    {-0.092878, -0.035426, 0.043539, -0.007972, -0.125457, -0.012469, 0.052428, -0.011416, -0.032262, -0.027802},
    {-0.099307, -0.074051, 0.028264, -0.038893, -0.072222, -0.020680, 0.072752, -0.016000, -0.007455, -0.007662},
    {-0.024466, 0.000716, -0.022870, -0.003149, -0.027325, -0.015397, 0.028036, -0.004467, -0.013867, -0.020305},
    {-0.043646, -0.027475, 0.010446, -0.036630, -0.077673, -0.013254, 0.049396, -0.012663, -0.005155, -0.002051},
    {0.008694, 0.009289, -0.018548, -0.003163, 0.014914, -0.004307, 0.013117, 0.009956, -0.018767, -0.009226},
    {-0.063232, -0.064012, 0.084850, -0.017555, -0.108103, -0.022758, 0.038891, -0.019305, -0.019632, -0.020846},
    {-0.054446, -0.080593, 0.009798, -0.038062, -0.068274, -0.001981, 0.067700, 0.027530, -0.070460, -0.001783},
    {-0.075459, -0.021417, -0.004803, -0.001017, -0.134252, -0.001297, 0.109977, -0.019055, -0.005598, -0.018426},
    {-0.100539, -0.043511, 0.031076, -0.014221, -0.118617, -0.035183, 0.052655, -0.045369, -0.054557, 0.001122},
    {-0.156588, -0.084177, 0.113355, -0.030799, -0.194747, -0.057936, 0.059570, -0.052485, -0.070760, -0.007686},
    {0.021161, 0.004394, -0.021707, -0.003448, 0.002924, -0.011431, -0.031835, -0.012697, 0.013642, -0.002976},
    {-0.001820, 0.066930, 0.000891, 0.000234, -0.009872, 0.026723, -0.017676, 0.032281, -0.040168, -0.013376},
    {-0.016949, -0.007669, 0.071386, -0.004853, -0.062127, 0.016530, -0.019301, -0.004987, -0.032558, -0.016473},
    {-0.086807, -0.063483, 0.063607, 0.013093, -0.123305, -0.006337, 0.056942, -0.031430, -0.049477, -0.004892},
    {0.032445, 0.062476, -0.048815, -0.011120, 0.023890, -0.059186, 0.025400, 0.037154, -0.047628, 0.000732},
    {-0.170397, -0.134854, 0.133864, 0.018273, -0.240940, -0.041083, 0.093180, -0.040532, -0.091601, -0.045400},
    {-0.078779, -0.031542, 0.029897, -0.004729, -0.114807, -0.028441, 0.074948, -0.042665, -0.038098, -0.043546},
    {-0.046672, -0.010314, -0.010879, -0.005128, -0.048528, -0.014617, 0.028615, -0.018228, -0.001486, -0.030414},
    {-0.013614, 0.000894, -0.011729, 0.001220, -0.061260, 0.003356, 0.085146, -0.008591, -0.035716, -0.017381},
    {0.014411, 0.046679, -0.024840, -0.022195, -0.005754, 0.008786, -0.000252, 0.039275, -0.005877, 0.004839},
    {-0.061315, -0.034703, 0.001892, -0.001411, -0.102672, -0.009693, 0.066157, -0.014128, -0.032892, -0.029574},
    {0.010349, 0.002889, -0.004475, -0.011688, -0.008345, 0.000396, -0.007057, 0.003440, 0.013287, -0.011743},
    {-0.025681, -0.002831, 0.061142, -0.010360, -0.128844, 0.011381, 0.075402, -0.006436, -0.009061, -0.030570},
    {0.056489, 0.038248, 0.000950, -0.025160, 0.000183, -0.036955, 0.012905, 0.013942, -0.002169, -0.042734},
    {-0.026606, -0.068398, 0.074219, 0.006045, -0.075142, 0.014562, 0.040203, 0.008179, -0.009047, -0.006357},
    {-0.047273, -0.047534, 0.092614, 0.014605, -0.156365, -0.014865, 0.096509, -0.050436, -0.023902, -0.010989},
    {-0.002896, 0.033239, -0.015686, -0.008720, 0.021630, -0.028092, -0.000894, 0.044544, -0.008926, 0.008595},
    {0.021351, 0.003461, 0.012569, 0.017284, -0.024087, -0.010321, -0.014429, -0.004389, -0.012543, 0.009270},
    {0.010903, -0.011417, -0.021726, 0.006183, -0.054001, 0.034894, 0.028391, -0.048623, -0.072331, 0.015155},
    {-0.114191, -0.059621, 0.014614, -0.001340, -0.126973, -0.028633, 0.069608, -0.015193, -0.044409, -0.026610},
    {-0.014441, -0.012148, 0.041866, 0.010523, -0.025132, 0.008903, 0.001489, 0.000269, -0.021079, -0.016180},
    {-0.025771, -0.014398, -0.018212, -0.004887, -0.041485, -0.011431, 0.062781, -0.036320, -0.019618, -0.046854},
    {-0.064515, -0.035395, 0.003988, 0.000678, -0.096879, -0.032354, 0.079126, -0.023687, -0.041197, -0.058161},
    {-0.133742, -0.091315, 0.054974, -0.015525, -0.085865, -0.046967, 0.019664, -0.013838, -0.037099, -0.001288},
    {-0.014631, 0.019374, -0.023447, -0.010857, -0.014617, -0.019321, 0.027886, -0.016278, -0.023786, -0.034534},
    {-0.037955, -0.064174, 0.011194, -0.031468, -0.082369, -0.022333, 0.044571, -0.022203, -0.014484, -0.022092},
    {0.003347, 0.036467, -0.012112, -0.000088, 0.020336, 0.002511, -0.020361, 0.025805, -0.005218, -0.013707},
    {-0.070578, -0.069824, 0.076428, 0.006024, -0.129994, -0.025930, 0.052971, -0.021149, -0.040679, -0.028529},
    {-0.076899, -0.067885, 0.002502, -0.034198, -0.092708, 0.002432, 0.060628, 0.002953, -0.059041, 0.008541},
    {-0.016632, -0.037560, 0.011742, -0.058093, -0.085619, -0.027717, 0.082307, -0.021378, -0.008239, -0.079686},
    {-0.083628, -0.058157, 0.022916, 0.007194, -0.117949, -0.018814, 0.064682, -0.042231, -0.026121, -0.029000},
    {-0.130297, -0.126860, 0.122248, 0.013844, -0.202207, -0.059877, 0.075840, -0.062470, -0.089543, -0.039373},
    {0.019108, 0.004437, -0.013517, 0.015426, 0.000690, -0.002294, -0.036627, -0.022745, -0.004942, 0.002867},
    {-0.008686, 0.061981, 0.002246, -0.009217, -0.010451, 0.012391, -0.040303, 0.035055, -0.054565, -0.040322},
    {-0.061668, -0.013100, -0.011297, 0.008987, -0.077999, -0.000503, 0.089578, -0.002799, -0.039541, 0.002086},
    {-0.095900, -0.043130, -0.011146, -0.009953, -0.108331, -0.035450, 0.091823, -0.037930, -0.029107, -0.019936},
    {0.033873, 0.077499, -0.043778, -0.028191, -0.001653, -0.044660, 0.032427, 0.019474, -0.037392, 0.004053},
    {-0.178439, -0.112609, 0.134032, -0.001732, -0.170869, -0.083581, 0.064104, -0.048955, -0.147065, -0.111425},
    {-0.044859, -0.011887, 0.004621, 0.002831, -0.117244, -0.022353, 0.074657, -0.058742, -0.028699, -0.077144},
    {-0.045262, 0.008814, -0.021187, 0.006759, -0.047667, -0.011371, 0.020433, -0.001916, -0.017191, -0.009498},
    {-0.003665, -0.028997, 0.075094, -0.008912, -0.020598, 0.010508, 0.003280, -0.013688, -0.041156, -0.032834},
    {0.014937, 0.033937, -0.028062, -0.005165, -0.006535, -0.020592, 0.015182, 0.007370, -0.005326, -0.012306},
    {-0.051198, -0.019327, 0.011461, -0.012216, -0.077267, -0.013264, 0.059700, -0.012464, -0.012114, -0.026662},
    {0.003647, -0.007464, 0.013498, 0.012180, 0.009876, 0.008471, -0.014663, 0.012250, 0.002680, -0.008727},
    {-0.034491, 0.010172, 0.052955, 0.005529, -0.083415, 0.007275, 0.055614, -0.028441, -0.006285, -0.032855},
    {0.006565, 0.036669, -0.018256, -0.020614, -0.046013, -0.012135, 0.019041, 0.005169, -0.003522, -0.028853},
    {-0.056028, -0.075657, 0.116584, -0.017076, -0.105749, 0.015314, 0.008491, -0.009696, -0.044366, 0.008061},
    {-0.033117, -0.079415, 0.073369, 0.003338, -0.083762, -0.031416, 0.068831, -0.044852, -0.006774, -0.034174},
    {0.003225, 0.013614, -0.016559, -0.021338, 0.012476, -0.022615, -0.008189, 0.042544, 0.000004, -0.016714},
    {0.039290, 0.007048, -0.010041, 0.013567, -0.023911, 0.010068, 0.043679, 0.001046, -0.032422, -0.006892},
    {-0.036638, -0.038363, -0.019546, 0.000599, -0.046871, 0.023273, 0.046953, -0.045943, -0.085622, 0.004608},
    {-0.088201, -0.015900, 0.022235, 0.005705, -0.119841, -0.019868, 0.085358, -0.014205, -0.047329, -0.045551},
    {-0.025853, -0.006030, 0.064958, 0.010024, -0.060500, 0.009573, -0.008128, 0.010227, -0.039508, -0.015556},
    {0.015246, 0.009405, -0.010535, -0.021450, -0.092015, -0.028560, 0.056687, -0.051258, -0.005341, -0.085747},
    {-0.012929, -0.030933, 0.034856, 0.017252, -0.101076, -0.028772, 0.051021, -0.056827, -0.051187, -0.087988},
    {-0.143552, -0.068709, 0.082634, -0.001769, -0.124314, -0.041783, 0.023109, -0.037496, -0.064445, -0.026260},
    {-0.017252, 0.029365, -0.003862, -0.002615, -0.065795, 0.002235, 0.050068, 0.003753, -0.014163, -0.019296},
    {-0.081504, -0.032064, 0.029036, 0.011385, -0.113245, -0.035301, 0.041357, -0.034757, -0.033251, -0.032729},
    {0.018484, 0.026998, -0.007325, -0.004834, 0.002544, 0.003900, -0.001618, 0.013562, -0.000613, 0.001935},
    {-0.058455, -0.041178, 0.037493, 0.015301, -0.142093, -0.028795, 0.097955, -0.044451, -0.046039, -0.047053},
    {-0.091102, -0.052979, 0.053634, -0.011002, -0.129653, 0.007115, 0.060024, -0.013981, -0.128746, -0.002446},
    {-0.004358, -0.049596, 0.060702, -0.018051, -0.029743, -0.030343, 0.032534, -0.061202, -0.050140, -0.092329},
    {-0.074976, -0.007885, 0.012674, -0.009232, -0.116207, -0.024173, 0.045977, -0.039746, -0.027689, -0.045329},
    {-0.109148, -0.097818, 0.120634, -0.019135, -0.168616, -0.075180, 0.076103, -0.062521, -0.108128, -0.090393},
    {-0.006583, 0.018607, -0.021174, 0.010038, -0.010210, -0.013077, -0.014009, -0.037760, 0.006899, 0.013477},
    {0.017370, 0.077420, 0.006053, -0.004525, -0.010995, 0.032862, 0.005136, 0.024607, -0.046160, -0.017126},
    {-0.001685, -0.039650, 0.000909, 0.006066, -0.120923, -0.022483, 0.120016, -0.008903, -0.036329, -0.065211},
    {-0.098257, -0.032217, 0.053151, -0.021774, -0.047724, -0.044651, 0.012370, -0.019390, -0.071370, -0.047275},
    {0.048668, 0.083503, -0.046339, -0.014079, -0.008113, -0.049572, 0.036998, 0.030980, -0.021093, 0.015518},
    {-0.165555, 0.070021, 0.073191, -0.018286, -0.131512, -0.097897, 0.042824, -0.071603, -0.146738, -0.142202},
    {-0.074051, 0.076625, -0.009763, -0.041985, -0.051512, -0.043787, 0.016722, -0.036591, -0.061037, -0.042006},
    {-0.028294, 0.000040, 0.014344, 0.006927, -0.051357, -0.014157, 0.047986, -0.023970, -0.014792, -0.058762},
    {-0.059814, 0.102654, -0.007183, -0.041858, -0.023315, 0.018745, -0.005771, -0.004003, -0.034853, -0.006293},
    {0.028145, 0.046395, -0.020776, 0.007486, -0.011669, -0.015166, -0.012763, 0.006609, -0.018131, 0.006043},
    {-0.034153, 0.016592, 0.014618, -0.006531, -0.068639, -0.035926, 0.052604, -0.023957, -0.047727, -0.095288},
    {0.014735, 0.003054, -0.013061, 0.004512, -0.013212, -0.002089, 0.013364, -0.001734, -0.013519, 0.003867},
    {-0.075040, 0.114750, 0.013072, -0.038262, -0.055979, 0.001583, -0.002401, 0.000204, -0.044283, -0.000419},
    {0.013321, 0.015741, -0.014516, -0.024878, -0.010674, -0.019792, 0.006027, 0.035037, 0.016791, 0.005080},
    {-0.053334, -0.030034, 0.065158, -0.017646, -0.138549, 0.009165, 0.083917, -0.019092, -0.032620, -0.031080},
    {-0.097210, 0.096100, 0.034266, -0.034260, -0.049957, -0.044406, -0.001993, -0.051672, -0.016157, -0.016820},
    {-0.008050, 0.014391, -0.014989, -0.002546, 0.011177, -0.020925, 0.019966, 0.024638, 0.007056, -0.010260},
    {0.001773, -0.001559, -0.001549, -0.006540, -0.005306, -0.005672, -0.017327, 0.001901, -0.027987, -0.000072},
    {-0.006736, 0.008532, -0.052854, 0.015255, -0.045248, -0.003179, 0.050149, -0.048872, -0.066644, -0.045103},
    {-0.110347, -0.000123, 0.045511, 0.004360, -0.056880, -0.056761, 0.000605, -0.026925, -0.062923, -0.057636},
    {-0.059647, -0.000636, 0.044412, -0.005165, -0.045575, 0.018894, 0.049117, 0.017327, -0.038769, 0.002477},
    {-0.023622, 0.086776, -0.036834, -0.030744, -0.145894, -0.043987, 0.053598, -0.025411, -0.037617, -0.055269},
    {-0.084018, 0.093948, -0.021705, -0.059196, -0.091208, -0.073595, 0.008950, -0.031331, -0.049811, -0.048193},
    {-0.066900, -0.036341, 0.030807, -0.007767, -0.141747, -0.023887, 0.094585, -0.056924, -0.073420, -0.093473},
    {-0.031997, 0.027256, -0.005885, -0.020700, -0.029375, -0.018753, 0.022567, 0.004192, -0.008124, -0.016418},
    {-0.049002, -0.024602, 0.006187, 0.004962, -0.097560, -0.014261, 0.042921, -0.014119, -0.025398, -0.046367},
    {-0.007894, 0.022402, -0.001580, -0.011339, 0.002491, 0.009181, 0.000413, 0.022127, -0.009122, -0.003244},
    {-0.112694, 0.070313, 0.040479, -0.006012, -0.069226, -0.035156, 0.011719, -0.020783, -0.057386, -0.044260},
    {-0.054512, 0.008851, -0.025156, -0.013213, -0.080964, -0.015333, 0.073207, -0.016657, -0.086616, -0.079235},
    {-0.049987, 0.146595, -0.138096, -0.056064, -0.210110, -0.076660, 0.123721, -0.005551, -0.038065, -0.008524},
    {-0.090156, 0.054050, 0.005271, -0.000382, -0.060240, -0.051376, 0.013694, -0.057185, -0.048062, -0.038069},
    {-0.139515, 0.088681, 0.047328, -0.055037, -0.139118, -0.119856, 0.053867, -0.054787, -0.146108, -0.099678},
    {0.024195, 0.002309, -0.002535, 0.007300, -0.000517, -0.017209, -0.019707, -0.023096, 0.008924, 0.016905},
    {0.009623, 0.047144, 0.022717, -0.011985, -0.004374, 0.010306, -0.012460, 0.028162, -0.051532, -0.021717},
    {-0.077482, 0.204602, -0.126698, -0.090498, -0.057292, -0.033686, -0.022101, -0.024694, -0.035818, -0.000640},
    {-0.089048, 0.107290, -0.031830, -0.078689, -0.058983, -0.067480, -0.007779, -0.031696, -0.044253, -0.042790},
    {0.065151, 0.055951, -0.038434, -0.022868, 0.006523, -0.045872, 0.006606, 0.039034, -0.032479, 0.015968},
    {-0.166186, 0.065795, 0.046716, -0.032593, -0.097272, -0.153046, 0.042054, -0.047803, -0.138184, -0.137362},
    {-0.084465, -0.005361, 0.023291, -0.043073, -0.061196, -0.078862, 0.028361, -0.010240, -0.038550, -0.040565},
    {-0.039079, -0.004573, 0.021348, -0.004297, -0.095474, -0.056270, 0.052891, -0.050222, -0.021980, -0.051722},
    {-0.057195, 0.040794, -0.002803, -0.001420, -0.058491, -0.016776, 0.097367, 0.004163, -0.022558, -0.007383},
    {0.007056, 0.013555, 0.003443, -0.008758, -0.003814, -0.000924, -0.031584, 0.034007, -0.009172, -0.002083},
    {-0.061266, -0.003176, 0.002690, -0.033377, -0.063928, -0.060445, 0.049530, -0.031029, -0.030611, -0.064448},
    {-0.004065, -0.007819, 0.013565, 0.011191, 0.008864, 0.011916, 0.014815, -0.007401, 0.014356, -0.002987},
    {-0.082048, 0.118468, -0.012257, -0.042807, -0.043268, -0.047900, 0.026456, -0.013691, -0.020202, 0.001280},
    {-0.008257, 0.067648, -0.016942, -0.045277, -0.034974, -0.029692, -0.028868, 0.008715, -0.001010, 0.009922},
    {-0.003652, -0.034178, 0.061764, -0.019493, -0.121706, -0.029708, 0.139862, -0.024100, -0.052616, -0.094327},
    {-0.120880, 0.131849, -0.023791, -0.039715, -0.062060, -0.059158, 0.035999, -0.039029, -0.009734, 0.005242},
    {0.005033, 0.020068, -0.021315, -0.004984, -0.015482, -0.029666, 0.025172, 0.032056, -0.015766, 0.001012},
    {0.002072, 0.012281, 0.016304, -0.007102, -0.021207, 0.004339, -0.018041, 0.015163, -0.009133, -0.013945},
    {0.022161, 0.047071, -0.018200, -0.015751, -0.120440, 0.004036, 0.051620, -0.053007, -0.066786, -0.086697},
    {-0.070811, 0.013499, 0.036665, -0.024003, -0.059124, -0.070418, 0.006068, -0.019261, -0.045452, -0.032042},
    {0.008975, -0.024134, 0.019372, 0.014108, -0.091525, -0.002048, 0.114758, 0.005266, -0.019308, -0.025979},
    {-0.068404, 0.059896, -0.032064, -0.054276, -0.054364, -0.041371, 0.031388, -0.010332, -0.020848, -0.000822},
    {-0.099523, 0.013879, 0.011225, -0.036575, -0.062225, -0.073999, 0.058001, -0.024682, -0.029657, -0.042266},
    {-0.060758, -0.058523, 0.050396, -0.010808, -0.110189, -0.059942, 0.049871, -0.055029, -0.090320, -0.131469},
    {-0.019048, 0.052906, -0.040241, -0.033324, -0.021922, -0.025090, 0.019946, -0.019087, -0.022833, -0.023152},
    {-0.027625, -0.006577, 0.025625, 0.002233, -0.080790, -0.047199, 0.055578, -0.037541, -0.044396, -0.086229},
    {-0.007495, 0.019045, -0.022298, -0.021901, 0.019422, -0.002756, -0.026758, 0.029155, -0.000806, -0.004161},
    {-0.122998, 0.069702, 0.015024, -0.055259, -0.062321, -0.062346, 0.008380, -0.034015, -0.039587, -0.035355},
    {-0.012268, 0.127268, -0.056539, -0.097183, -0.136347, -0.032689, 0.048936, -0.023922, -0.109521, -0.096771},
    {-0.122637, 0.114214, -0.081452, -0.016062, -0.089602, -0.095624, 0.058035, -0.007226, -0.023848, -0.019591},
    {-0.075685, -0.024649, 0.061550, -0.030793, -0.045399, -0.068624, 0.043431, -0.031733, -0.061737, -0.032975},
    {-0.142411, 0.096138, 0.040203, -0.044380, -0.098161, -0.163362, 0.029126, -0.052373, -0.141094, -0.120537},
    {0.031511, 0.005716, -0.023540, 0.005238, -0.013390, 0.011837, -0.038709, -0.033465, 0.007418, 0.004816},
    {0.025319, 0.024931, 0.029469, -0.018371, -0.002988, 0.023602, -0.052011, 0.024087, -0.042517, -0.006642},
    {-0.091017, -0.058164, 0.018808, -0.018126, -0.076374, -0.029439, 0.119444, 0.009581, -0.001731, -0.010355},
    {-0.120720, 0.005168, -0.003157, -0.030913, -0.071882, -0.101914, 0.071908, -0.003606, -0.029116, -0.036094},
    {0.100070, 0.058654, -0.022441, -0.014524, -0.022257, -0.049681, 0.001812, 0.039087, -0.020771, -0.014671},
    {-0.233372, 0.122431, -0.025870, -0.066075, -0.074043, -0.103210, 0.031680, -0.056569, -0.131018, -0.103734},
    {-0.104347, 0.063575, -0.001331, -0.044942, -0.086369, -0.066179, 0.036088, -0.030843, -0.056393, -0.037868},
    {-0.075693, 0.015181, 0.031834, -0.062808, -0.063817, -0.032987, 0.047005, -0.032147, -0.035521, -0.036572},
    {-0.062538, 0.125587, -0.086809, -0.011693, -0.090288, -0.018834, 0.110192, 0.014111, -0.032493, -0.022113},
    {0.016739, 0.030491, -0.016158, -0.012106, -0.010274, -0.019284, -0.013213, 0.017001, -0.031243, -0.011162},
    {-0.088877, 0.041287, -0.027831, -0.041646, -0.077351, -0.050565, 0.032395, -0.002956, -0.056946, -0.026111},
    {-0.009174, -0.002616, 0.011762, -0.011195, -0.004581, -0.016232, 0.010669, -0.002883, 0.003115, 0.003502},
    {-0.098621, 0.072302, -0.035424, -0.006988, -0.078044, -0.026825, 0.102964, -0.000598, -0.034963, -0.032366},
    {0.068062, 0.050236, -0.007715, -0.026063, -0.038590, -0.018089, -0.030226, 0.017049, 0.005918, -0.060438},
    {-0.041094, 0.165407, -0.087250, -0.041606, -0.054086, -0.043129, 0.020286, -0.003600, -0.063673, -0.058026},
    {-0.141821, 0.092414, -0.057553, -0.010839, -0.097452, -0.028599, 0.145533, -0.049441, -0.022949, -0.020842},
    {0.042920, 0.017975, 0.010884, -0.018084, -0.027864, -0.035130, 0.000707, 0.014365, -0.004759, -0.068823},
    {0.033803, 0.011892, 0.028389, 0.021217, -0.037095, -0.008117, -0.019553, -0.012716, -0.023539, -0.013592},
    {-0.031771, 0.003534, -0.015680, -0.022615, -0.091631, -0.015376, 0.069481, -0.024291, -0.061662, -0.018065},
    {-0.118141, 0.010629, 0.012203, -0.034633, -0.075925, -0.097098, 0.042854, -0.021476, -0.035966, -0.020399},
    {-0.022225, 0.149913, -0.063763, -0.028975, -0.033549, -0.005393, -0.034992, 0.011814, -0.027649, -0.002681},
    {-0.015383, 0.050701, -0.035762, -0.058303, -0.060460, -0.004143, 0.027531, -0.036357, -0.023366, -0.065662},
    {-0.095590, 0.101444, -0.029954, -0.069549, -0.089998, -0.039106, 0.047692, -0.012694, -0.035753, -0.030236},
    {-0.126048, 0.107386, -0.001710, -0.087331, -0.064458, -0.099320, -0.003117, -0.061111, -0.100394, -0.105853},
    {-0.016407, 0.034513, -0.015783, -0.030105, -0.041901, -0.006452, 0.015259, -0.009912, -0.033726, -0.016931},
    {-0.058011, 0.035394, 0.009953, -0.029977, -0.063049, -0.056013, 0.012134, -0.042214, -0.033042, -0.052085},
    {0.006088, 0.016681, 0.009294, -0.021934, -0.009256, -0.015008, -0.027042, 0.031664, 0.000043, -0.008668},
    {-0.123601, 0.050363, -0.003732, -0.047559, -0.079343, -0.056811, 0.066496, -0.024393, -0.038971, -0.015610},
    {-0.067500, 0.062301, -0.033577, -0.053837, -0.092858, -0.067458, 0.039429, 0.013625, -0.083056, -0.079408},
    {-0.034453, 0.101197, -0.034710, -0.133636, -0.104542, 0.021570, 0.087157, -0.018466, -0.051505, -0.054395},
    {-0.086716, 0.070250, 0.019797, -0.042962, -0.086874, -0.083242, 0.036770, -0.019658, -0.032675, -0.013687},
    {-0.211378, 0.108725, -0.032236, -0.054319, -0.090156, -0.102376, 0.040381, -0.046001, -0.121539, -0.067283},
    {0.016140, 0.018903, -0.006168, 0.010439, -0.025043, 0.010379, -0.017492, -0.024820, 0.015895, -0.012083},
    {0.006119, 0.043091, 0.023147, -0.021723, -0.015844, 0.030989, -0.025367, 0.036306, -0.045097, -0.030471},
    {-0.071823, 0.135098, -0.086971, -0.037111, -0.051070, -0.009209, 0.050224, -0.008379, -0.028828, -0.022501},
    {-0.124046, 0.116446, -0.073519, -0.063752, -0.088404, -0.027180, 0.092505, -0.029940, -0.052498, -0.018103},
    {0.098203, 0.062763, -0.036391, -0.005847, 0.002091, -0.042482, -0.009398, 0.036255, -0.043754, -0.065171},
    {-0.243426, 0.081007, -0.023625, -0.057653, -0.099963, -0.044268, 0.097715, -0.014928, -0.122968, -0.049993},
    {-0.068091, 0.034736, 0.025269, -0.018143, -0.084610, -0.030643, 0.039606, -0.014276, -0.060740, -0.058482},
    {-0.065225, 0.032031, 0.014570, -0.076116, -0.055280, -0.024012, 0.020526, -0.007140, -0.051005, -0.033207},
    {0.004872, -0.004778, 0.060723, -0.004199, -0.093676, 0.075315, 0.061452, 0.000643, -0.034899, -0.043908},
    {-0.001273, -0.010599, -0.010300, -0.006143, 0.007555, -0.019036, 0.002081, 0.017645, -0.011412, -0.009230},
    {-0.065086, 0.065722, -0.005133, -0.057146, -0.065720, 0.001077, 0.035809, 0.000276, -0.049849, -0.046740},
    {0.016316, 0.008665, -0.007113, -0.000461, -0.015748, -0.009531, 0.005706, -0.010904, 0.013738, 0.014978},
    {-0.070019, 0.107807, -0.032337, -0.011748, -0.136693, -0.003836, 0.140952, -0.020174, -0.033547, -0.038818},
    {0.063023, -0.013418, 0.079615, -0.029127, -0.075034, -0.015537, -0.035390, 0.012023, 0.021567, -0.075359},
    {-0.123889, -0.001544, 0.027163, -0.060458, -0.019546, -0.037677, 0.067589, 0.004634, -0.026522, -0.010924},
    {-0.101328, 0.092145, -0.042428, -0.011975, -0.178114, 0.021321, 0.176892, -0.055712, -0.028498, -0.045597},
    {0.046751, 0.020558, -0.014170, -0.011541, 0.007508, -0.004457, 0.022166, 0.030661, -0.018539, -0.040480},
    {0.046858, -0.033008, 0.092397, 0.008842, -0.044412, -0.015850, -0.010547, 0.014962, -0.029806, -0.020599},
    {-0.019914, 0.036200, -0.014245, -0.060231, -0.062666, -0.006825, 0.013546, -0.028350, -0.094416, -0.041162},
    {-0.115860, 0.058690, -0.019498, -0.029569, -0.080801, -0.033837, 0.052252, -0.030981, -0.043270, -0.030269},
    {-0.083110, -0.017263, 0.045449, -0.017257, -0.008903, -0.015050, 0.025351, -0.001888, -0.018143, -0.014314},
    {0.051629, -0.041873, 0.040058, -0.051804, -0.072062, 0.007264, 0.010618, -0.038561, -0.046712, -0.068036},
    {-0.018930, -0.010246, 0.036899, -0.026536, -0.075226, -0.011303, 0.047818, -0.028631, -0.066613, -0.069522},
    {-0.131887, -0.020449, 0.060133, -0.035462, -0.065977, -0.147783, 0.061815, -0.017721, -0.064530, -0.023380},
    {0.065392, -0.059074, 0.076436, -0.028498, -0.047187, 0.007834, 0.017240, 0.013319, -0.015622, -0.075441},
    {-0.092503, 0.011354, 0.014812, -0.047930, -0.058530, -0.061526, 0.032167, -0.027145, -0.033843, -0.035017},
    {0.006965, 0.014255, -0.009304, -0.007154, 0.015466, 0.003926, -0.016005, 0.007931, 0.000738, 0.001028},
    {-0.128744, 0.080184, -0.029054, -0.014997, -0.115840, -0.030999, 0.063727, -0.013941, -0.050886, -0.040266},
    {-0.123201, -0.010014, 0.025642, -0.085549, -0.060516, -0.038267, 0.049345, 0.008911, -0.068165, 0.002314},
    {0.050450, -0.081140, 0.097042, -0.032518, -0.152573, 0.019741, 0.045898, -0.035302, -0.033754, -0.091571},
    {-0.096771, 0.045166, -0.012203, -0.002611, -0.063574, -0.049944, 0.041872, -0.024013, -0.056973, -0.037874},
    {-0.263942, 0.106492, -0.029293, -0.052446, -0.116127, -0.044026, 0.097890, -0.049058, -0.105238, -0.016306},
    {0.001363, 0.002465, -0.015380, 0.004842, -0.004159, 0.010825, -0.030738, -0.026392, 0.002307, -0.002165},
    {0.046621, 0.030087, 0.047132, -0.002948, -0.015224, 0.004657, -0.028943, 0.034839, -0.029280, -0.020103},
    {-0.006643, -0.027739, 0.003872, -0.061342, -0.025818, 0.051068, 0.062396, -0.002480, -0.003166, -0.063283},
    {-0.078398, 0.041648, -0.053066, -0.011792, -0.026690, -0.011844, 0.069401, -0.016729, -0.063276, -0.037480},
    {0.075618, 0.052300, -0.018940, -0.010506, -0.002211, -0.042802, 0.007085, 0.015254, -0.039674, -0.031758},
    {-0.295302, 0.129417, -0.051590, -0.057527, -0.176891, 0.024185, 0.161461, -0.062435, -0.112768, -0.030328},
    {-0.071051, 0.025313, -0.003939, -0.057519, -0.070484, 0.039863, 0.050384, -0.026253, -0.080532, -0.031237},
    {-0.006360, 0.007755, 0.009250, -0.082112, -0.048714, -0.012727, 0.019053, -0.027821, -0.059277, -0.049813},
    {-0.005063, 0.062643, 0.005524, -0.078134, -0.082947, 0.095434, 0.031156, 0.004916, -0.016758, -0.006885},
    {0.041868, 0.039443, -0.012028, -0.005551, 0.011902, -0.012469, -0.023797, 0.002275, -0.015283, -0.005426},
    {-0.005216, -0.008607, 0.032741, -0.060228, -0.066035, 0.018581, 0.053447, -0.007590, -0.074882, -0.062643},
    {-0.014443, 0.001721, 0.004050, -0.016246, -0.015602, -0.001035, -0.007060, 0.000827, 0.004195, -0.001990},
    {-0.058645, 0.055724, -0.031068, -0.024350, -0.094961, 0.075959, 0.084221, -0.011259, -0.036004, -0.021877},
    {0.011355, 0.011476, 0.013127, -0.028294, -0.001543, -0.038095, -0.008136, 0.021688, 0.019520, 0.004257},
    {-0.170895, 0.123780, -0.035072, -0.069762, -0.117844, -0.030870, 0.100057, -0.010222, -0.028352, -0.005579},
    {-0.118947, 0.034114, -0.014938, -0.036404, -0.134721, 0.092889, 0.093510, -0.056841, 0.001118, 0.023918},
    {-0.016711, 0.016606, -0.013066, -0.019334, 0.004895, -0.028695, 0.031480, 0.024375, 0.000017, -0.029022},
    {0.031263, 0.005923, 0.052478, 0.020769, -0.037227, -0.005969, -0.002806, 0.002914, -0.015388, 0.004433},
    {0.029122, 0.027369, 0.017887, -0.082200, -0.082666, -0.006872, 0.026886, -0.041999, -0.077758, -0.062943},
    {-0.105374, 0.049332, -0.046265, -0.048629, -0.059144, 0.009699, 0.043322, -0.030321, -0.066950, -0.045817},
    {-0.074378, 0.112664, -0.033752, -0.028761, -0.091862, 0.011160, 0.075713, 0.005075, -0.018306, 0.010426},
    {0.029901, -0.079461, 0.095253, -0.074337, -0.090293, 0.040401, 0.027539, -0.030986, -0.038321, -0.054176},
    {-0.055494, 0.038256, -0.009842, -0.091061, -0.078195, 0.058698, 0.048923, -0.024362, -0.063935, -0.039663},
    {-0.151895, 0.093302, -0.010790, -0.073972, -0.108374, -0.068287, 0.078982, -0.021638, -0.045265, -0.049865},
    {0.003183, 0.005182, 0.004960, -0.003856, 0.015108, -0.010123, -0.001399, -0.001215, -0.003663, 0.001331},
    {-0.084379, 0.058493, -0.030671, -0.058584, -0.054972, -0.036684, 0.023984, -0.013621, -0.050399, -0.031810},
    {-0.008892, 0.022975, -0.000835, -0.021517, 0.015243, -0.011690, -0.018052, 0.001725, -0.019284, -0.016800},
    {-0.123111, 0.071846, -0.059114, -0.047671, -0.103863, 0.034669, 0.050188, -0.011286, -0.037297, -0.036321},
    {-0.045636, 0.120331, -0.052657, -0.115503, -0.107856, -0.000575, 0.049332, -0.005093, -0.080794, -0.051804},
    {-0.041487, -0.128987, 0.037418, -0.124125, -0.030879, 0.079373, 0.052508, -0.013691, -0.028114, -0.009583},
    {-0.081177, 0.044963, -0.001372, -0.033902, -0.077289, 0.010460, 0.043218, -0.024650, -0.060744, -0.048382},
    {-0.255104, 0.123469, -0.051513, -0.058036, -0.182735, 0.044287, 0.154947, -0.070486, -0.124397, -0.074672},
    {0.037383, 0.022490, -0.014929, 0.008968, -0.017981, -0.003101, -0.021296, -0.036509, 0.000157, -0.005872},
    {0.018878, 0.061927, 0.042381, -0.009519, -0.015302, 0.000752, -0.039079, 0.032036, -0.044394, -0.020988},
    {-0.034935, 0.059696, -0.070714, -0.037967, -0.052373, 0.050831, 0.091804, -0.020428, -0.031120, 0.003726},
    {-0.101452, 0.004538, -0.016981, -0.135376, -0.071067, 0.081069, 0.077879, -0.023774, -0.052083, -0.017531},
    {0.044326, 0.073737, -0.030226, 0.006038, -0.004885, -0.044322, -0.000308, 0.028487, -0.025120, 0.017147},
    {-0.247433, 0.090143, -0.055873, -0.077992, -0.212419, 0.087059, 0.138151, -0.073753, -0.058057, -0.106047},
    {-0.088851, -0.064088, -0.008451, -0.112229, -0.123550, 0.042128, 0.053089, -0.017553, -0.051653, -0.069379},
    {-0.008156, -0.031212, 0.042967, -0.041194, -0.078022, 0.003812, 0.043884, -0.015023, -0.036795, -0.067546},
    {-0.004358, 0.028251, -0.040561, -0.041434, -0.055212, 0.066229, 0.082217, 0.016643, -0.017266, 0.008241},
    {0.005874, 0.002208, -0.006060, 0.000744, 0.020788, -0.010427, -0.022686, 0.009321, -0.008618, -0.017486},
    {-0.032195, -0.045194, 0.018287, -0.091122, -0.113396, 0.038953, 0.031336, -0.019942, -0.055491, -0.047951},
    {-0.008272, 0.002754, 0.012249, -0.003262, -0.007274, -0.013840, -0.008849, 0.004334, -0.009582, -0.004187},
    {-0.038042, 0.052192, -0.052308, -0.092956, -0.108192, 0.093125, 0.085748, -0.006192, -0.002795, -0.002223},
    {0.009176, 0.022658, -0.050494, -0.048905, -0.085088, -0.033245, 0.065199, 0.023757, 0.022688, -0.000329},
    {-0.019026, 0.061326, 0.082191, -0.017703, -0.150862, 0.065845, 0.100080, -0.029882, -0.050633, -0.045785},
    {-0.050506, 0.069131, -0.071599, -0.096553, -0.147763, 0.107130, 0.112437, -0.033100, 0.024588, 0.016220},
    {0.006567, 0.009307, -0.036289, -0.019714, -0.021029, -0.015084, 0.009427, 0.033808, -0.009760, -0.002840},
    {0.010239, 0.016860, -0.014923, 0.015383, -0.034100, 0.002242, 0.030281, -0.003923, -0.024164, 0.011968},
    {-0.007562, -0.078050, 0.079927, -0.018422, -0.075551, 0.006474, 0.041578, -0.053290, -0.093884, -0.043955},
    {-0.065884, -0.006019, 0.001533, -0.107054, -0.086159, 0.062310, 0.050435, -0.021834, -0.061725, -0.042912},
    {-0.044532, 0.043564, 0.036387, -0.014949, -0.094177, 0.023585, 0.081823, -0.011700, -0.039118, -0.050012},
    {0.009358, -0.014498, -0.047748, -0.036663, -0.105243, -0.010841, 0.101191, -0.019672, -0.035074, -0.035408},
    {-0.045458, -0.068346, -0.011362, -0.094706, -0.133204, 0.029781, 0.070374, -0.009948, -0.049407, -0.046486},
    {-0.076262, 0.060985, 0.013400, -0.014162, -0.126111, -0.020161, 0.074606, -0.045666, -0.075693, -0.099982},
    {-0.012292, 0.005462, -0.040418, 0.001967, -0.054088, -0.013320, 0.038243, 0.015458, -0.018629, 0.002365},
    {-0.011980, -0.003357, 0.045945, -0.047081, -0.104382, 0.001449, 0.043016, -0.023217, -0.057549, -0.086596},
    {0.003485, 0.013942, -0.016781, -0.013099, -0.004566, -0.014173, -0.024327, 0.017069, -0.009061, -0.001904},
    {-0.106260, 0.060430, -0.072953, -0.094734, -0.116823, 0.058702, 0.080939, -0.015045, -0.014019, -0.007008},
    {-0.042072, -0.023236, 0.022537, -0.061966, -0.108393, 0.014838, 0.076859, -0.010067, -0.119371, -0.095904},
    {-0.015344, -0.021341, -0.080383, -0.053933, -0.130949, -0.078158, 0.083928, -0.009874, 0.006233, -0.036731},
    {-0.084487, -0.001411, -0.025804, -0.064157, -0.057476, 0.017008, 0.050341, -0.011883, -0.064691, -0.033513},
    {-0.201274, 0.059663, -0.039566, -0.101038, -0.188927, 0.084455, 0.138906, -0.100528, -0.055852, -0.095450},
    {0.049697, 0.013526, 0.000172, 0.010418, -0.020761, -0.001828, -0.018072, -0.027790, 0.017708, -0.034618},
    {-0.000371, 0.035700, 0.025322, -0.012861, -0.010469, 0.013376, -0.035892, 0.029332, -0.038375, -0.013214},
    {-0.038670, -0.077023, 0.034793, -0.126761, -0.056466, 0.091890, 0.025175, 0.005779, 0.046672, -0.003705},
    {-0.076908, -0.020056, -0.055834, -0.124511, -0.075210, 0.028868, 0.067771, -0.024500, 0.006388, -0.033601},
    {0.042997, 0.065131, -0.025056, 0.005260, -0.001324, -0.062702, -0.010449, 0.013680, -0.043413, 0.007634},
    {-0.279136, 0.065714, -0.102299, -0.097943, -0.220766, 0.090971, 0.144926, -0.078967, -0.059437, -0.075881},
    {-0.067573, 0.018873, -0.063086, -0.056130, -0.069238, 0.001879, 0.060770, -0.026322, -0.067894, -0.036431},
    {-0.044808, -0.001229, -0.023020, -0.053612, -0.082962, 0.011543, 0.031661, -0.007581, -0.045052, -0.058826},
    {-0.004621, 0.076829, -0.068891, 0.001683, -0.039047, 0.019378, 0.058928, 0.003037, -0.009009, 0.008396},
    {0.015655, 0.006921, 0.017138, -0.006896, 0.005833, -0.011584, -0.016740, 0.014174, -0.021709, -0.004668},
    {-0.045943, -0.002126, -0.053192, -0.050751, -0.107849, 0.024522, 0.049946, -0.011327, -0.026408, -0.033809},
    {0.000947, 0.010781, 0.011752, 0.010278, 0.005319, 0.006660, -0.000066, -0.002001, 0.006548, -0.002041},
    {-0.023112, 0.083386, -0.069632, -0.066202, -0.070970, 0.052365, 0.112501, -0.021881, -0.012157, -0.002285},
    {-0.004908, 0.037340, -0.019161, -0.023681, -0.023379, -0.014824, -0.000424, 0.025572, 0.019692, -0.008376},
    {-0.015790, 0.021416, 0.010212, -0.063785, -0.126318, 0.118657, 0.055462, -0.031182, -0.029750, -0.057836},
    {-0.042997, 0.063755, -0.097909, -0.068384, -0.117595, 0.033990, 0.164758, -0.019968, 0.009253, -0.004842},
    {-0.024337, 0.024126, -0.038408, -0.036385, 0.019831, -0.029071, 0.014458, 0.022912, -0.005017, -0.019193},
    {-0.008807, -0.005212, 0.005282, -0.004136, -0.002769, -0.010643, 0.010116, 0.000615, -0.019064, 0.004245},
    {0.036941, -0.032328, -0.008241, -0.036915, -0.103124, 0.041967, 0.028089, -0.036949, -0.063904, -0.033460},
    {-0.058814, 0.021355, -0.056094, -0.099459, -0.101379, 0.031204, 0.067856, -0.017928, -0.047937, -0.058868},
    {-0.018951, 0.057501, 0.006807, -0.013177, -0.073124, 0.060462, 0.050046, 0.012267, -0.017311, -0.003093},
    {0.015161, -0.002335, -0.074519, -0.032207, -0.053733, -0.013427, 0.068899, -0.006545, -0.034611, -0.047960},
    {-0.029034, 0.025974, -0.066724, -0.082577, -0.064337, 0.004436, 0.038011, -0.004098, -0.053782, -0.052568},
    {-0.168014, 0.012559, -0.024246, -0.069210, -0.149911, 0.044135, 0.098016, -0.072021, -0.095061, -0.075045},
    {-0.013856, -0.003983, -0.004363, -0.019586, -0.002402, 0.015462, 0.012482, 0.007342, -0.008624, -0.018401},
    {-0.055352, -0.022718, 0.029916, -0.106619, -0.087295, 0.048963, 0.048585, -0.007965, -0.060529, -0.057582},
    {0.012681, 0.008317, -0.017483, -0.017671, 0.011762, -0.011157, -0.026948, 0.001894, -0.005020, -0.015497},
    {-0.060181, 0.052968, -0.085338, -0.102581, -0.118819, 0.078071, 0.076595, 0.003006, -0.011082, -0.028927},
    {-0.005069, -0.085173, 0.045434, -0.134837, -0.172591, 0.096620, 0.019269, -0.004122, -0.020031, -0.076170},
    {-0.025058, -0.012345, -0.040053, -0.088718, -0.015853, 0.053880, 0.021464, -0.020773, -0.014954, -0.000696},
    {-0.077964, 0.020719, -0.066729, -0.103036, -0.068677, 0.012577, 0.041588, -0.031725, -0.074516, -0.031471},
    {-0.204405, 0.049269, -0.097431, -0.125643, -0.248481, 0.086550, 0.131837, -0.073214, -0.067335, -0.057998},
    {0.055919, 0.007754, 0.020115, 0.016066, -0.039066, -0.000243, -0.031615, -0.016496, 0.017389, -0.010674},
    {-0.001605, 0.031592, 0.022662, -0.011131, -0.008639, 0.016519, -0.015410, 0.038686, -0.033773, -0.005188},
    {-0.032694, 0.080781, -0.111495, -0.019975, -0.021738, 0.066696, 0.011529, -0.003307, -0.042557, -0.012896},
    {-0.040126, 0.043343, -0.116525, -0.069592, -0.058003, 0.033494, 0.013766, -0.021198, -0.045726, -0.014742},
    {0.047739, 0.082984, -0.042290, -0.019985, 0.006426, -0.054593, 0.007120, 0.032644, -0.050188, 0.013256},
    {-0.220375, 0.040016, -0.104557, -0.144751, -0.266394, 0.053696, 0.149829, -0.013357, -0.018089, -0.081146},
    {-0.072417, 0.004942, -0.054196, -0.081792, -0.062714, -0.029474, 0.041650, -0.023229, -0.029837, -0.031975},
    {-0.053935, -0.008672, -0.042769, -0.029239, -0.030967, -0.000763, 0.054196, 0.000752, -0.042388, -0.029655},
    {-0.000395, 0.005661, -0.008066, -0.007980, -0.011697, -0.020244, 0.072126, 0.007359, -0.016924, 0.009864},
    {0.018165, 0.020602, 0.017368, -0.013923, 0.000875, -0.018586, -0.017297, 0.031158, -0.009420, -0.010738},
    {-0.051417, -0.003770, -0.049807, -0.060745, -0.036329, -0.011520, 0.032904, -0.015501, -0.027244, -0.027545},
    {-0.001694, 0.011792, 0.011721, -0.014658, 0.007339, 0.010706, -0.010724, -0.010363, 0.006498, 0.003113},
    {-0.023583, 0.096650, -0.051335, -0.033239, -0.042217, 0.003620, 0.094100, -0.012769, -0.007751, -0.005029},
    {-0.002917, 0.014988, -0.001230, -0.037217, -0.016096, -0.030620, -0.002656, 0.024358, -0.004056, -0.011223},
    {-0.049138, 0.006879, -0.057837, -0.094303, -0.156686, 0.072439, 0.115770, 0.007371, 0.020259, -0.002812},
    {-0.014906, 0.066389, -0.116141, -0.036280, -0.065256, -0.012058, 0.115230, -0.035667, -0.016975, 0.009846},
    {0.004564, 0.030333, -0.034092, -0.018353, 0.002190, -0.020637, 0.002900, 0.019965, -0.012089, -0.011707},
    {-0.000376, 0.010807, 0.032528, 0.019733, -0.014194, -0.006564, 0.006875, -0.006396, -0.021191, -0.003026},
    {0.012283, 0.011002, -0.077949, -0.043606, -0.055341, 0.014771, 0.061037, -0.020687, -0.078307, -0.001092},
    {-0.054637, 0.039290, -0.067050, -0.074343, -0.081651, 0.006965, 0.052764, 0.001186, -0.050793, -0.030327},
    {-0.030102, -0.005008, -0.009718, -0.069669, -0.066458, 0.060825, 0.082759, 0.000637, 0.003226, 0.000484},
    {-0.022042, -0.011222, -0.020986, -0.052392, -0.050030, -0.036666, 0.036488, -0.016476, -0.007323, -0.005255},
    {-0.064462, -0.031425, -0.022924, -0.099797, -0.067670, -0.046251, 0.071436, -0.027760, -0.022178, -0.012835},
    {-0.125620, -0.011333, -0.043281, -0.139133, -0.174946, 0.066214, 0.110689, -0.040652, 0.001052, -0.047557},
    {-0.021964, -0.009888, -0.005436, -0.021757, -0.010522, -0.016500, -0.007537, -0.004696, -0.004109, -0.023687},
    {-0.077760, -0.024034, -0.038242, -0.091034, -0.119780, 0.024164, 0.060817, 0.000132, -0.032729, -0.037493},
    {-0.011116, 0.016779, -0.023369, -0.020806, 0.013860, -0.005659, -0.000598, 0.004369, -0.002383, 0.007728},
    {-0.053326, 0.064230, -0.089765, -0.065957, -0.071372, 0.013037, 0.081551, -0.002652, -0.037988, -0.010612},
    {-0.063239, 0.055693, -0.102237, -0.103377, -0.123670, -0.008427, 0.126338, 0.007458, -0.105233, -0.051967},
    {-0.044824, -0.020489, -0.026984, -0.082238, -0.093542, -0.081800, 0.122452, -0.007379, -0.015552, 0.005311},
    {-0.082159, -0.001579, -0.053529, -0.089968, -0.053007, -0.016439, 0.041000, -0.029659, -0.040918, -0.021062},
    {-0.192823, 0.037436, -0.117452, -0.139224, -0.251564, 0.043431, 0.161414, -0.034335, -0.049800, -0.050568},
    {-0.009104, 0.025508, -0.004927, -0.003301, -0.019216, -0.003760, -0.009096, -0.023345, -0.004358, 0.024907},
    {0.017636, 0.063714, 0.053835, 0.008855, -0.017305, 0.012359, -0.025336, 0.028341, -0.057370, -0.030741},
    {-0.050153, -0.010468, -0.051941, -0.042989, -0.018691, -0.027365, 0.105974, -0.006051, -0.002528, 0.000937},
    {-0.056694, -0.004311, -0.012841, -0.091278, -0.067607, -0.080822, 0.082933, -0.014860, -0.027497, -0.026510},
    {0.058020, 0.070305, -0.021873, -0.014951, 0.008356, -0.053995, 0.008214, 0.026832, -0.040542, 0.020872},
    {-0.174563, 0.067255, -0.133906, -0.190536, -0.235449, -0.020099, 0.181594, -0.004303, -0.100127, -0.061156},
    {-0.046716, 0.000224, -0.039699, -0.049498, -0.101743, -0.039645, 0.051568, -0.018815, -0.036366, -0.016401},
    {-0.034812, -0.008693, -0.035862, -0.014707, -0.028075, -0.024493, 0.037737, -0.009498, -0.020249, -0.026897},
    {-0.002067, 0.008809, 0.004848, 0.000685, -0.021372, 0.000962, 0.035141, -0.005122, -0.018526, -0.014875},
    {0.009775, 0.042735, -0.011014, -0.013793, -0.012260, -0.007401, -0.009227, 0.018480, -0.025466, 0.001128},
    {-0.030566, -0.019556, -0.037286, -0.045250, -0.044373, -0.020186, 0.033775, 0.015057, -0.016248, -0.013176},
    {-0.009916, -0.010016, -0.016322, -0.002221, 0.005574, 0.015795, -0.003823, -0.002674, -0.015768, 0.009332},
    {-0.020979, 0.032571, -0.015361, -0.007747, -0.067501, -0.021333, 0.085408, 0.013332, 0.003112, -0.007527},
    {0.003635, 0.035741, 0.011146, -0.040559, 0.001821, -0.026775, -0.021204, 0.028305, 0.003135, -0.019147},
    {-0.042857, 0.071944, -0.120490, -0.079349, -0.107534, 0.063895, 0.125504, 0.010700, -0.046166, 0.007864},
    {0.006356, 0.004773, -0.038551, -0.014948, -0.073896, -0.057441, 0.127314, -0.044183, -0.013977, 0.018371},
    {-0.016868, 0.010727, -0.020490, -0.010371, -0.008881, -0.015545, 0.020004, 0.013032, 0.005623, -0.020997},
    {-0.005127, -0.002643, 0.025975, 0.004895, -0.022775, 0.003245, -0.000960, 0.009053, -0.030883, -0.014461},
    {0.002772, -0.005647, -0.093085, -0.045903, -0.034644, 0.002142, 0.050645, -0.023941, -0.053511, 0.011794},
    {-0.063161, -0.018967, -0.050691, -0.088043, -0.057593, -0.048602, 0.062649, -0.006787, -0.031848, -0.008234},
    {-0.008776, 0.085103, -0.084444, -0.017168, -0.027791, 0.043796, 0.098010, 0.005042, -0.035551, 0.002829},
    {0.005106, 0.008751, -0.007928, -0.003422, -0.070191, -0.027378, 0.072702, -0.006224, 0.003870, 0.004887},
    {-0.020145, -0.015311, -0.046714, -0.051038, -0.089238, -0.021998, 0.086344, -0.006506, -0.010954, -0.004989},
    {-0.111514, 0.047847, -0.129964, -0.126596, -0.117769, -0.004191, 0.086057, -0.018062, -0.099413, -0.059580},
    {-0.014974, 0.009811, -0.007263, 0.007066, -0.010232, -0.000989, -0.002462, 0.012443, -0.021736, 0.005204},
    {-0.039915, 0.016743, -0.068375, -0.080099, -0.035644, 0.013203, 0.032231, 0.003260, -0.037638, -0.028721},
    {0.012238, 0.018736, 0.002962, -0.018666, 0.002859, 0.010637, -0.022267, -0.000174, 0.001433, 0.005101},
    {-0.059008, 0.038609, -0.095820, -0.052606, -0.077450, -0.048484, 0.089192, -0.012441, -0.010358, -0.031175},
    {-0.087696, 0.043518, -0.160816, -0.126360, -0.077810, 0.045018, 0.092456, 0.034422, -0.058220, -0.033502},
    {-0.008200, -0.024321, -0.031663, -0.030947, -0.061823, -0.010911, 0.089627, -0.008417, -0.025310, -0.026086},
    {-0.040090, 0.011283, -0.047228, -0.091639, -0.091854, -0.029617, 0.055833, -0.026966, -0.039608, -0.014092},
    {-0.124656, 0.048737, -0.142023, -0.191229, -0.197251, -0.039912, 0.179864, -0.037759, -0.085583, -0.019738},
    {0.006539, 0.023082, -0.016271, -0.007553, -0.005785, -0.005341, -0.028159, -0.029073, -0.002970, 0.001321},
    {0.014573, 0.050163, 0.021299, -0.011934, -0.033106, 0.024751, -0.044580, 0.031782, -0.039884, -0.013976},
    {-0.019564, 0.005757, -0.019416, -0.002651, -0.025652, -0.023984, 0.082500, 0.012460, -0.009030, -0.013453},
    {-0.020099, -0.008539, -0.067318, -0.026967, -0.049348, -0.027525, 0.045879, -0.010320, -0.005363, -0.019073},
    {0.047823, 0.061479, -0.027905, -0.019589, -0.000186, -0.058578, 0.021106, 0.020588, -0.044132, 0.008690},
    {-0.128733, 0.059222, -0.142298, -0.185366, -0.173258, -0.067084, 0.164849, -0.006548, -0.041103, -0.040485},
    {-0.008899, -0.013642, -0.048252, -0.060744, -0.050808, -0.027228, 0.045024, 0.003925, -0.029667, -0.026751},
    {-0.028419, -0.018807, -0.043866, -0.006919, -0.022646, -0.013178, 0.057447, -0.007043, -0.015919, -0.013032},
    {-0.001242, 0.003968, -0.009115, -0.012507, -0.001921, 0.026055, 0.032732, 0.002006, -0.015666, 0.003747},
    {0.014562, 0.023360, -0.012061, -0.000086, -0.013205, -0.012819, -0.001895, 0.018843, -0.029494, 0.000081},
    {-0.012519, -0.007723, -0.055294, -0.018999, -0.061179, -0.010487, 0.079626, 0.011838, -0.030111, -0.007140},
    {0.002676, 0.000153, 0.002027, -0.012423, 0.000550, 0.003116, 0.002569, 0.013477, -0.004410, 0.014111},
    {-0.004655, 0.034651, -0.016094, -0.012978, -0.051672, 0.000139, 0.060898, 0.001637, 0.000055, -0.004667},
    {0.007222, 0.015143, 0.008838, -0.017264, -0.024737, -0.023924, -0.005200, 0.003610, 0.022550, -0.016722},
    {-0.066642, 0.076696, -0.098662, -0.056574, -0.091417, -0.037072, 0.146973, 0.010894, -0.027297, -0.003478},
    {0.023140, 0.005256, -0.023443, -0.018145, -0.055156, 0.003699, 0.094336, -0.038044, 0.014600, 0.011329},
    {-0.012908, 0.037262, -0.016038, -0.032183, -0.013338, -0.013446, 0.023797, 0.037294, 0.009976, 0.003956},
    {0.000312, 0.016981, 0.027666, 0.005502, -0.007876, 0.001025, 0.003046, 0.017188, -0.018544, -0.014004},
    {0.036892, -0.003920, -0.077714, -0.015073, -0.041252, 0.000634, 0.065719, -0.014117, -0.072655, 0.039806},
    {-0.022944, -0.008604, -0.057185, -0.059594, -0.051276, -0.039712, 0.046946, 0.005034, -0.028088, -0.004315},
    {-0.006941, 0.031698, -0.047577, -0.000299, -0.029723, 0.008068, 0.063005, 0.005573, -0.015448, 0.011525},
    {-0.014303, -0.014351, -0.056505, 0.004834, -0.036992, -0.011659, 0.046128, 0.012102, -0.023656, -0.026038},
    {-0.029364, -0.018197, -0.087972, -0.034538, -0.048200, -0.023046, 0.068036, -0.001509, -0.019307, -0.018959},
    {-0.115184, 0.022043, -0.094582, -0.180575, -0.125775, -0.065757, 0.116389, -0.026911, -0.016328, -0.041297},
    {-0.019173, 0.011077, -0.016236, 0.005155, 0.008291, -0.009168, 0.007981, 0.023177, -0.000253, 0.002526},
    {-0.029493, -0.026516, -0.040027, -0.091051, -0.079629, -0.053699, 0.041795, -0.015863, -0.006524, -0.028173},
    {0.014982, 0.009562, -0.015157, 0.001972, -0.002768, -0.017470, -0.000882, 0.022372, -0.004195, 0.004559},
    {-0.022563, -0.011770, -0.038303, -0.033108, -0.064384, -0.037321, 0.071667, 0.008859, -0.028465, -0.030384},
    {-0.030485, -0.007500, -0.035637, -0.141877, -0.094739, -0.093620, 0.098887, 0.022253, -0.067623, 0.001750},
    {-0.019693, -0.022632, -0.044741, -0.022011, -0.036308, -0.013478, 0.054708, -0.018160, -0.022183, -0.032108},
    {-0.049987, -0.017469, -0.046906, -0.094138, -0.057723, -0.032865, 0.062130, 0.001544, -0.022796, -0.013661},
    {-0.097709, 0.057303, -0.140581, -0.163367, -0.140026, -0.085952, 0.176900, -0.022022, -0.023683, -0.028039},
    {-0.007877, 0.034123, -0.003000, 0.011032, -0.019016, -0.010773, 0.005454, -0.031647, 0.000742, 0.017495},
    {-0.013248, 0.065991, 0.046298, -0.005576, -0.031678, 0.009412, -0.034428, 0.038285, -0.051128, -0.024606},
    {-0.024839, 0.008337, -0.019201, -0.030076, -0.005468, -0.009960, 0.035323, 0.003630, -0.020659, -0.006015},
    {-0.019449, 0.000553, -0.021536, -0.044725, -0.020995, -0.008067, 0.019002, 0.009708, -0.032269, -0.021115},
    {0.056619, 0.085299, -0.032935, -0.012688, 0.015856, -0.057486, 0.024675, 0.017403, -0.019886, 0.013829},
    {-0.076829, -0.008288, -0.037824, -0.145443, -0.169754, -0.072919, 0.163561, 0.012855, -0.081068, -0.066036}
};

fixed_point_t dense_bias[10] = {
    -0.008574, 0.062558, 0.019351, -0.012585, -0.015453, 0.023940, -0.003047, 0.028796, -0.053736, -0.023130
};
